tree
version=v4
num_class=1
num_tree_per_iteration=1
label_index=0
max_feature_idx=3
objective=regression
feature_names=price_per_sqm area_sqm bedrooms bathrooms
feature_infos=[2.2749999999999999:15234.375] [26:315] [1:20] [1:20]
tree_sizes=899 946 940 940 946 1037 942 1040 941 1037 1042 1039 949 953 948 947 949 952 953 860 952 951 948 1032 947 955 947 948 946 864 1042 949 948 952 949 954 950 946 953 860 952 946 860 953 1043 947 865 949 948 954 945 952 866 954 946 951 1039 947 1036 864 951 948 951 1039 859 952 1039 862 948 958 943 949 947 945 950 959 947 949 947 1043 951 949 949 1034 951 956 856 864 952 863 864 949 1040 954 951 954 1038 1042 952 946 952 949 861 946 1037 867 954 864 949 956 863 954 950 955 950 948 948 951 1045 953 867 949 952 865 950 866 951 951 861 955 949 949 951 866 860 865 955 1034 947 954 951 954 954 949 950 863 950 860 858 954 947 865 954 955 950 864 865 946 952 950 949 951 953 1040 956 948 866 1041 863 1041 946 949 944 953 868 867 952 950 952 953 956 954 955 862 954 955 1039 866 954 953 954 956 949 1038 953 859 1042 953 958 868 953 864 952 1039 863 949 864 953 1043 949 951 951 946 866 957 952 952 1042 1039 953 949 866 1042 956 949 956 955 950 952 951 945 951 952 951 865 953 950 948 866 865 863 954 1042 952 949 947 867 866 1043 859 1044 864 954 952 948 1042 955 1040 951 863 954 952 947 865 862 954 949 949 946 953 1043 1041 952 1039 1044 954 951 948 951 947 950 956 945 1044 951 951 956 951 862 953 858 955 864 1042 951 865 948 954 954 954

Tree=0
num_leaves=9
num_cat=0
split_feature=3 0 0 0 0 2 0 2
split_gain=0.00549093 0.00220227 0.00195157 0.00260072 0.00110457 0.000940472 0.000563379 0.000154618
threshold=5.2500000000000009 5286.596548004316 4046.7099056603779 3255.5319148936173 1700.3663793103451 2.5000000000000004 7416.9642857142871 3.5000000000000004
decision_type=2 2 2 2 2 2 2 2
left_child=2 -2 3 4 5 -1 7 -4
right_child=1 -3 6 -5 -6 -7 -8 -9
leaf_value=0.041420913083998485 0.042580460031484961 0.041309635731645908 0.040365131593815877 0.042007293562404104 0.040361597865741325 0.040554182582877844 0.039982215019965038 0.040753637183822786
leaf_weight=31 25 30 20 21 38 21 28 21
leaf_count=31 25 30 20 21 38 21 28 21
internal_value=0.0410128 0.0418873 0.0407456 0.0410052 0.0407714 0.0410709 0.040328 0.0405641
internal_weight=235 55 180 111 90 52 69 41
internal_count=235 55 180 111 90 52 69 41
is_linear=0
shrinkage=1


Tree=1
num_leaves=9
num_cat=0
split_feature=3 0 0 0 0 2 0 2
split_gain=0.00444765 0.00178383 0.00158077 0.00210659 0.000894698 0.000761782 0.000456337 0.000125241
threshold=5.2500000000000009 5286.596548004316 4046.7099056603779 3255.5319148936173 1700.3663793103451 2.5000000000000004 7416.9642857142871 3.5000000000000004
decision_type=2 2 2 2 2 2 2 2
left_child=2 -2 3 4 5 -1 7 -4
right_child=1 -3 6 -5 -6 -7 -8 -9
leaf_value=0.00036728787911875598 0.0014108801626134665 0.00026713822774278626 -0.00058291548863053332 0.00089503027321327297 -0.00058609584444447574 -0.00041276956236244931 -0.00092754032728927481 -0.00023326042795642502
leaf_weight=31 25 30 20 21 38 21 28 21
leaf_count=31 25 30 20 21 38 21 28 21
internal_value=2.78654e-13 0.000787021 -0.000240479 -6.83102e-06 -0.000217265 5.22647e-05 -0.000616346 -0.000403824
internal_weight=235 55 180 111 90 52 69 41
internal_count=235 55 180 111 90 52 69 41
is_linear=0
shrinkage=0.1


Tree=2
num_leaves=9
num_cat=0
split_feature=3 0 3 0 0 0 0 0
split_gain=0.0036026 0.00144491 0.00129718 0.000453908 0.00100312 0.000417115 0.000413161 0.000226159
threshold=5.2500000000000009 5286.596548004316 3.5000000000000004 3493.04347826087 1700.3663793103451 452.11558307533545 7416.9642857142871 3855.4270491803286
decision_type=2 2 2 2 2 2 2 2
left_child=2 -2 3 4 5 -1 7 -4
right_child=1 -3 6 -5 -6 -7 -8 -9
leaf_value=-0.00013580851145493595 0.0012697921558283271 0.0002404244147085895 -0.00061314238257528775 0.00033137882977219611 -0.0005573768954491243 0.00046013837309146768 -0.00087627007253468037 -0.00016799297276884318
leaf_weight=23 25 30 21 30 32 24 25 25
leaf_count=23 25 30 21 30 32 24 25 25
internal_value=-1.70288e-12 0.000708319 -0.000216431 2.29628e-07 -0.000125523 0.000168505 -0.00054905 -0.000371213
internal_weight=235 55 180 109 79 47 71 46
internal_count=235 55 180 109 79 47 71 46
is_linear=0
shrinkage=0.1


Tree=3
num_leaves=9
num_cat=0
split_feature=3 0 0 0 0 2 2 3
split_gain=0.0029181 0.00123285 0.0017185 0.00117037 0.000700601 0.000591542 0.000392343 0.000274418
threshold=5.2500000000000009 4046.7099056603779 3181.5000000000005 5286.596548004316 1700.3663793103451 2.5000000000000004 4.5000000000000009 3.5000000000000004
decision_type=2 2 2 2 2 2 2 2
left_child=1 2 4 -2 5 -1 7 -3
right_child=3 6 -4 -5 -6 -7 -8 -9
leaf_value=0.00031530381642251972 0.0011428129160776736 -0.00044982666295254606 0.00076069981247807548 0.000216382008123522 -0.00054100414738059046 -0.00037208724132228995 -0.00022931785357219203 -0.00096163192594593224
leaf_weight=31 25 20 24 30 35 21 27 22
leaf_count=31 25 20 24 30 35 21 27 22
internal_value=8.73115e-12 -0.000194788 1.15517e-05 0.000637487 -0.00019511 3.77036e-05 -0.000526725 -0.000717915
internal_weight=235 180 111 55 87 52 69 42
internal_count=235 180 111 55 87 52 69 42
is_linear=0
shrinkage=0.1


Tree=4
num_leaves=9
num_cat=0
split_feature=3 0 0 0 0 2 2 3
split_gain=0.00236366 0.000998609 0.00139199 0.000948003 0.000567487 0.000479149 0.000317798 0.000222279
threshold=5.2500000000000009 4046.7099056603779 3181.5000000000005 5286.596548004316 1700.3663793103451 2.5000000000000004 4.5000000000000009 3.5000000000000004
decision_type=2 2 2 2 2 2 2 2
left_child=1 2 4 -2 5 -1 7 -3
right_child=3 6 -4 -5 -6 -7 -8 -9
leaf_value=0.00028377342567827943 0.0010285316566005351 -0.00040484401353751309 0.00068462980295104601 0.00019474378243709606 -0.00048690370067821018 -0.00033487854456152059 -0.0002063860668352357 -0.00086546873737295923
leaf_weight=31 25 20 24 30 35 21 27 22
leaf_count=31 25 20 24 30 35 21 27 22
internal_value=4.67209e-12 -0.000175309 1.03965e-05 0.000573738 -0.000175599 3.39332e-05 -0.000474052 -0.000646124
internal_weight=235 180 111 55 87 52 69 42
internal_count=235 180 111 55 87 52 69 42
is_linear=0
shrinkage=0.1


Tree=5
num_leaves=10
num_cat=0
split_feature=1 3 1 1 0 2 3 1 3
split_gain=0.00193241 0.0012508 0.000923198 0.00108716 0.000535286 0.000441273 0.000909678 0.000296493 0.000173799
threshold=106.50000000000001 3.5000000000000004 95.250000000000014 52.250000000000007 7416.9642857142871 2.5000000000000004 5.2500000000000009 42.250000000000007 3.5000000000000004
decision_type=2 2 2 2 2 2 2 2 2
left_child=2 -2 3 4 7 -5 8 -1 -7
right_child=1 -3 -4 5 -6 6 -8 -9 -10
leaf_value=-0.00039282236620783806 5.7797376066446304e-05 0.001162792853124085 -0.00069900667306501416 0.00054311670592142034 -0.00076511980203742332 -2.043583850040291e-05 0.00046765720171313134 0.00012374709913274274 -0.00040233262116089468
leaf_weight=25 20 21 25 23 22 22 31 20 26
leaf_count=25 20 21 25 23 22 22 31 20 26
internal_value=-5.59552e-12 0.000623771 -0.000131828 -4.79256e-05 -0.000360869 0.000157635 4.54068e-05 -0.000163236 -0.000227297
internal_weight=235 41 194 169 67 102 79 45 48
internal_count=235 41 194 169 67 102 79 45 48
is_linear=0
shrinkage=0.1


Tree=6
num_leaves=9
num_cat=0
split_feature=3 0 3 0 0 0 0 0
split_gain=0.00159796 0.000705991 0.000685787 0.000387371 0.000643943 0.0003521 0.000216871 0.000276912
threshold=5.2500000000000009 5286.596548004316 3.5000000000000004 3493.04347826087 1700.3663793103451 452.11558307533545 7416.9642857142871 3855.4270491803286
decision_type=2 2 2 2 2 2 2 2
left_child=2 -2 3 4 5 -1 7 -4
right_child=1 -3 6 -5 -6 -7 -8 -9
leaf_value=-0.00014679398002993802 0.00086421282961964604 0.00014468061970546842 -0.00052484985422952813 0.00031930762458311316 -0.0004487861471716315 0.00040074198332149539 -0.00062306284857913856 -3.2277523772791031e-05
leaf_weight=23 25 30 21 30 32 24 25 25
leaf_count=23 25 30 21 30 32 24 25 25
internal_value=4.98326e-12 0.000471741 -0.000144143 1.3391e-05 -0.00010278 0.000132799 -0.000385991 -0.000257148
internal_weight=235 55 180 109 79 47 71 46
internal_count=235 55 180 109 79 47 71 46
is_linear=0
shrinkage=0.1


Tree=7
num_leaves=10
num_cat=0
split_feature=1 1 1 1 0 0 0 0 1
split_gain=0.00143735 0.00103492 0.000748458 0.000841738 0.000400669 0.000828005 0.000354827 0.000303708 0.000244772
threshold=106.50000000000001 121.00000000000001 95.250000000000014 52.250000000000007 3181.5000000000005 4175.7857142857147 7416.9642857142871 6161.6176470588243 42.250000000000007
decision_type=2 2 2 2 2 2 2 2 2
left_child=2 -2 3 6 -5 -6 8 -7 -1
right_child=1 -3 -4 4 5 7 -8 -9 -10
leaf_value=-0.00036120793782174593 0.0010282723809636775 2.3147831670939924e-05 -0.00062438297399785376 -0.00012562920649846396 0.00080759564866422729 -0.00024331132415682081 -0.00064264180519702765 0.00027950536832213401 0.00010814754696184537
leaf_weight=25 21 20 25 36 21 20 22 25 20
leaf_count=25 21 20 25 36 21 20 22 25 20
internal_value=-1.02173e-13 0.000537968 -0.000113694 -3.81485e-05 0.000142728 0.000289105 -0.000313513 4.71424e-05 -0.000152606
internal_weight=235 41 194 169 102 66 67 45 45
internal_count=235 41 194 169 102 66 67 45 45
is_linear=0
shrinkage=0.1


Tree=8
num_leaves=9
num_cat=0
split_feature=3 0 0 0 0 1 0 2
split_gain=0.00122514 0.000585492 0.00099364 0.000547542 0.000430336 0.000329801 0.000316707 0.000375897
threshold=5.2500000000000009 4046.7099056603779 3181.5000000000005 5286.596548004316 5669.2527562270325 45.250000000000007 1700.3663793103451 2.5000000000000004
decision_type=2 2 2 2 2 2 2 2
left_child=1 2 6 -2 -3 -6 7 -1
right_child=3 4 -4 -5 5 -7 -8 -9
leaf_value=0.00023665992513058646 0.00075869593117386109 -0.000719983310608024 0.00058563161922696352 0.00012503108576008041 -0.00046648329324935651 6.439290381968022e-05 -0.00037372246517666753 -0.00031129610503003715
leaf_weight=31 25 22 24 30 22 25 35 21
leaf_count=31 25 22 24 30 22 25 35 21
internal_value=9.21105e-13 -0.000126213 1.5983e-05 0.000413061 -0.000354963 -0.000184102 -0.000141161 1.537e-05
internal_weight=235 180 111 55 69 47 87 52
internal_count=235 180 111 55 69 47 87 52
is_linear=0
shrinkage=0.1


Tree=9
num_leaves=10
num_cat=0
split_feature=1 3 1 0 0 3 0 0 0
split_gain=0.00107298 0.000857536 0.000626017 0.000593207 0.00129236 0.00108353 0.00062122 0.00049308 0.000159244
threshold=106.50000000000001 3.5000000000000004 95.250000000000014 4046.7099056603779 3181.5000000000005 5.2500000000000009 1407.227519762846 5783.3850931677034 7602.5238095238101
decision_type=2 2 2 2 2 2 2 2 2
left_child=2 -2 3 4 6 7 -1 -5 -9
right_child=1 -3 -4 5 -6 -7 -8 8 -10
leaf_value=0.00028135131918437158 -3.8238370325416329e-06 0.00091111774256985112 -0.00056528435973450541 -0.00083466701034922157 0.00084929114229799734 0.00028892456748508266 -0.00042417830196567457 -3.6905893302034767e-05 -0.00041044076532125475
leaf_weight=24 20 21 25 20 21 32 26 21 25
leaf_count=24 20 21 25 20 21 32 26 21 25
internal_value=-1.20131e-12 0.000464805 -9.82319e-05 -2.91413e-05 0.000190971 -0.00018861 -8.55241e-05 -0.000420142 -0.000239914
internal_weight=235 41 194 169 71 98 50 66 46
internal_count=235 41 194 169 71 98 50 66 46
is_linear=0
shrinkage=0.1


Tree=10
num_leaves=10
num_cat=0
split_feature=1 1 1 1 3 0 0 1 0
split_gain=0.000869113 0.000831356 0.000507074 0.00050254 0.000379695 0.000558395 0.000628221 0.000288962 0.00011391
threshold=106.50000000000001 121.00000000000001 95.250000000000014 83.250000000000014 5.2500000000000009 4175.7857142857147 2796.8571428571436 50.500000000000007 7198.7500000000009
decision_type=2 2 2 2 2 2 2 2 2
left_child=2 -2 3 4 5 6 -1 8 -7
right_child=1 -3 -4 -5 -6 7 -8 -9 -10
leaf_value=-0.00025213650810802655 0.00085777187099059433 -4.3095627916045487e-05 -0.00050875595537945627 0.00041952071796086702 0.00027089849002853348 -5.3423043850454551e-05 0.00040132852331485738 -0.00067256285055052674 -0.00037903093199764207
leaf_weight=31 21 20 25 22 24 21 28 21 22
leaf_count=31 21 20 25 22 24 21 28 21 22
internal_value=8.05e-14 0.000418324 -8.84087e-05 -2.62272e-05 -9.29378e-05 -0.00016393 5.79825e-05 -0.000368506 -0.000220013
internal_weight=235 41 194 169 147 123 59 64 43
internal_count=235 41 194 169 147 123 59 64 43
is_linear=0
shrinkage=0.1


Tree=11
num_leaves=10
num_cat=0
split_feature=0 1 0 0 0 0 0 1 1
split_gain=0.000785289 0.0012155 0.000663354 0.00108322 0.000550815 0.000440316 0.000307639 0.000133507 2.55772e-06
threshold=14.37303370786517 106.50000000000001 4046.7099056603779 3255.5319148936173 5024.0033222591373 7416.9642857142871 2394.3286542569426 52.250000000000007 50.500000000000007
decision_type=2 2 2 2 2 2 2 2 2
left_child=-1 2 3 6 -4 8 -2 -7 -6
right_child=1 -3 4 -5 5 7 -8 -9 -10
leaf_value=-0.00058355001522050732 0.00018251640679038786 0.00060562676842570962 -0.00068073528447712309 0.00079024693363213122 0.00011865880136610942 -0.00048815989837087482 -0.00029485247020299239 -0.00014358596653556046 0.00016923268442042174
leaf_weight=21 27 34 20 21 20 22 27 23 20
leaf_count=21 27 34 20 21 20 22 27 23 20
internal_value=3.11783e-12 5.72643e-05 -4.63153e-05 0.000180828 -0.000208561 -9.74608e-05 -5.6168e-05 -0.000312044 0.000143946
internal_weight=235 214 180 75 105 85 54 45 40
internal_count=235 214 180 75 105 85 54 45 40
is_linear=0
shrinkage=0.1


Tree=12
num_leaves=9
num_cat=0
split_feature=3 0 3 0 1 0 0 1
split_gain=0.000695504 0.000382444 0.000332056 0.00040169 0.000365213 0.000166689 0.000246389 9.4303e-05
threshold=5.2500000000000009 5286.596548004316 3.5000000000000004 3855.4270491803286 87.000000000000014 3855.4270491803286 7416.9642857142871 70.250000000000014
decision_type=2 2 2 2 2 2 2 2
left_child=2 -2 3 4 7 -4 -7 -1
right_child=1 -3 5 -5 -6 6 -8 -9
leaf_value=-0.0001417725076598506 0.00060008617938729007 7.0502340871219838e-05 -0.00049981233009713754 0.00037579680890000114 0.00017271729514256798 5.7901876978576191e-05 -0.00038606980443000796 -0.00041622926004319678
leaf_weight=31 25 30 21 24 33 25 25 21
leaf_count=31 25 30 21 24 33 25 25 21
internal_value=-1.92581e-12 0.000311222 -9.50957e-05 1.45232e-05 -8.74834e-05 -0.000263384 -0.000164084 -0.000252611
internal_weight=235 55 180 109 85 71 50 52
internal_count=235 55 180 109 85 71 50 52
is_linear=0
shrinkage=0.1


Tree=13
num_leaves=9
num_cat=0
split_feature=0 1 0 0 0 3 0 1
split_gain=0.000633249 0.000899519 0.000619548 0.000840544 0.00051297 0.000348845 0.000243543 8.79901e-05
threshold=14.37303370786517 106.50000000000001 4046.7099056603779 3255.5319148936173 5024.0033222591373 5.2500000000000009 2394.3286542569426 45.250000000000007
decision_type=2 2 2 2 2 2 2 2
left_child=-1 2 3 6 -4 7 -2 -6
right_child=1 -3 4 -5 5 -7 -8 -9
leaf_value=-0.00052402312257548891 0.00018543533299601191 0.00052315447974251585 -0.00065014418098144236 0.00071866347252147369 -0.00037824029149487615 0.00018011280429369259 -0.00023930276290263499 -0.00012223742569090221
leaf_weight=21 27 34 20 21 25 31 27 29
leaf_count=21 27 34 20 21 25 31 27 29
internal_value=-1.13319e-12 5.14228e-05 -3.7682e-05 0.000181833 -0.000194479 -8.72635e-05 -2.69337e-05 -0.000240757
internal_weight=235 214 180 75 105 85 54 54
internal_count=235 214 180 75 105 85 54 54
is_linear=0
shrinkage=0.1


Tree=14
num_leaves=9
num_cat=0
split_feature=0 1 0 0 0 0 2 0
split_gain=0.000512931 0.00072861 0.000501834 0.000680841 0.000415506 0.000308641 0.000935627 0.00019727
threshold=14.37303370786517 106.50000000000001 4046.7099056603779 3255.5319148936173 5024.0033222591373 9487.6491862567837 4.5000000000000009 2394.3286542569426
decision_type=2 2 2 2 2 2 2 2
left_child=-1 2 3 7 -4 6 -6 -2
right_child=1 -3 4 -5 5 -7 -8 -9
leaf_value=-0.00047162082295731781 0.00016689179766992177 0.0004708390289178009 -0.00058512976655038078 0.0006467971629241393 -0.00040292827179655433 -0.00041119498311586327 0.00036781750321905648 -0.00021537247632497588
leaf_weight=21 27 34 20 21 28 21 36 27
leaf_count=21 27 34 20 21 28 21 36 27
internal_value=1.39559e-12 4.62805e-05 -3.39138e-05 0.00016365 -0.000175031 -7.85371e-05 3.06162e-05 -2.42403e-05
internal_weight=235 214 180 75 105 85 64 54
internal_count=235 214 180 75 105 85 64 54
is_linear=0
shrinkage=0.1


Tree=15
num_leaves=9
num_cat=0
split_feature=3 0 3 0 0 2 0 0
split_gain=0.000459063 0.000330544 0.000236167 0.000440694 0.00036568 0.000515208 0.000195532 0.00019274
threshold=5.2500000000000009 5286.596548004316 3.5000000000000004 3855.4270491803286 521.51162790697686 2.5000000000000004 3855.4270491803286 7416.9642857142871
decision_type=2 2 2 2 2 2 2 2
left_child=2 -2 3 4 -1 -6 -4 -8
right_child=1 -3 6 -5 5 -7 7 -9
leaf_value=0.00022079316840972751 0.00052139583369717002 2.9055717944477996e-05 -0.00047525142969485998 0.00039359474903903906 -0.00048274019577280243 0.00011526879761368037 8.4701856598258025e-05 -0.0003079713128972799
leaf_weight=26 25 30 21 24 34 25 25 25
leaf_count=26 25 30 21 24 34 25 25 25
internal_value=2.50788e-12 0.000252847 -7.72587e-05 1.51876e-05 -9.16568e-05 -0.000229347 -0.000219183 -0.000111635
internal_weight=235 55 180 109 85 59 71 50
internal_count=235 55 180 109 85 59 71 50
is_linear=0
shrinkage=0.1


Tree=16
num_leaves=9
num_cat=0
split_feature=0 0 0 0 3 1 0 0
split_gain=0.000445356 0.000625879 0.000459056 0.000587437 0.00043835 0.000915716 0.000236771 0.000135574
threshold=14.37303370786517 4134.1397849462383 5669.2527562270325 6894.301470588236 1.5000000000000002 92.500000000000014 3255.5319148936173 9487.6491862567837
decision_type=2 2 2 2 2 2 2 2
left_child=-1 4 -3 -4 -2 6 -6 -5
right_child=1 2 3 7 5 -7 -8 -9
leaf_value=-0.00043945744317690173 -0.00014813491306267681 -0.0004169584330358905 0.00046577695757150651 -2.7984197086264048e-05 -8.5370919987326491e-05 0.0007926482222891147 0.00035323610587511211 -0.00035706316675281242
leaf_weight=21 25 36 21 31 32 28 20 21
leaf_count=21 25 36 21 31 32 28 20 21
internal_value=-1.37469e-12 4.31243e-05 -0.000124725 1.93901e-05 0.000217368 0.000331588 8.33241e-05 -0.000160881
internal_weight=235 214 109 73 105 80 52 52
internal_count=235 214 109 73 105 80 52 52
is_linear=0
shrinkage=0.1


Tree=17
num_leaves=9
num_cat=0
split_feature=1 1 0 1 3 2 3 0
split_gain=0.000387691 0.000401444 0.000780047 0.000542005 0.000625241 0.000495298 0.000566532 0.0001917
threshold=43.500000000000007 55.500000000000007 7416.9642857142871 65.250000000000014 1.5000000000000002 3.5000000000000004 7.2500000000000009 3855.4270491803286
decision_type=2 2 2 2 2 2 2 2
left_child=-1 2 -2 -3 -5 -6 7 -7
right_child=1 3 -4 4 5 6 -8 -9
leaf_value=-0.00031229684896328871 0.00070414616881559302 -0.00044893090846017005 -0.00014145626832032577 -0.00040281103404898508 0.00050677627451174581 -0.00028784000422809079 0.00048760429956018925 7.9271762770076763e-05
leaf_weight=34 24 25 20 24 30 33 20 25
leaf_count=34 24 25 20 24 30 33 20 25
internal_value=1.90646e-12 5.28263e-05 0.000319781 -2.19891e-05 5.88711e-05 0.000161467 2.86559e-05 -0.000129602
internal_weight=235 201 44 157 132 108 78 58
internal_count=235 201 44 157 132 108 78 58
is_linear=0
shrinkage=0.1


Tree=18
num_leaves=9
num_cat=0
split_feature=0 1 0 0 0 1 1 0
split_gain=0.000365381 0.000526914 0.000401825 0.000479921 0.000365504 0.000197287 0.000521939 0.000166684
threshold=14.37303370786517 106.50000000000001 4046.7099056603779 3255.5319148936173 5024.0033222591373 45.250000000000007 55.500000000000007 2394.3286542569426
decision_type=2 2 2 2 2 2 2 2
left_child=-1 2 3 7 -4 -6 -7 -2
right_child=1 -3 4 -5 5 6 -8 -9
leaf_value=-0.00039804888365324587 0.00016559149630160797 0.00040010451613103643 -0.00054004386318410983 0.00055328983081770803 -0.00029440775262908297 0.00038308392791077496 -0.00021881869213436454 -0.00018579139453962583
leaf_weight=21 27 34 20 21 26 25 34 27
leaf_count=21 27 34 20 21 26 25 34 27
internal_value=8.35961e-14 3.90609e-05 -2.91363e-05 0.000147649 -0.000155412 -6.49099e-05 3.62248e-05 -1.00999e-05
internal_weight=235 214 180 75 105 85 59 54
internal_count=235 214 180 75 105 85 59 54
is_linear=0
shrinkage=0.1


Tree=19
num_leaves=8
num_cat=0
split_feature=3 0 3 3 1 1 1
split_gain=0.000333998 0.000243267 0.000224609 0.000489743 0.000446016 0.000729735 0.00048867
threshold=5.2500000000000009 5286.596548004316 2.2500000000000004 1.5000000000000002 45.250000000000007 55.500000000000007 78.500000000000014
decision_type=2 2 2 2 2 2 2
left_child=2 -2 3 -1 -4 -6 -7
right_child=1 -3 4 -5 5 6 -8
leaf_value=-0.0002035812225585687 0.00044605466164648536 2.3685753500709934e-05 -0.00052465621265582738 0.0003376871670375944 0.00041110938484780488 -0.00054901732912050521 1.3770754917964546e-05
leaf_weight=32 25 30 25 35 25 27 36
leaf_count=32 25 30 25 35 25 27 36
internal_value=-2.27141e-12 0.000215672 -6.58997e-05 7.91709e-05 -0.000151915 -4.60226e-05 -0.000227424
internal_weight=235 55 180 67 113 88 63
internal_count=235 55 180 67 113 88 63
is_linear=0
shrinkage=0.1


Tree=20
num_leaves=9
num_cat=0
split_feature=0 0 3 0 0 3 2 0
split_gain=0.000307632 0.000437193 0.000443206 0.000706257 0.000632819 0.000290031 0.000258516 0.000461578
threshold=14.37303370786517 1920.2566964285718 7.2500000000000009 3855.4270491803286 4643.4375000000009 2.2500000000000004 4.5000000000000009 7416.9642857142871
decision_type=2 2 2 2 2 2 2 2
left_child=-1 -2 3 5 -5 -3 -6 -8
right_child=1 2 -4 4 6 -7 7 -9
leaf_value=-0.00036524032336837127 0.00033861382141297397 -0.00068358115269802518 0.0003774780071461978 0.00056994381578988394 -0.00026745843454538024 -0.00020621217945257999 0.00045287990180440827 -0.00020398797888723812
leaf_weight=21 39 20 23 20 34 35 20 23
leaf_count=21 39 20 23 20 34 35 20 23
internal_value=4.83774e-12 3.58413e-05 -3.16337e-05 -9.35387e-05 6.87749e-05 -0.000379801 -6.13989e-05 0.000101532
internal_weight=235 214 175 152 97 55 77 43
internal_count=235 214 175 152 97 55 77 43
is_linear=0
shrinkage=0.1


Tree=21
num_leaves=9
num_cat=0
split_feature=0 3 3 2 1 0 0 1
split_gain=0.000252236 0.000465646 0.000438928 0.000522591 0.000367578 0.000374083 0.000544627 5.83489e-05
threshold=4134.1397849462383 4.2500000000000009 6.5000000000000009 4.5000000000000009 99.500000000000014 3181.5000000000005 1407.227519762846 43.500000000000007
decision_type=2 2 2 2 2 2 2 2
left_child=1 4 3 7 5 6 -1 -2
right_child=2 -3 -4 -5 -6 -7 -8 -9
leaf_value=0.00033935329816101685 -0.00012342221480572509 0.00052622062863693351 -0.00044468400662700682 0.00027148768937107747 -0.00024326135776347142 0.0004992913586431227 -0.00034161821240559221 -0.00036208444074873117
leaf_weight=23 21 21 29 39 37 21 24 20
leaf_count=23 21 21 29 39 37 21 24 20
internal_value=-5.85959e-12 9.63601e-05 -0.000111389 9.43081e-06 1.0388e-05 0.000148403 -8.37683e-06 -0.000239843
internal_weight=235 126 109 80 105 68 47 41
internal_count=235 126 109 80 105 68 47 41
is_linear=0
shrinkage=0.1


Tree=22
num_leaves=9
num_cat=0
split_feature=0 0 0 0 3 1 1 0
split_gain=0.000268533 0.000397328 0.000404285 0.000399691 0.000261006 0.000642089 0.000165625 0.000113408
threshold=14.37303370786517 4134.1397849462383 5669.2527562270325 6894.301470588236 1.5000000000000002 92.500000000000014 70.250000000000014 8406.7674418604674
decision_type=2 2 2 2 2 2 2 2
left_child=-1 4 -3 -4 -2 6 -6 -5
right_child=1 2 3 7 5 -7 -8 -9
leaf_value=-0.00034124180064758376 -0.0001097195080947131 -0.00037449613058318699 0.00040320244706457575 -0.00028615656033666295 0.00020539687141232817 0.0006465319132465604 -0.00015584090645213359 1.2760644603986292e-05
leaf_weight=21 25 36 21 22 30 28 22 30
leaf_count=21 25 36 21 22 30 28 22 30
internal_value=-1.98154e-13 3.34863e-05 -0.00010025 3.49949e-05 0.000172317 0.000260454 5.25655e-05 -0.000113704
internal_weight=235 214 109 73 105 80 52 52
internal_count=235 214 109 73 105 80 52 52
is_linear=0
shrinkage=0.1


Tree=23
num_leaves=10
num_cat=0
split_feature=0 3 0 0 0 0 1 1 0
split_gain=0.000217512 0.000372691 0.000403951 0.000204501 0.000738306 0.00048784 0.000326975 0.00030727 4.2386e-05
threshold=14.37303370786517 5.2500000000000009 5286.596548004316 3855.4270491803286 5936.666666666667 3103.7500000000005 45.250000000000007 72.250000000000014 1279.3529411764709
decision_type=2 2 2 2 2 2 2 2 2
left_child=-1 3 -3 5 -5 7 -6 -2 -9
right_child=1 2 -4 4 6 -7 -8 8 -10
leaf_value=-0.00030711761542728973 0.00029220931570638311 0.00057544494452683819 1.8415829011549555e-05 0.00045915530539787142 -0.00046948353161237069 -0.00055654923908150529 7.6286757235799964e-05 -0.00027374553988920527 -7.4693468859945631e-05
leaf_weight=21 22 23 30 30 21 22 23 20 23
leaf_count=21 22 23 30 30 21 22 23 20 23
internal_value=8.05e-13 3.01377e-05 0.000260145 -4.55791e-05 7.6623e-05 -0.000149521 -0.000184195 -1.17578e-05 -0.000167276
internal_weight=235 214 53 161 74 87 44 65 43
internal_count=235 214 53 161 74 87 44 65 43
is_linear=0
shrinkage=0.1


Tree=24
num_leaves=9
num_cat=0
split_feature=0 0 0 2 0 0 0 0
split_gain=0.000200539 0.000429354 0.000354196 0.000412684 0.000389178 0.000435535 0.000341104 0.000103991
threshold=4134.1397849462383 5669.2527562270325 1279.3529411764709 2.5000000000000004 2394.3286542569426 3493.04347826087 7416.9642857142871 9487.6491862567837
decision_type=2 2 2 2 2 2 2 2
left_child=2 -2 3 -1 -4 -6 -3 -8
right_child=1 6 4 -5 5 -7 7 -9
leaf_value=0.00013078318443149328 -0.00038194126039646416 0.00032220419703258408 0.00058545094936908709 -0.00046028518117964269 -0.00012925727634056886 0.0004437870817214605 1.2248079932760447e-05 -0.00028960584618505976
leaf_weight=27 36 27 21 21 36 21 25 21
leaf_count=27 36 27 21 21 36 21 25 21
internal_value=4.48323e-12 -9.93201e-05 8.59198e-05 -0.000127809 0.000217445 8.18643e-05 4.00547e-05 -0.000125555
internal_weight=235 109 126 48 78 57 73 46
internal_count=235 109 126 48 78 57 73 46
is_linear=0
shrinkage=0.1


Tree=25
num_leaves=9
num_cat=0
split_feature=1 0 1 2 0 1 0 3
split_gain=0.000206494 0.000295095 0.000482573 0.000760169 0.000608608 0.000199271 0.000406514 0.000251943
threshold=43.500000000000007 521.51162790697686 55.500000000000007 7.5000000000000009 7416.9642857142871 67.000000000000014 2796.8571428571436 4.2500000000000009
decision_type=2 2 2 2 2 2 2 2
left_child=-1 -2 4 5 -3 -4 -7 -8
right_child=1 2 3 -5 -6 6 7 -9
leaf_value=-0.00022791777626159326 0.00033363884933100183 0.00062974162055584408 -0.00047176252070736766 0.00042744739383289762 -0.0001245236564500374 -0.00039135675933967169 0.00032072144727862906 -0.00015137219287190908
leaf_weight=34 29 23 24 22 20 37 20 26
leaf_count=34 29 23 24 22 20 37 20 26
internal_value=1.63477e-12 3.85533e-05 -1.11995e-05 -0.000107906 0.000278921 -0.000217979 -0.000144596 5.38859e-05
internal_weight=235 201 172 129 43 107 83 46
internal_count=235 201 172 129 43 107 83 46
is_linear=0
shrinkage=0.1


Tree=26
num_leaves=9
num_cat=0
split_feature=0 0 3 0 0 0 3 0
split_gain=0.00018934 0.000342828 0.00032273 0.000630074 0.000445426 0.000266799 0.000503929 0.000196831
threshold=14.37303370786517 1920.2566964285718 7.2500000000000009 3855.4270491803286 4643.4375000000009 8406.7674418604674 4.2500000000000009 3103.7500000000005
decision_type=2 2 2 2 2 2 2 2
left_child=-1 -2 3 7 -5 6 -6 -3
right_child=1 2 -4 4 5 -7 -8 -9
leaf_value=-0.00028653917543124406 0.0002962312964089693 -0.00018838819756168842 0.00031747449715824235 0.00048931880326563259 -0.0004344079693449506 0.00025395721961765297 0.00017349667940288782 -0.00056984122887418682
leaf_weight=21 39 31 23 20 30 22 25 24
leaf_count=21 39 31 23 20 30 22 25 24
internal_value=2.10538e-12 2.81183e-05 -3.16326e-05 -8.4458e-05 6.88517e-05 -4.03606e-05 -0.000158088 -0.00035484
internal_weight=235 214 175 152 97 77 55 55
internal_count=235 214 175 152 97 77 55 55
is_linear=0
shrinkage=0.1


Tree=27
num_leaves=9
num_cat=0
split_feature=0 3 0 2 1 0 0 0
split_gain=0.000195818 0.000448852 0.000342224 0.00033784 0.000324808 0.000313442 0.000318888 3.67654e-05
threshold=4134.1397849462383 6.5000000000000009 1279.3529411764709 2.5000000000000004 52.250000000000007 2394.3286542569426 3493.04347826087 7416.9642857142871
decision_type=2 2 2 2 2 2 2 2
left_child=2 4 3 -1 7 -4 -7 -2
right_child=1 -3 5 -5 -6 6 -8 -9
leaf_value=0.00010878781365506628 -5.8045872470689503e-05 -0.00043518635653087812 0.00054444840089196253 -0.00042600345941970036 0.0002773631625102773 -8.8140598462713474e-05 0.00040219764022844006 -0.00023219634032019796
leaf_weight=27 27 29 21 21 31 36 21 22
leaf_count=27 27 29 21 21 31 36 21 22
internal_value=-3.00249e-12 -9.81441e-05 8.49024e-05 -0.000125183 2.40337e-05 0.000214186 9.25103e-05 -0.000136236
internal_weight=235 109 126 48 80 78 57 49
internal_count=235 109 126 48 80 78 57 49
is_linear=0
shrinkage=0.1


Tree=28
num_leaves=9
num_cat=0
split_feature=0 0 0 2 0 1 3 1
split_gain=0.000160343 0.000360016 0.000288645 0.00027365 0.000271643 0.000458789 0.000243007 0.000263638
threshold=4046.7099056603779 5669.2527562270325 1279.3529411764709 2.5000000000000004 9487.6491862567837 45.250000000000007 2.2500000000000004 92.500000000000014
decision_type=2 2 2 2 2 2 2 2
left_child=2 -2 3 -1 5 -3 -4 -8
right_child=1 4 6 -5 -6 -7 7 -9
leaf_value=9.7909047811602551e-05 -0.00033185401887003073 -0.00020865064929239454 -1.3075208651923363e-05 -0.00038340309180230614 -0.00025906781000750408 0.00040189478268075622 0.0001290092367687142 0.00062060710435616782
leaf_weight=27 39 20 31 21 21 32 24 20
leaf_count=27 39 20 31 21 21 32 24 20
internal_value=4.16287e-12 -8.65635e-05 7.8822e-05 -0.000112665 4.44821e-05 0.00016707 0.000201374 0.000352463
internal_weight=235 112 123 48 73 52 75 44
internal_count=235 112 123 48 73 52 75 44
is_linear=0
shrinkage=0.1


Tree=29
num_leaves=8
num_cat=0
split_feature=0 3 1 0 1 0 0
split_gain=0.000159148 0.000317038 0.000517443 0.000274589 0.000153955 0.000566567 0.0001546
threshold=521.51162790697686 7.2500000000000009 55.500000000000007 6283.4561602418753 72.250000000000014 3855.4270491803286 1920.2566964285718
decision_type=2 2 2 2 2 2 2
left_child=-1 2 3 -2 -4 6 -6
right_child=1 -3 4 -5 5 -7 -8
leaf_value=0.00020360369147083752 0.00034139805198223755 0.00031623430853790565 -0.00038609330674969694 -5.0540817140315021e-05 -0.00010922750516328961 0.00031886821627267635 -0.00046077083519274563
leaf_weight=33 33 23 36 39 22 20 29
leaf_count=33 33 23 36 39 22 20 29
internal_value=3.02184e-12 -3.3262e-05 -7.81693e-05 0.000129098 -0.000217639 -0.000132225 -0.000309125
internal_weight=235 202 179 72 107 71 51
internal_count=235 202 179 72 107 71 51
is_linear=0
shrinkage=0.1


Tree=30
num_leaves=10
num_cat=0
split_feature=1 1 0 2 1 0 0 1 0
split_gain=0.000166092 0.00054412 0.000343223 0.0006541 0.00016217 0.000458919 0.000125226 0.000117608 0.000112311
threshold=52.250000000000007 60.500000000000007 521.51162790697686 7.5000000000000009 72.250000000000014 3855.4270491803286 1920.2566964285718 40.250000000000007 6657.857142857144
decision_type=2 2 2 2 2 2 2 2 2
left_child=7 -2 -3 4 -4 6 -6 -1 -9
right_child=1 2 3 -5 5 -7 -8 8 -10
leaf_value=5.0125099780574521e-05 0.00051670643363401967 0.00030511860451143652 -0.00040693322026291517 0.00041666618171369747 -9.8304735398745493e-05 0.00028698138601612305 -0.00041469377074149791 -0.00038868007051694967 -6.9148066408657039e-05
leaf_weight=23 22 27 27 21 22 20 29 22 22
leaf_count=23 22 27 27 21 22 20 29 22 22
internal_value=-3.39029e-12 5.30913e-05 -1.67685e-05 -8.98017e-05 -0.000198331 -0.000119003 -0.000278212 -0.000133125 -0.000228914
internal_weight=235 168 146 119 98 71 51 67 44
internal_count=235 168 146 119 98 71 51 67 44
is_linear=0
shrinkage=0.1


Tree=31
num_leaves=9
num_cat=0
split_feature=0 0 0 2 1 0 1 1
split_gain=0.000205664 0.000363233 0.000341157 0.000295935 0.00024099 0.000220811 0.000199261 0.000140117
threshold=4046.7099056603779 1279.3529411764709 5669.2527562270325 6.5000000000000009 99.500000000000014 2394.3286542569426 45.250000000000007 70.250000000000014
decision_type=2 2 2 2 2 2 2 2
left_child=1 4 -2 6 -1 -3 -4 -7
right_child=2 5 3 -5 -6 7 -8 -9
leaf_value=0.00011804869272137613 -0.00033681647820720597 0.00050189463709968899 -7.1109054525467488e-05 -0.00028730137938899652 -0.0003316506993520272 0.00029983976880127252 0.00032511490028506768 -2.4332408017168443e-05
leaf_weight=22 39 21 22 21 26 24 30 30
leaf_count=22 39 21 22 21 26 24 30 30
internal_value=-4.94354e-12 8.92693e-05 -9.80368e-05 2.95304e-05 -0.000125538 0.000226746 0.000157482 0.000119744
internal_weight=235 123 112 73 48 75 52 54
internal_count=235 123 112 73 48 75 52 54
is_linear=0
shrinkage=0.1


Tree=32
num_leaves=9
num_cat=0
split_feature=0 0 0 0 1 3 2 1
split_gain=0.000166588 0.000294219 0.000276337 0.000248397 0.000329154 0.000228596 0.000222835 0.000203033
threshold=4046.7099056603779 1279.3529411764709 5669.2527562270325 9487.6491862567837 45.250000000000007 2.2500000000000004 2.5000000000000004 92.500000000000014
decision_type=2 2 2 2 2 2 2 2
left_child=1 6 -2 4 -4 -3 -1 -7
right_child=2 5 3 -5 -6 7 -8 -9
leaf_value=7.7034963329357129e-05 -0.00030313482760296515 -3.9215665310621262e-06 -0.00017444026190787556 -0.00026369355064595029 0.0003427036800530914 0.0001545175698993262 -0.00035729553159658933 0.0005859259597491474
leaf_weight=27 39 31 20 21 32 24 21 20
leaf_count=27 39 31 20 21 32 24 21 20
internal_value=-6.81153e-13 8.03424e-05 -8.82331e-05 2.65774e-05 0.000143802 0.000204072 -0.000112985 0.000350612
internal_weight=235 123 112 73 52 75 48 44
internal_count=235 123 112 73 52 75 48 44
is_linear=0
shrinkage=0.1


Tree=33
num_leaves=9
num_cat=0
split_feature=0 0 3 0 0 0 3 3
split_gain=0.000136958 0.000255496 0.000231544 0.000546678 0.000373872 0.000234781 0.000255104 0.000156841
threshold=14.37303370786517 1920.2566964285718 7.2500000000000009 3855.4270491803286 4643.4375000000009 8406.7674418604674 4.2500000000000009 2.2500000000000004
decision_type=2 2 2 2 2 2 2 2
left_child=-1 -2 3 7 -5 6 -6 -3
right_child=1 2 -4 4 5 -7 -8 -9
leaf_value=-0.00024370093943573359 0.00025537247778489614 -0.00054765775101259359 0.00026803572824143847 0.00045560902784927746 -0.00033670347610798978 0.00024642876100684096 9.5819550566375258e-05 -0.00019661344792569124
leaf_weight=21 39 20 23 20 30 22 25 35
leaf_count=21 39 20 23 20 30 22 25 35
internal_value=3.13795e-12 2.39146e-05 -2.76675e-05 -7.2412e-05 7.03917e-05 -2.96647e-05 -0.000140102 -0.000324266
internal_weight=235 214 175 152 97 77 55 55
internal_count=235 214 175 152 97 77 55 55
is_linear=0
shrinkage=0.1


Tree=34
num_leaves=9
num_cat=0
split_feature=0 3 0 0 0 1 3 1
split_gain=0.000166684 0.000284651 0.000283763 0.000271621 0.000181521 0.000179728 0.000167042 0.000154797
threshold=4046.7099056603779 6.5000000000000009 5669.2527562270325 1279.3529411764709 7416.9642857142871 99.500000000000014 2.2500000000000004 92.500000000000014
decision_type=2 2 2 2 2 2 2 2
left_child=3 2 -2 5 -4 -1 -5 -8
right_child=1 -3 4 6 -6 -7 7 -9
leaf_value=0.00010497081867387433 -0.00026484099351084577 -0.00035182717954739933 0.00034281590778846295 2.1449910972507733e-05 -2.0995838349335829e-05 -0.00028338566906033804 0.00015329195848607925 0.00052998407445556948
leaf_weight=22 26 30 24 31 32 26 24 20
leaf_count=22 26 30 24 31 32 26 24 20
internal_value=3.83923e-13 -8.82586e-05 8.16889e-06 8.03656e-05 0.000134923 -0.000105389 0.000199248 0.000324516
internal_weight=235 112 82 123 56 48 75 44
internal_count=235 112 82 123 56 48 75 44
is_linear=0
shrinkage=0.1


Tree=35
num_leaves=9
num_cat=0
split_feature=0 0 1 0 0 0 0 0
split_gain=0.000148108 0.000276701 0.000233685 0.000221342 0.000356025 0.000308826 0.000188124 9.12161e-05
threshold=521.51162790697686 1465.681211331814 106.50000000000001 4046.7099056603779 5024.0033222591373 3181.5000000000005 6283.4561602418753 8347.82196969697
decision_type=2 2 2 2 2 2 2 2
left_child=-1 -2 3 5 -5 -3 -6 -8
right_child=1 2 -4 4 6 -7 7 -9
leaf_value=0.00019641491852587825 -0.00037569228408669704 -7.9372073354710257e-05 0.00032141467201567836 -0.00049812427314464001 0.00020128050586208703 0.0003984342889452819 -0.00025703368508922205 -9.8854739917442216e-06
leaf_weight=33 21 31 21 20 25 24 28 32
leaf_count=33 21 31 21 20 25 24 28 32
internal_value=-2.04346e-13 -3.20876e-05 7.77815e-06 -3.33866e-05 -0.000118512 0.000129125 -2.91914e-05 -0.000125221
internal_weight=235 202 181 160 105 55 85 60
internal_count=235 202 181 160 105 55 85 60
is_linear=0
shrinkage=0.1


Tree=36
num_leaves=9
num_cat=0
split_feature=0 2 0 1 1 2 0 1
split_gain=0.000140453 0.000335407 0.000300528 0.000787625 0.000617057 0.000191826 0.000329168 0.00050161
threshold=9487.6491862567837 7.5000000000000009 521.51162790697686 60.500000000000007 43.500000000000007 5.5000000000000009 2720.5901162790701 78.500000000000014
decision_type=2 2 2 2 2 2 2 2
left_child=1 2 -1 4 -4 6 -5 -8
right_child=-2 -3 3 5 -6 -7 7 -9
leaf_value=0.0002681811370195881 -0.00024679028983449656 0.00040374980197243747 -0.00015648947987106763 -0.00041234451897308291 0.00046572416353769401 -0.00051181259226392611 -0.00033588807404850659 0.00035528770389473289
leaf_weight=31 21 21 28 33 37 22 21 21
leaf_count=31 21 21 28 33 37 22 21 21
internal_value=-1.32825e-12 2.42177e-05 -1.70785e-05 -7.16652e-05 0.000197694 -0.000252163 -0.000176 9.69981e-06
internal_weight=235 214 193 162 65 97 75 42
internal_count=235 214 193 162 65 97 75 42
is_linear=0
shrinkage=0.1


Tree=37
num_leaves=9
num_cat=0
split_feature=0 0 0 0 0 3 0 3
split_gain=0.000147484 0.000263884 0.000209915 0.000692589 0.00042731 0.000263888 0.0002447 0.00027464
threshold=14.37303370786517 1920.2566964285718 3855.4270491803286 4458.4090909090919 3103.7500000000005 6.5000000000000009 8347.82196969697 4.2500000000000009
decision_type=2 2 2 2 2 2 2 2
left_child=-1 -2 4 -4 -3 6 7 -5
right_child=1 2 3 5 -6 -7 -8 -9
leaf_value=-0.00025289198355970996 0.00026004320168748307 4.8310534365362292e-05 0.0005691968957849202 -0.00027387345157143091 -0.00050624661889742129 -0.00035187065174492697 0.00032840568805113439 0.00018811095400120726
leaf_weight=21 39 33 21 31 24 24 20 22
leaf_count=21 39 33 21 31 24 24 20 22
internal_value=-4.63184e-12 2.48165e-05 -2.76055e-05 4.85146e-05 -0.000185187 -6.42105e-05 3.03627e-05 -8.21063e-05
internal_weight=235 214 175 118 57 97 73 53
internal_count=235 214 175 118 57 97 73 53
is_linear=0
shrinkage=0.1


Tree=38
num_leaves=9
num_cat=0
split_feature=1 1 0 2 1 0 0 0
split_gain=0.000132288 0.000424567 0.000306717 0.000508513 0.000151112 0.000122607 0.000258603 6.06144e-05
threshold=52.250000000000007 60.500000000000007 521.51162790697686 7.5000000000000009 40.250000000000007 2546.1885245901644 3561.2903225806454 6657.857142857144
decision_type=2 2 2 2 2 2 2 2
left_child=4 -2 -3 5 -1 -4 -7 -6
right_child=1 2 3 -5 7 6 -8 -9
leaf_value=8.8911147727428573e-05 0.00045690933686935091 0.00028995910629250665 -0.00033603959450512335 0.00036319275608374962 -0.00034475845115428621 0.00013726772611132927 -0.00026749437000896586 -0.00011001612874679268
leaf_weight=23 22 27 33 21 22 27 38 22
leaf_count=23 22 27 33 21 22 27 38 22
internal_value=3.08377e-12 4.73815e-05 -1.43282e-05 -8.33682e-05 -0.000118807 -0.00017906 -9.93624e-05 -0.000227387
internal_weight=235 168 146 119 67 98 65 44
internal_count=235 168 146 119 67 98 65 44
is_linear=0
shrinkage=0.1


Tree=39
num_leaves=8
num_cat=0
split_feature=0 0 3 0 3 1 0
split_gain=0.000150516 0.000248951 0.000250693 0.000222366 0.000197156 0.000262675 0.000163803
threshold=14.37303370786517 4046.7099056603779 6.5000000000000009 5669.2527562270325 1.5000000000000002 78.500000000000014 7416.9642857142871
decision_type=2 2 2 2 2 2 2
left_child=-1 4 3 -3 -2 -6 -5
right_child=1 2 -4 6 5 -7 -8
leaf_value=-0.00025547897163224185 -0.0001059033228084445 -0.00022904303332325072 -0.00032520723218719167 0.00032232681987807158 3.4994857672315375e-05 0.00040442367098876276 -2.327391121070832e-05
leaf_weight=21 25 26 30 24 39 38 32
leaf_count=21 25 26 30 24 39 38 32
internal_value=6.74961e-13 2.50704e-05 -7.78594e-05 1.26337e-05 0.000138091 0.00021731 0.000124841
internal_weight=235 214 112 82 102 77 56
internal_count=235 214 112 82 102 77 56
is_linear=0
shrinkage=0.1


Tree=40
num_leaves=9
num_cat=0
split_feature=0 1 1 2 0 0 0 0
split_gain=0.000128882 0.000264404 0.000475016 0.000468211 0.000772778 0.000144256 0.000331586 4.43303e-05
threshold=9487.6491862567837 42.250000000000007 60.500000000000007 7.5000000000000009 521.51162790697686 3561.2903225806454 2796.8571428571436 5936.666666666667
decision_type=2 2 2 2 2 2 2 2
left_child=1 -1 7 4 -4 6 -6 -3
right_child=-2 2 3 -5 5 -7 -8 -9
leaf_value=-0.00025754742794027876 -0.0002364068973942527 0.00025447438071881024 0.00040125979389995343 0.00042750870692543686 -0.00029272619300172662 -0.00037755629219228055 0.00020596153743099424 0.00045759954161688014
leaf_weight=29 21 21 25 20 40 37 20 22
leaf_count=29 21 21 25 20 40 37 20 22
internal_value=3.65346e-12 2.31988e-05 6.72077e-05 -2.09699e-05 -9.4491e-05 -0.000222262 -0.000126497 0.000358399
internal_weight=235 214 185 142 122 97 60 43
internal_count=235 214 185 142 122 97 60 43
is_linear=0
shrinkage=0.1


Tree=41
num_leaves=9
num_cat=0
split_feature=0 0 0 0 0 3 0 0
split_gain=0.000159762 0.00024042 0.000193187 0.000621276 0.00033819 0.000217536 0.000200691 0.000289884
threshold=14.37303370786517 1920.2566964285718 3855.4270491803286 4458.4090909090919 3103.7500000000005 6.5000000000000009 8347.82196969697 6283.4561602418753
decision_type=2 2 2 2 2 2 2 2
left_child=-1 -2 4 -4 -3 6 7 -5
right_child=1 2 3 5 -6 -7 -8 -9
leaf_value=-0.0002632087271194905 0.00025035403116653934 3.2345701192477436e-05 0.00054196401470107958 0.00016438890060481545 -0.0004610045226096797 -0.00031912572158034893 0.00029783274570945652 -0.00030343395925161464
leaf_weight=21 39 33 21 26 24 24 20 27
leaf_count=21 39 33 21 26 24 24 20 27
internal_value=-1.54808e-13 2.58289e-05 -2.42081e-05 4.88159e-05 -0.000175381 -5.79481e-05 2.79185e-05 -7.3936e-05
internal_weight=235 214 175 118 57 97 73 53
internal_count=235 214 175 118 57 97 73 53
is_linear=0
shrinkage=0.1


Tree=42
num_leaves=8
num_cat=0
split_feature=0 0 0 0 3 1 0
split_gain=0.000129407 0.000213004 0.000210205 0.000193365 0.000181626 0.000192574 5.80109e-05
threshold=14.37303370786517 4046.7099056603779 5669.2527562270325 7416.9642857142871 1.5000000000000002 78.500000000000014 9487.6491862567837
decision_type=2 2 2 2 2 2 2
left_child=-1 4 -3 -4 -2 -6 -5
right_child=1 2 3 6 5 -7 -8
leaf_value=-0.00023688783833113988 -0.0001063984278589487 -0.00025939421761088458 0.00024060576084863257 6.4055928960442547e-06 4.7720501718756097e-05 0.00036403572425785429 -0.00021904631506740338
leaf_weight=21 25 39 27 25 39 38 21
leaf_count=21 25 39 27 25 39 38 21
internal_value=2.10538e-13 2.3246e-05 -7.1963e-05 2.81715e-05 0.000127789 0.000203824 -9.65181e-05
internal_weight=235 214 112 73 102 77 46
internal_count=235 214 112 73 102 77 46
is_linear=0
shrinkage=0.1


Tree=43
num_leaves=9
num_cat=0
split_feature=1 3 1 2 3 1 0 0
split_gain=0.000124002 0.000584391 0.000299648 0.000328627 0.000290779 0.000272878 0.000252017 0.000200855
threshold=121.00000000000001 7.2500000000000009 95.250000000000014 2.5000000000000004 5.2500000000000009 57.000000000000007 4046.7099056603779 6894.301470588236
decision_type=2 2 2 2 2 2 2 2
left_child=1 2 3 5 6 -1 -5 -8
right_child=-2 -3 -4 4 -6 -7 7 -9
leaf_value=4.7067450147799473e-06 -0.00023816866916604341 0.00052325459795870958 -0.00028809578853306945 7.9758896555920898e-05 0.0002719552372582257 0.00049733059460540185 -0.00048019418003968892 -0.00010441906545593431
leaf_weight=22 20 21 37 33 21 23 25 33
leaf_count=22 20 21 37 33 21 23 25 33
internal_value=4.13646e-12 2.21552e-05 -3.20875e-05 2.82457e-05 -6.34605e-05 0.000256492 -0.000140864 -0.000266391
internal_weight=235 215 194 157 112 45 91 58
internal_count=235 215 194 157 112 45 91 58
is_linear=0
shrinkage=0.1


Tree=44
num_leaves=10
num_cat=0
split_feature=0 1 1 2 0 2 0 2 0
split_gain=0.000100552 0.000194831 0.000425354 0.000342375 0.000716858 0.000119514 0.000290378 0.000564917 3.28354e-05
threshold=9487.6491862567837 42.250000000000007 60.500000000000007 7.5000000000000009 521.51162790697686 5.5000000000000009 3493.04347826087 2.5000000000000004 5936.666666666667
decision_type=2 2 2 2 2 2 2 2 2
left_child=1 -1 8 4 -4 6 7 -6 -3
right_child=-2 2 3 -5 5 -7 -8 -9 -10
leaf_value=-0.00022050467508459657 -0.00020881340827881581 0.00024437671194651295 0.00038943511829711498 0.00035833357018418612 -0.00066377554109997377 -0.00041605100903490734 0.00016454335993676937 -5.5074013289413422e-06 0.00041919391369447115
leaf_weight=29 21 21 25 20 22 22 21 32 22
leaf_count=29 21 21 25 20 22 22 21 32 22
internal_value=-4.78665e-12 2.0491e-05 5.82687e-05 -2.51723e-05 -8.80421e-05 -0.000211103 -0.000150985 -0.000273691 0.000333818
internal_weight=235 214 185 142 122 97 75 54 43
internal_count=235 214 185 142 122 97 75 54 43
is_linear=0
shrinkage=0.1


Tree=45
num_leaves=9
num_cat=0
split_feature=0 0 0 0 0 2 0 0
split_gain=0.000131079 0.00020901 0.000176984 0.000509892 0.0002833 0.000227838 0.000166648 0.000290249
threshold=14.37303370786517 1920.2566964285718 3855.4270491803286 4458.4090909090919 3103.7500000000005 6.5000000000000009 8347.82196969697 6283.4561602418753
decision_type=2 2 2 2 2 2 2 2
left_child=-1 -2 4 -4 -3 6 7 -5
right_child=1 2 3 5 -6 -7 -8 -9
leaf_value=-0.00023841314028859848 0.00023274102594512394 2.2170319800462688e-05 0.00049339625177145493 0.00017716798376148711 -0.00042937199420218049 -0.00029067243199928531 0.00029079764906782659 -0.0003105100254406748
leaf_weight=21 39 33 21 26 24 28 20 23
leaf_count=21 39 33 21 26 24 28 20 23
internal_value=-3.25096e-13 2.33957e-05 -2.32584e-05 4.66363e-05 -0.000167953 -5.00849e-05 4.75448e-05 -5.17421e-05
internal_weight=235 214 175 118 57 97 69 49
internal_count=235 214 175 118 57 97 69 49
is_linear=0
shrinkage=0.1


Tree=46
num_leaves=8
num_cat=0
split_feature=2 3 1 1 1 1 1
split_gain=0.000111954 0.000306293 0.000242347 0.000193066 0.000508238 0.000178369 0.000267798
threshold=2.5000000000000004 1.5000000000000002 106.50000000000001 55.500000000000007 45.250000000000007 72.250000000000014 87.000000000000014
decision_type=2 2 2 2 2 2 2
left_child=1 -1 3 4 -2 -5 -7
right_child=2 -3 -4 5 -6 6 -8
leaf_value=-0.00010696983325385278 -0.00027146525949669576 0.00033756152505145203 0.00022801991103083959 -0.00037380279136414176 0.00033259492367506029 0.00016643975640181455 -0.00027037362524424681
leaf_weight=31 26 31 28 32 30 25 32
leaf_count=31 26 31 28 32 30 25 32
internal_value=-2.14254e-12 0.000115296 -4.13199e-05 -9.33303e-05 5.21384e-05 -0.000184861 -7.87888e-05
internal_weight=235 62 173 145 56 89 57
internal_count=235 62 173 145 56 89 57
is_linear=0
shrinkage=0.1


Tree=47
num_leaves=9
num_cat=0
split_feature=1 1 1 0 2 0 0 0
split_gain=0.000115799 0.00032376 0.00024694 0.00017947 0.000295485 0.000138687 0.00020009 4.04922e-05
threshold=52.250000000000007 60.500000000000007 40.250000000000007 521.51162790697686 7.5000000000000009 2720.5901162790701 3561.2903225806454 6657.857142857144
decision_type=2 2 2 2 2 2 2 2
left_child=2 -2 -1 -3 5 -5 -7 -4
right_child=1 3 7 4 -6 6 -8 -9
leaf_value=0.00015437739506444852 0.00040195037039335475 0.00022320390152917417 -0.00034588998374105855 -0.00028805892621135544 0.00027803757139259862 0.00019013206423867655 -0.00018356701950420087 -0.0001540278931233016
leaf_weight=23 22 27 22 37 21 23 38 22
leaf_count=23 22 27 22 37 21 23 38 22
internal_value=-1.05888e-12 4.43304e-05 -0.000111157 -9.5575e-06 -6.23689e-05 -0.000135313 -4.26641e-05 -0.000249959
internal_weight=235 168 67 146 119 98 61 44
internal_count=235 168 67 146 119 98 61 44
is_linear=0
shrinkage=0.1


Tree=48
num_leaves=9
num_cat=0
split_feature=0 0 3 0 0 1 3 1
split_gain=0.000133102 0.000196139 0.000226059 0.000176453 0.000137703 0.00012551 0.000269393 0.000257279
threshold=14.37303370786517 4046.7099056603779 6.5000000000000009 5669.2527562270325 7416.9642857142871 61.750000000000007 1.5000000000000002 78.500000000000014
decision_type=2 2 2 2 2 2 2 2
left_child=-1 5 3 -3 -5 -2 -7 -8
right_child=1 2 -4 4 -6 6 7 -9
leaf_value=-0.00024024549361673141 0.00034175176794330281 -0.00019714008913769457 -0.00030266796238720417 0.00029916983961205312 -1.7703179400996306e-05 -0.00024084642839928471 -9.6844925428740688e-05 0.00033286420894958278
leaf_weight=21 21 26 30 24 32 21 22 38
leaf_count=21 21 26 30 24 32 21 22 38
internal_value=6.66292e-12 2.35755e-05 -6.77867e-05 1.81455e-05 0.0001181 0.000123895 6.74133e-05 0.000175304
internal_weight=235 214 112 82 56 102 81 60
internal_count=235 214 112 82 56 102 81 60
is_linear=0
shrinkage=0.1


Tree=49
num_leaves=9
num_cat=0
split_feature=1 1 1 0 2 0 0 0
split_gain=0.000116625 0.000261468 0.000203504 0.000160867 0.000269941 0.000120603 0.000121153 3.72906e-05
threshold=52.250000000000007 60.500000000000007 40.250000000000007 521.51162790697686 7.5000000000000009 2546.1885245901644 3561.2903225806454 6657.857142857144
decision_type=2 2 2 2 2 2 2 2
left_child=2 -2 -1 -3 5 -5 -7 -4
right_child=1 3 7 4 -6 6 -8 -9
leaf_value=0.00012950011751735989 0.00036586912306533619 0.00021642867650371045 -0.00032961778078143575 -0.00027935022848065604 0.00027142156447683066 0.00011734956728846388 -0.00015969505988514836 -0.00014549678572538225
leaf_weight=23 22 27 22 33 21 27 38 22
leaf_count=23 22 27 22 33 21 27 38 22
internal_value=-6.09323e-12 4.44882e-05 -0.000111553 -3.93907e-06 -5.39385e-05 -0.000123658 -4.4615e-05 -0.000237557
internal_weight=235 168 67 146 119 98 65 44
internal_count=235 168 67 146 119 98 65 44
is_linear=0
shrinkage=0.1


Tree=50
num_leaves=9
num_cat=0
split_feature=0 0 0 0 0 2 0 0
split_gain=0.000130348 0.000198038 0.000165015 0.000438201 0.00023065 0.000196311 0.000122153 0.000244328
threshold=14.37303370786517 1920.2566964285718 3855.4270491803286 4458.4090909090919 3103.7500000000005 6.5000000000000009 8347.82196969697 6283.4561602418753
decision_type=2 2 2 2 2 2 2 2
left_child=-1 -2 4 -4 -3 6 7 -5
right_child=1 2 3 5 -6 -7 -8 -9
leaf_value=-0.00023774757061064954 0.0002271071139078301 9.7500364945241909e-06 0.000459570719769025 0.00017138405103021517 -0.00039767862084166459 -0.00026757944973983933 0.00025462919671554119 -0.00027605532668530943
leaf_weight=21 39 33 21 26 24 28 20 23
leaf_count=21 39 33 21 26 24 28 20 23
internal_value=1.42423e-13 2.33304e-05 -2.20827e-05 4.54073e-05 -0.000161799 -4.4257e-05 4.63666e-05 -3.86385e-05
internal_weight=235 214 175 118 57 97 69 49
internal_count=235 214 175 118 57 97 69 49
is_linear=0
shrinkage=0.1


Tree=51
num_leaves=9
num_cat=0
split_feature=0 1 1 3 1 2 1 0
split_gain=0.000112697 0.00017698 0.000298002 0.000253663 0.000281876 0.000518399 0.000250427 3.99952e-05
threshold=9487.6491862567837 42.250000000000007 60.500000000000007 6.5000000000000009 85.500000000000014 3.5000000000000004 75.750000000000014 5936.666666666667
decision_type=2 2 2 2 2 2 2 2
left_child=1 -1 7 4 6 -6 -4 -3
right_child=-2 2 3 -5 5 -7 -8 -9
leaf_value=-0.00020799680677210464 -0.00022106443010714083 0.00018962588815373324 -6.5578428480113235e-05 0.00024610283377114685 0.00037053033011034134 -0.00022239275587101776 -0.00050672866134184676 0.00038256355540149594
leaf_weight=29 21 21 31 30 29 30 22 22
leaf_count=29 21 21 31 30 29 30 22 22
internal_value=6.46477e-12 2.16932e-05 5.76987e-05 -1.21428e-05 -8.13158e-05 6.9044e-05 -0.000248697 0.000288338
internal_weight=235 214 185 142 112 59 53 43
internal_count=235 214 185 142 112 59 53 43
is_linear=0
shrinkage=0.1


Tree=52
num_leaves=8
num_cat=0
split_feature=1 0 1 2 3 0 1
split_gain=0.000124643 0.000402758 0.000578759 0.000317799 0.000181953 0.00024823 0.000248051
threshold=121.00000000000001 1279.3529411764709 99.500000000000014 2.5000000000000004 5.2500000000000009 4046.7099056603779 50.500000000000007
decision_type=2 2 2 2 2 2 2
left_child=1 -1 3 -3 5 -5 -7
right_child=-2 2 -4 4 -6 6 -8
leaf_value=-0.00027798856805217128 -0.00023878313484601679 0.00029782001821634669 0.00050196844344359965 0.00010538015393885198 0.00012582495475986174 -9.4039607460477521e-05 -0.0005167925726551482
leaf_weight=37 20 30 28 27 35 35 23
leaf_count=37 20 30 28 27 35 35 23
internal_value=-2.60077e-12 2.22124e-05 8.46137e-05 6.70748e-06 -6.60706e-05 -0.000145086 -0.000261683
internal_weight=235 215 178 150 120 85 58
internal_count=235 215 178 150 120 85 58
is_linear=0
shrinkage=0.1


Tree=53
num_leaves=9
num_cat=0
split_feature=1 3 1 2 3 1 0 1
split_gain=0.000100961 0.000346111 0.000245578 0.000243491 0.000269176 0.000260873 0.000211407 0.000200921
threshold=121.00000000000001 7.2500000000000009 95.250000000000014 2.5000000000000004 5.2500000000000009 57.000000000000007 4046.7099056603779 50.500000000000007
decision_type=2 2 2 2 2 2 2 2
left_child=1 2 3 5 6 -1 -5 -8
right_child=-2 -3 -4 4 -6 -7 7 -9
leaf_value=-1.6849756833504546e-05 -0.00021490482729859652 0.00040562891490047889 -0.00025351532771113655 8.152212496056701e-05 0.00027664327838768565 0.00046481592681906799 -8.4635652934334115e-05 -0.00046511330665848421
leaf_weight=22 20 21 37 33 21 23 35 23
leaf_count=22 20 21 37 33 21 23 35 23
internal_value=1.15796e-12 1.99911e-05 -2.17531e-05 3.2866e-05 -4.60725e-05 0.000229335 -0.000120545 -0.000235515
internal_weight=235 215 194 157 112 45 91 58
internal_count=235 215 194 157 112 45 91 58
is_linear=0
shrinkage=0.1


Tree=54
num_leaves=9
num_cat=0
split_feature=1 1 1 0 3 0 0 0
split_gain=8.51473e-05 0.000243884 0.00020045 0.000188963 0.000162652 0.000294501 0.000197123 3.6563e-05
threshold=52.250000000000007 60.500000000000007 40.250000000000007 521.51162790697686 4.2500000000000009 2796.8571428571436 4923.7500000000009 6657.857142857144
decision_type=2 2 2 2 2 2 2 2
left_child=2 -2 -1 -3 5 -5 -6 -4
right_child=1 3 7 4 6 -7 -8 -9
leaf_value=0.00014392017417222909 0.00034839909798889 0.00023008082644082606 -0.0003115301978224042 -0.00037282694418750264 0.00027832761164366582 5.7039279878760379e-05 -0.0001034088128606879 -0.00012921428053893827
leaf_weight=23 22 27 22 34 24 30 31 22
leaf_count=23 22 27 22 34 24 30 31 22
internal_value=-1.16415e-12 3.80132e-05 -9.53166e-05 -8.7573e-06 -6.29475e-05 -0.000171327 6.31671e-05 -0.000220372
internal_weight=235 168 67 146 119 64 55 44
internal_count=235 168 67 146 119 64 55 44
is_linear=0
shrinkage=0.1


Tree=55
num_leaves=9
num_cat=0
split_feature=2 3 0 0 1 1 1 1
split_gain=9.64173e-05 0.000198917 0.000195487 0.000566342 0.000210127 0.000330653 0.000296917 0.00024089
threshold=2.5000000000000004 1.5000000000000002 1279.3529411764709 2890.8750000000005 55.500000000000007 45.250000000000007 72.250000000000014 95.250000000000014
decision_type=2 2 2 2 2 2 2 2
left_child=1 -1 -2 -4 5 -5 -6 -8
right_child=2 -3 3 4 6 -7 7 -9
leaf_value=-7.2121536058764309e-05 -0.00032433414155439962 0.00028611507760586155 0.00048327327129386719 -0.00020773728155409514 -0.000434129086929245 0.00029622651403769855 0.00017811875978413112 -0.00026616103056332341
leaf_weight=31 21 31 21 23 29 30 26 23
leaf_count=31 21 31 21 23 29 30 26 23
internal_value=-4.95384e-14 0.000106997 -3.83457e-05 1.1659e-06 -7.61185e-05 7.75252e-05 -0.000180517 -3.04207e-05
internal_weight=235 62 173 152 131 53 78 49
internal_count=235 62 173 152 131 53 78 49
is_linear=0
shrinkage=0.1


Tree=56
num_leaves=10
num_cat=0
split_feature=0 1 1 0 2 1 1 0 0
split_gain=9.23609e-05 0.00015713 0.00027208 0.000183853 0.000141931 0.000117336 0.000268059 5.38752e-05 3.26026e-05
threshold=9487.6491862567837 42.250000000000007 60.500000000000007 521.51162790697686 6.5000000000000009 85.500000000000014 70.250000000000014 2720.5901162790701 5936.666666666667
decision_type=2 2 2 2 2 2 2 2 2
left_child=1 -1 8 -4 5 6 -5 -7 -3
right_child=-2 2 3 4 -6 7 -8 -9 -10
leaf_value=-0.00019678735888787897 -0.00020012783518593227 0.00018482124432921411 0.00022166268829972035 3.4268620074726643e-05 0.00012752130278386177 -0.00012018651634986913 -0.0004526900447672233 0.00010914394224528224 0.00035901767392219468
leaf_weight=29 21 21 27 20 28 21 26 20 22
leaf_count=29 21 21 27 20 28 21 26 20 22
internal_value=-2.92896e-12 1.96387e-05 5.3565e-05 -1.31698e-05 -6.83044e-05 -0.000131329 -0.000240969 -8.318e-06 0.000273945
internal_weight=235 214 185 142 115 87 46 41 43
internal_count=235 214 185 142 115 87 46 41 43
is_linear=0
shrinkage=0.1


Tree=57
num_leaves=9
num_cat=0
split_feature=0 0 0 2 0 1 1 0
split_gain=0.000100216 0.000223048 0.000180654 0.00051386 0.000270708 0.000454566 0.000265763 0.000264241
threshold=14.37303370786517 1920.2566964285718 3855.4270491803286 6.5000000000000009 6283.4561602418753 57.000000000000007 67.000000000000014 8347.82196969697
decision_type=2 2 2 2 2 2 2 2
left_child=-1 -2 6 4 5 -4 -3 -6
right_child=1 2 3 -5 7 -7 -8 -9
leaf_value=-0.00020846396863427282 0.00023671800736337902 -0.00045664205127173945 0.0007027436638600194 -0.00027847908038113799 -0.00022695758936764756 2.8528718976303934e-05 -9.0074104567368824e-06 0.00027004174888134008
leaf_weight=21 39 21 20 35 23 20 36 20
leaf_count=21 39 21 20 35 23 20 36 20
internal_value=-2.73081e-12 2.04567e-05 -2.77386e-05 4.2877e-05 0.000178389 0.000365636 -0.000173925 4.20489e-06
internal_weight=235 214 175 118 83 40 57 43
internal_count=235 214 175 118 83 40 57 43
is_linear=0
shrinkage=0.1


Tree=58
num_leaves=10
num_cat=0
split_feature=1 1 1 1 0 2 1 0 0
split_gain=0.000105154 0.000218931 0.000206298 0.000334526 0.000416887 0.00022213 0.000178199 6.25893e-05 3.52063e-05
threshold=52.250000000000007 40.250000000000007 75.750000000000014 85.500000000000014 3366.4407467532469 3.5000000000000004 67.000000000000014 5426.5151515151529 6657.857142857144
decision_type=2 2 2 2 2 2 2 2 2
left_child=1 -1 6 -4 5 -5 7 -2 -3
right_child=2 8 3 4 -6 -7 -8 -9 -10
leaf_value=0.00014409806842551284 0.00019414453592617067 -0.0003260685242077505 -0.00035290454733722775 0.00041655251666920128 -0.00025437660057962477 1.0637918827482142e-05 0.00043463634909130639 -5.603404249995947e-05 -0.00014716714557090943
leaf_weight=23 20 22 26 28 28 26 20 20 22
leaf_count=23 20 22 26 28 28 26 20 20 22
internal_value=4.24792e-12 -0.000105924 4.22436e-05 -4.03519e-05 5.87501e-05 0.000221112 0.000190916 6.90552e-05 -0.000236618
internal_weight=235 67 168 108 82 54 60 40 44
internal_count=235 67 168 108 82 54 60 40 44
is_linear=0
shrinkage=0.1


Tree=59
num_leaves=8
num_cat=0
split_feature=1 0 1 2 3 0 1
split_gain=0.000102025 0.000353022 0.000499081 0.000223366 0.000138345 0.000177668 0.000185991
threshold=121.00000000000001 1279.3529411764709 99.500000000000014 2.5000000000000004 5.2500000000000009 4046.7099056603779 50.500000000000007
decision_type=2 2 2 2 2 2 2
left_child=1 -1 3 -3 5 -5 -7
right_child=-2 2 -4 4 -6 6 -8
leaf_value=-0.00026095820877172456 -0.00021603523869998754 0.000250230657402426 0.00046608067184154481 8.8156948590444192e-05 0.00011248518912387745 -7.721837876098497e-05 -0.00044328677619847917
leaf_weight=37 20 30 28 27 35 35 23
leaf_count=37 20 30 28 27 35 35 23
internal_value=6.68769e-13 2.00963e-05 7.85177e-05 6.17267e-06 -5.48418e-05 -0.000123741 -0.000222383
internal_weight=235 215 178 150 120 85 58
internal_count=235 215 178 150 120 85 58
is_linear=0
shrinkage=0.1


Tree=60
num_leaves=9
num_cat=0
split_feature=1 1 1 0 3 0 1 0
split_gain=8.26622e-05 0.000201425 0.000175473 0.000160532 0.000174504 0.000280326 0.000129358 3.39153e-05
threshold=52.250000000000007 60.500000000000007 40.250000000000007 521.51162790697686 4.2500000000000009 2796.8571428571436 87.000000000000014 6657.857142857144
decision_type=2 2 2 2 2 2 2 2
left_child=2 -2 -1 -3 5 -5 -6 -4
right_child=1 3 7 4 6 -7 -8 -9
leaf_value=0.00012992071645820269 0.00031953121916475624 0.00021508804889486377 -0.00029871593631634663 -0.000363847180201179 0.00023759823256673721 5.5546368433473014e-05 -6.9581868994081849e-05 -0.00012312527396716178
leaf_weight=23 22 27 22 34 26 30 29 22
leaf_count=23 22 27 22 34 26 30 29 22
internal_value=3.26025e-12 3.74544e-05 -9.39154e-05 -5.05038e-06 -5.49978e-05 -0.000167256 7.56305e-05 -0.000210921
internal_weight=235 168 67 146 119 64 55 44
internal_count=235 168 67 146 119 64 55 44
is_linear=0
shrinkage=0.1


Tree=61
num_leaves=9
num_cat=0
split_feature=0 0 0 2 0 1 0 1
split_gain=8.91545e-05 0.000206911 0.000183067 0.000459973 0.000221088 0.000379786 0.000232081 0.000210398
threshold=14.37303370786517 1920.2566964285718 3855.4270491803286 6.5000000000000009 6283.4561602418753 57.000000000000007 8347.82196969697 67.000000000000014
decision_type=2 2 2 2 2 2 2 2
left_child=-1 -2 7 4 5 -4 -6 -3
right_child=1 2 3 -5 6 -7 -8 -9
leaf_value=-0.00019662323618485105 0.00022758648712904408 -0.0004258344997651875 0.00064952333690598612 -0.00026007849889408263 -0.00020188066511131502 3.3255354792345316e-05 0.00026389277481939647 -2.7546844406363866e-05
leaf_weight=21 39 21 20 35 23 20 20 36
leaf_count=21 39 21 20 35 23 20 20 36
internal_value=3.04661e-12 1.92948e-05 -2.71245e-05 4.39612e-05 0.000172171 0.000341389 1.47581e-05 -0.000174284
internal_weight=235 214 175 118 83 40 43 57
internal_count=235 214 175 118 83 40 43 57
is_linear=0
shrinkage=0.1


Tree=62
num_leaves=9
num_cat=0
split_feature=0 1 1 3 1 2 0 0
split_gain=8.6954e-05 0.000160011 0.000238474 0.000176931 0.000198933 0.000402198 0.000190948 3.58905e-05
threshold=9487.6491862567837 42.250000000000007 60.500000000000007 6.5000000000000009 85.500000000000014 3.5000000000000004 3561.2903225806454 5936.666666666667
decision_type=2 2 2 2 2 2 2 2
left_child=1 -1 7 4 6 -6 -4 -3
right_child=-2 2 3 -5 5 -7 -8 -9
leaf_value=-0.00019934595891692001 -0.00019418161495455676 0.00016610275211167478 -5.9805573034805792e-05 0.00020649139070883394 0.0003249136248557299 -0.00019734572463979327 -0.00045138862944440919 0.00034887187066487971
leaf_weight=29 21 21 33 30 29 30 20 22
leaf_count=29 21 21 33 30 29 30 20 22
internal_value=3.53271e-12 1.90552e-05 5.32911e-05 -9.18656e-06 -6.69574e-05 5.9358e-05 -0.000207573 0.000259613
internal_weight=235 214 185 142 112 59 53 43
internal_count=235 214 185 142 112 59 53 43
is_linear=0
shrinkage=0.1


Tree=63
num_leaves=10
num_cat=0
split_feature=1 1 1 1 2 3 1 0 1
split_gain=9.93977e-05 0.000322046 0.00037159 0.000180524 0.000268418 0.000226756 0.000176688 2.91747e-05 2.42822e-05
threshold=121.00000000000001 106.50000000000001 95.250000000000014 52.250000000000007 2.5000000000000004 5.2500000000000009 40.250000000000007 6657.857142857144 74.750000000000014
decision_type=2 2 2 2 2 2 2 2 2
left_child=1 2 3 6 -5 8 -1 -8 -6
right_child=-2 -3 -4 4 5 -7 7 -9 -10
leaf_value=0.00012988656323970014 -0.00021323501889128238 0.0003918257752610814 -0.00038026709156110884 0.00041720994100298569 -0.00016723052207713151 0.00023985082216020073 -0.00029356169080446389 -0.00013070449825714934 -2.2962388466112317e-05
leaf_weight=23 20 21 25 23 28 31 22 22 20
leaf_count=23 20 21 25 23 28 31 22 22 20
internal_value=6.44e-13 1.98358e-05 -2.04311e-05 3.2799e-05 0.000116564 2.90338e-05 -9.47234e-05 -0.000212133 -0.000107119
internal_weight=235 215 194 169 102 79 67 44 48
internal_count=235 215 194 169 102 79 67 44 48
is_linear=0
shrinkage=0.1


Tree=64
num_leaves=8
num_cat=0
split_feature=0 0 0 2 3 0 0
split_gain=8.16102e-05 0.000142907 0.000140595 0.000442652 0.000218259 0.000202777 0.000101727
threshold=14.37303370786517 1920.2566964285718 3855.4270491803286 6.5000000000000009 2.2500000000000004 5137.9545454545469 8347.82196969697
decision_type=2 2 2 2 2 2 2
left_child=-1 -2 4 5 -3 -4 -7
right_child=1 2 3 -5 -6 6 -8
leaf_value=-0.00018812028134735081 0.00019156431021073308 -0.00041523641382809731 0.00041302217335517828 -0.00025608062178694778 -5.214048448849369e-06 -2.5769675043053356e-05 0.00025162364530842754
leaf_weight=21 39 20 24 35 37 39 20
leaf_count=21 39 20 24 35 37 39 20
internal_value=4.17981e-13 1.84604e-05 -2.0117e-05 4.21794e-05 -0.000149082 0.000167952 6.8262e-05
internal_weight=235 214 175 118 57 83 59
internal_count=235 214 175 118 57 83 59
is_linear=0
shrinkage=0.1


Tree=65
num_leaves=9
num_cat=0
split_feature=3 3 0 0 1 3 3 0
split_gain=8.07432e-05 0.000256852 0.000138441 0.000422112 0.000188165 0.000341118 0.00011088 0.000148321
threshold=1.5000000000000002 2.2500000000000004 3366.4407467532469 1279.3529411764709 87.000000000000014 5.2500000000000009 4.2500000000000009 6657.857142857144
decision_type=2 2 2 2 2 2 2 2
left_child=-1 -2 3 -3 5 6 7 -4
right_child=1 2 4 -5 -6 -7 -8 -9
leaf_value=-0.00014763592771487312 0.00026971405484281215 -0.00025685987144242973 -0.00024000405577350071 0.00032535025172612884 -0.00033239646349102263 0.00026742095235801703 -0.00034690514963585883 0.00013626570871565493
leaf_weight=32 35 20 22 33 25 28 20 20
leaf_count=32 35 20 22 33 25 28 20 20
internal_value=6.13038e-13 2.32727e-05 -2.80693e-05 0.000105648 -8.96957e-05 -2.22788e-05 -0.000153111 -6.0828e-05
internal_weight=235 203 168 53 115 90 62 42
internal_count=235 203 168 53 115 90 62 42
is_linear=0
shrinkage=0.1


Tree=66
num_leaves=10
num_cat=0
split_feature=1 1 1 0 2 1 1 0 0
split_gain=7.99773e-05 0.000154819 0.000306403 0.000295355 0.000157858 0.000150715 0.000139651 5.20014e-05 2.53608e-05
threshold=52.250000000000007 75.750000000000014 85.500000000000014 3366.4407467532469 3.5000000000000004 67.000000000000014 40.250000000000007 5426.5151515151529 6657.857142857144
decision_type=2 2 2 2 2 2 2 2 2
left_child=6 5 -3 4 -4 7 -1 -2 -8
right_child=1 2 3 -5 -6 -7 8 -9 -10
leaf_value=0.00010730828077572844 0.00016758400248363615 -0.00033383731721327282 0.00036155289531702046 -0.00020342807235595374 1.9365519535942721e-05 0.00038977363845333463 -0.00027267870874228805 -6.0454157646745444e-05 -0.00012083893789994446
leaf_weight=23 20 26 28 28 26 20 22 20 22
leaf_count=23 20 26 28 28 26 20 22 20 22
internal_value=8.54538e-13 3.68411e-05 -3.47108e-05 6.01341e-05 0.000196796 0.000165634 -9.23776e-05 5.35649e-05 -0.000196759
internal_weight=235 168 108 82 54 60 67 40 44
internal_count=235 168 108 82 54 60 67 40 44
is_linear=0
shrinkage=0.1


Tree=67
num_leaves=8
num_cat=0
split_feature=3 3 1 1 1 0 0
split_gain=8.63107e-05 0.000195236 0.000104202 0.000221912 0.000214644 0.000186791 0.000390124
threshold=1.5000000000000002 2.2500000000000004 45.250000000000007 55.500000000000007 72.250000000000014 1279.3529411764709 3366.4407467532469
decision_type=2 2 2 2 2 2 2
left_child=-1 -2 -3 -4 -5 -6 -7
right_child=1 2 3 4 5 6 -8
leaf_value=-0.00015264106295944659 0.00023892009514383972 -0.00020475234128892995 0.00025454218809803326 -0.00027547508305419358 -0.00023126520012738185 0.000457606632897461 -6.904382115373245e-05
leaf_weight=32 35 26 30 31 20 22 39
leaf_count=32 35 26 30 31 20 22 39
internal_value=-2.52646e-12 2.40616e-05 -2.07005e-05 1.29991e-05 -5.17e-05 3.39424e-05 0.000120896
internal_weight=235 203 168 142 112 81 61
internal_count=235 203 168 142 112 81 61
is_linear=0
shrinkage=0.1


Tree=68
num_leaves=9
num_cat=0
split_feature=1 3 0 1 1 1 0 0
split_gain=8.13653e-05 0.000359276 0.000262043 0.00030773 0.000244866 0.000242493 0.00024646 0.000183702
threshold=121.00000000000001 7.2500000000000009 3855.4270491803286 90.500000000000014 65.250000000000014 72.250000000000014 7416.9642857142871 5783.3850931677034
decision_type=2 2 2 2 2 2 2 2
left_child=1 2 3 4 -1 6 7 -4
right_child=-2 -3 5 -5 -6 -7 -8 -9
leaf_value=-0.00023037645441945643 -0.00019292564422357828 0.0004108502030638712 -3.4762316361247071e-05 -0.00038325967325363313 0.00016637806597697948 0.00040187428588978947 -0.00018492707051336767 0.00038351267964268726
leaf_weight=28 20 21 21 34 35 20 35 21
leaf_count=28 20 21 21 34 35 20 35 21
internal_value=-1.98154e-13 1.79466e-05 -2.45842e-05 -0.000140806 -9.95728e-06 9.16371e-05 1.1056e-05 0.000174375
internal_weight=235 215 194 97 63 97 77 42
internal_count=235 215 194 97 63 97 77 42
is_linear=0
shrinkage=0.1


Tree=69
num_leaves=9
num_cat=0
split_feature=1 1 1 1 1 0 2 0
split_gain=7.13142e-05 0.000216247 0.000132475 0.000151996 0.000247327 0.000177528 0.000450647 0.000343464
threshold=108.25000000000001 95.250000000000014 83.250000000000014 75.750000000000014 67.000000000000014 7416.9642857142871 3.5000000000000004 3950.5263157894742
decision_type=2 2 2 2 2 2 2 2
left_child=1 2 3 4 5 6 7 -1
right_child=-2 -3 -4 -5 -6 -7 -8 -9
leaf_value=-0.00035785775465998229 0.00013394073021652945 -0.00026102311348950028 0.00025133829172277315 -0.00026801189174875618 0.00035136229533236477 -0.00021264605262937645 0.00043595519488338723 0.00017264561282227871
leaf_weight=26 34 32 22 20 20 36 22 23
leaf_count=26 34 32 22 20 20 36 22 23
internal_value=-1.90723e-12 -2.26566e-05 2.24778e-05 -1.17734e-05 2.85791e-05 -3.17542e-05 5.99657e-05 -0.000108846
internal_weight=235 201 169 147 127 107 71 49
internal_count=235 201 169 147 127 107 71 49
is_linear=0
shrinkage=0.1


Tree=70
num_leaves=9
num_cat=0
split_feature=0 0 2 1 1 0 1 1
split_gain=8.20857e-05 0.000237588 0.000206151 0.000129367 0.000212835 0.000159631 0.000157931 5.06212e-05
threshold=4046.7099056603779 5669.2527562270325 6.5000000000000009 61.750000000000007 85.500000000000014 521.51162790697686 107.25000000000001 48.500000000000007
decision_type=2 2 2 2 2 2 2 2
left_child=3 -2 7 -1 -5 -6 -7 -3
right_child=1 2 -4 4 5 6 -8 -9
leaf_value=0.00026468862888577859 -0.00026120177517907742 5.2647771260056355e-05 -0.00021991644032476915 -0.0001798684380973052 0.00035324537577253068 0.0002001787835199918 -0.00019246762793045491 0.00024997833220717999
leaf_weight=24 39 26 21 38 20 21 20 26
leaf_count=24 39 26 21 38 20 21 20 26
internal_value=2.87942e-13 -6.1936e-05 4.4521e-05 5.6397e-05 5.90211e-06 0.000121628 8.64395e-06 0.000151313
internal_weight=235 112 73 123 99 61 41 52
internal_count=235 112 73 123 99 61 41 52
is_linear=0
shrinkage=0.1


Tree=71
num_leaves=9
num_cat=0
split_feature=1 3 0 1 1 1 1 1
split_gain=7.35806e-05 0.000328232 0.000202625 0.000264804 0.000226463 0.000216646 0.00018695 7.75637e-05
threshold=121.00000000000001 7.2500000000000009 3855.4270491803286 90.500000000000014 72.250000000000014 43.500000000000007 65.250000000000014 52.250000000000007
decision_type=2 2 2 2 2 2 2 2
left_child=1 2 3 6 5 -4 -1 -7
right_child=-2 -3 4 -5 -6 7 -8 -9
leaf_value=-0.00019700082214382876 -0.00018346444645430892 0.00039261212971593653 0.00025000659128030146 -0.00035069329520303976 0.00037842152290977542 -0.00023541210729700445 0.00014967237391309547 6.5786061222078619e-06
leaf_weight=28 20 21 24 34 20 26 35 27
leaf_count=28 20 21 24 34 20 26 35 27
internal_value=2.10538e-13 1.70665e-05 -2.35854e-05 -0.000125784 7.86134e-05 7.41114e-07 -4.4046e-06 -0.000112134
internal_weight=235 215 194 97 97 77 63 53
internal_count=235 215 194 97 97 77 63 53
is_linear=0
shrinkage=0.1


Tree=72
num_leaves=9
num_cat=0
split_feature=0 0 2 0 1 1 2 0
split_gain=9.78503e-05 0.000208737 0.000185805 0.000135844 0.000205718 0.000216973 8.08855e-05 5.16963e-05
threshold=4046.7099056603779 5669.2527562270325 6.5000000000000009 1279.3529411764709 70.250000000000014 99.500000000000014 2.5000000000000004 8347.82196969697
decision_type=2 2 2 2 2 2 2 2
left_child=3 -2 7 6 -5 -6 -1 -3
right_child=1 2 -4 4 5 -7 -8 -9
leaf_value=4.4693799699652358e-05 -0.00025439809721249801 5.4721577907912436e-05 -0.00021888782891134421 0.00034848708057931316 -0.00023507768171839418 0.00020682216202840212 -0.0002169825975129026 0.00025966844055801629
leaf_weight=27 39 32 21 30 20 25 21 20
leaf_count=27 39 32 21 30 20 25 21 20
internal_value=-6.96634e-14 -6.76224e-05 3.21618e-05 6.15749e-05 0.000145648 1.04222e-05 -6.97896e-05 0.000133547
internal_weight=235 112 73 123 75 45 48 52
internal_count=235 112 73 123 75 45 48 52
is_linear=0
shrinkage=0.1


Tree=73
num_leaves=9
num_cat=0
split_feature=0 3 0 0 1 1 0 2
split_gain=7.92587e-05 0.000177423 0.000143017 0.000110034 0.000166632 0.000175748 7.17429e-05 6.55173e-05
threshold=4046.7099056603779 6.5000000000000009 5783.3850931677034 1279.3529411764709 70.250000000000014 99.500000000000014 7416.9642857142871 2.5000000000000004
decision_type=2 2 2 2 2 2 2 2
left_child=3 2 -2 7 -5 -6 -4 -1
right_child=1 -3 6 4 5 -7 -8 -9
leaf_value=4.0224421536549929e-05 -0.00016813323724948403 -0.00026894592912867665 0.00024937937216071244 0.00031363838177639997 -0.00021156993258045987 0.00018613994074985387 1.4794470553169959e-05 -0.00019528432770000241
leaf_weight=27 28 30 22 30 20 25 32 21
leaf_count=27 28 30 22 30 20 25 32 21
internal_value=2.3345e-12 -6.08602e-05 1.52688e-05 5.54174e-05 0.000131083 9.38e-06 0.000110366 -6.28107e-05
internal_weight=235 112 82 123 75 45 54 48
internal_count=235 112 82 123 75 45 54 48
is_linear=0
shrinkage=0.1


Tree=74
num_leaves=9
num_cat=0
split_feature=1 0 0 1 0 1 1 0
split_gain=9.75673e-05 0.000174042 0.000224141 0.000128674 0.000214847 0.00015957 0.000120041 2.66372e-05
threshold=52.250000000000007 521.51162790697686 2331.2250000000004 80.250000000000014 4268.0898876404508 67.000000000000014 40.250000000000007 6657.857142857144
decision_type=2 2 2 2 2 2 2 2
left_child=6 -2 -3 5 -5 -4 -1 -8
right_child=1 2 3 4 -6 -7 7 -9
leaf_value=8.3104002228735584e-05 0.00026828350086621609 -0.00024208967327966446 2.5379072837028152e-05 0.00013001055720871172 -0.00030003749388491827 0.00035241835843771697 -0.00027661421071653342 -0.00012100043849469249
leaf_weight=23 28 31 37 26 21 25 22 22
leaf_count=23 28 31 37 26 21 25 22 22
internal_value=-1.30658e-12 4.06912e-05 -4.8272e-06 6.26511e-05 -6.21386e-05 0.00015725 -0.000102032 -0.000198807
internal_weight=235 168 140 109 47 62 67 44
internal_count=235 168 140 109 47 62 67 44
is_linear=0
shrinkage=0.1


Tree=75
num_leaves=9
num_cat=0
split_feature=1 1 1 3 3 0 0 1
split_gain=8.76543e-05 0.000170461 0.000139545 0.000118753 0.000144432 0.000186918 0.000151981 8.05555e-05
threshold=108.25000000000001 95.250000000000014 83.250000000000014 5.2500000000000009 4.2500000000000009 3855.4270491803286 5936.666666666667 65.250000000000014
decision_type=2 2 2 2 2 2 2 2
left_child=1 2 3 4 5 7 -7 -1
right_child=-2 -3 -4 -5 -6 6 -8 -9
leaf_value=-0.00026115059843976745 0.00014849484141450376 -0.00023675110760450481 0.00024984188414898449 0.00018327558742991341 -0.00029208371071779928 0.00032591865694319658 -2.8159322337833819e-05 -1.2037048931233585e-05
leaf_weight=27 34 32 22 24 22 22 27 25
leaf_count=27 34 32 22 24 22 22 27 25
internal_value=-2.35308e-12 -2.51185e-05 1.49539e-05 -2.01994e-05 -5.99018e-05 -9.32756e-06 0.000130814 -0.000141384
internal_weight=235 201 169 147 123 101 49 52
internal_count=235 201 169 147 123 101 49 52
is_linear=0
shrinkage=0.1


Tree=76
num_leaves=9
num_cat=0
split_feature=1 1 1 2 3 1 0 0
split_gain=7.1e-05 0.000138542 0.000124201 0.00018109 0.000273372 9.14585e-05 6.33327e-05 2.37032e-05
threshold=108.25000000000001 90.500000000000014 52.250000000000007 2.5000000000000004 5.2500000000000009 40.250000000000007 3561.2903225806454 6657.857142857144
decision_type=2 2 2 2 2 2 2 2
left_child=1 2 5 -4 6 -1 -5 -7
right_child=-2 -3 3 4 -6 7 -8 -9
leaf_value=7.5463767912562781e-05 0.00013364535732441309 -0.00019181354104941235 0.00033594102816372789 -4.6701864630449566e-06 0.00026518369386731473 -0.00024400334408379755 -0.00024341580597683787 -9.7209684926466181e-05
leaf_weight=23 34 39 23 20 27 22 25 22
leaf_count=23 34 39 23 20 27 22 25 22
internal_value=-6.06227e-12 -2.26067e-05 1.81283e-05 9.16611e-05 1.36272e-05 -8.61346e-05 -0.000137307 -0.000170607
internal_weight=235 201 162 95 72 67 45 44
internal_count=235 201 162 95 72 67 45 44
is_linear=0
shrinkage=0.1


Tree=77
num_leaves=9
num_cat=0
split_feature=1 3 0 1 0 1 0 3
split_gain=7.75408e-05 0.000309314 0.000192084 0.000208509 0.00020738 0.000174411 0.000190582 0.000134432
threshold=121.00000000000001 7.2500000000000009 3855.4270491803286 72.250000000000014 6283.4561602418753 90.500000000000014 1407.227519762846 4.2500000000000009
decision_type=2 2 2 2 2 2 2 2
left_child=1 2 5 4 -4 6 -1 -6
right_child=-2 -3 3 -5 7 -7 -8 -9
leaf_value=0.00019877533595717979 -0.00018833687092410401 0.00038208177401905972 0.00021993890238393633 0.00036523972288705409 4.7834994135579721e-05 -0.00030397728638383666 -0.00015938108957086046 -0.00028350479621440172
leaf_weight=24 20 21 28 20 24 34 39 25
leaf_count=24 20 21 28 20 24 34 39 25
internal_value=5.73175e-12 1.75197e-05 -2.19432e-05 7.75619e-05 2.84038e-06 -0.000121448 -2.29405e-05 -0.000121216
internal_weight=235 215 194 97 77 97 63 49
internal_count=235 215 194 97 77 97 63 49
is_linear=0
shrinkage=0.1


Tree=78
num_leaves=9
num_cat=0
split_feature=0 3 0 0 1 1 0 2
split_gain=8.5171e-05 0.000195232 0.000178125 0.000120025 0.000161681 0.000186271 6.99009e-05 4.81579e-05
threshold=4046.7099056603779 6.5000000000000009 5783.3850931677034 1279.3529411764709 70.250000000000014 99.500000000000014 8347.82196969697 2.5000000000000004
decision_type=2 2 2 2 2 2 2 2
left_child=3 2 -2 7 -5 -6 -4 -1
right_child=1 -3 6 4 5 -7 -8 -9
leaf_value=2.2304754330198869e-05 -0.00018790972743382945 -0.00028136890963651243 3.5637893693894832e-05 0.00031629617422974362 -0.00021087649336550386 0.00019856702256947756 0.00027124257176183166 -0.00017960763230110473
leaf_weight=27 28 30 34 30 20 25 20 21
leaf_count=27 28 30 34 30 20 25 20 21
internal_value=-3.50639e-12 -6.30893e-05 1.67691e-05 5.74471e-05 0.000136474 1.65921e-05 0.000122899 -6.60319e-05
internal_weight=235 112 82 123 75 45 54 48
internal_count=235 112 82 123 75 45 54 48
is_linear=0
shrinkage=0.1


Tree=79
num_leaves=10
num_cat=0
split_feature=1 0 1 1 0 1 2 0 0
split_gain=9.03805e-05 0.000277817 0.000230517 0.000173775 0.000151318 0.000264667 0.00011585 7.81901e-05 1.34131e-05
threshold=85.500000000000014 3366.4407467532469 75.750000000000014 67.000000000000014 3005.7692307692309 55.500000000000007 3.5000000000000004 6283.4561602418753 8121.7500000000009
decision_type=2 2 2 2 2 2 2 2 2
left_child=2 6 3 4 -1 7 -2 -6 -9
right_child=1 -3 -4 -5 5 -7 -8 8 -10
leaf_value=0.00020759130129590633 0.00035839647316606717 -0.00017090586479753258 -0.00031668293701771363 0.00028070065451174742 0.00014275143342092634 -0.00039725602308118889 6.5253929698463675e-05 -0.00014059690314752516 -2.4781895335763695e-05
leaf_weight=20 28 28 26 20 25 22 26 20 20
leaf_count=20 28 28 26 20 25 22 26 20 20
internal_value=-2.90109e-12 8.47115e-05 -4.54009e-05 1.01371e-05 -4.04355e-05 -9.74531e-05 0.000217254 4.01861e-06 -8.26894e-05
internal_weight=235 82 153 127 107 87 54 65 40
internal_count=235 82 153 127 107 87 54 65 40
is_linear=0
shrinkage=0.1


Tree=80
num_leaves=9
num_cat=0
split_feature=3 1 3 1 0 0 1 0
split_gain=8.63987e-05 0.000153844 0.00024872 0.000138689 8.14531e-05 0.000148766 0.000116616 0.000257028
threshold=1.5000000000000002 52.250000000000007 2.2500000000000004 41.750000000000007 6161.6176470588243 4923.7500000000009 78.500000000000014 2331.2250000000004
decision_type=2 2 2 2 2 2 2 2
left_child=-1 3 -3 -2 5 6 -4 -8
right_child=1 2 4 -5 -6 -7 7 -9
leaf_value=-0.00015271885126821871 9.6868138782502642e-05 0.00040752197692199847 -0.00014581647040110758 -0.00022188513709503845 0.00017717724715891696 -0.00025922481203451755 -0.00011400964582814293 0.00032839932416742348
leaf_weight=32 21 20 22 39 28 20 24 29
leaf_count=32 21 20 22 39 28 20 24 29
internal_value=4.14884e-13 2.40739e-05 8.04636e-05 -0.000110321 2.72834e-05 -1.68959e-05 4.77252e-05 0.000128063
internal_weight=235 203 143 60 123 95 75 53
internal_count=235 203 143 60 123 95 75 53
is_linear=0
shrinkage=0.1


Tree=81
num_leaves=9
num_cat=0
split_feature=1 0 1 1 1 2 0 2
split_gain=8.00925e-05 0.00012804 0.000145014 9.20862e-05 0.000258077 0.000359038 0.000692455 9.39879e-05
threshold=42.250000000000007 1920.2566964285718 110.50000000000001 80.250000000000014 67.000000000000014 3.5000000000000004 7416.9642857142871 5.5000000000000009
decision_type=2 2 2 2 2 2 2 2
left_child=-1 2 -2 4 5 -3 -7 -5
right_child=1 3 -4 7 -6 6 -8 -9
leaf_value=-0.00014976017259722276 3.0410273092067137e-05 -0.00040058006336700846 0.00036795931366214065 1.8215561083153538e-05 0.00030899605620652443 0.00053997580427676438 -0.00021965965259975446 -0.00025247604092422485
leaf_weight=31 35 22 20 23 25 20 30 29
leaf_count=31 35 22 20 23 25 20 30 29
internal_value=-1.20131e-12 2.27577e-05 0.000153155 -2.53757e-05 3.21842e-05 -6.3931e-05 8.41945e-05 -0.000132747
internal_weight=235 204 55 149 97 72 50 52
internal_count=235 204 55 149 97 72 50 52
is_linear=0
shrinkage=0.1


Tree=82
num_leaves=9
num_cat=0
split_feature=1 3 0 1 3 1 0 0
split_gain=8.63176e-05 0.000321563 0.000226831 0.000189652 0.000193562 0.000163815 0.000183454 5.54559e-05
threshold=121.00000000000001 7.2500000000000009 3855.4270491803286 72.250000000000014 3.5000000000000004 90.500000000000014 1407.227519762846 7416.9642857142871
decision_type=2 2 2 2 2 2 2 2
left_child=1 2 5 4 -4 6 -1 -6
right_child=-2 -3 3 -5 7 -7 -8 -9
leaf_value=0.00018311568680170847 -0.0001987101434497163 0.00039019529441637656 0.00025805550192118342 0.00036074078525416553 3.3861602423712613e-05 -0.00030678069306304683 -0.00016827942484106201 -0.00017238379459740829
leaf_weight=24 20 21 23 20 22 34 39 32
leaf_count=24 20 21 23 20 22 34 39 32
internal_value=-1.10842e-12 1.84847e-05 -2.17521e-05 8.6379e-05 1.51162e-05 -0.000129883 -3.44146e-05 -8.83579e-05
internal_weight=235 215 194 97 77 97 63 54
internal_count=235 215 194 97 77 97 63 54
is_linear=0
shrinkage=0.1


Tree=83
num_leaves=10
num_cat=0
split_feature=1 0 1 1 0 0 1 0 0
split_gain=7.36283e-05 0.000128757 0.000238709 0.000273527 0.000188035 0.000135971 0.000169501 0.000134527 4.47907e-05
threshold=42.250000000000007 4046.7099056603779 70.250000000000014 85.500000000000014 6161.6176470588243 521.51162790697686 107.25000000000001 8678.5874691219415 5024.0033222591373
decision_type=2 2 2 2 2 2 2 2 2
left_child=-1 2 -2 -4 8 -5 -7 -6 -3
right_child=1 4 3 5 7 6 -8 -9 -10
leaf_value=-0.00014358953339979052 0.00035933831610376589 -0.00032728654498766576 -0.00026502512698061765 0.0003414872684516013 0.0002216050943108992 0.0002218740727715028 -0.00018489991081878544 -0.00010328198131173851 -0.00011818303144536913
leaf_weight=31 26 21 25 20 26 21 20 25 20
leaf_count=31 26 21 25 20 26 21 20 25 20
internal_value=1.50163e-13 2.182e-05 9.38238e-05 1.3552e-05 -6.58369e-05 0.000127723 2.34477e-05 6.23467e-05 -0.000225285
internal_weight=235 204 112 86 92 61 41 51 41
internal_count=235 204 112 86 92 61 41 51 41
is_linear=0
shrinkage=0.1


Tree=84
num_leaves=9
num_cat=0
split_feature=3 1 0 0 0 0 0 0
split_gain=7.45011e-05 0.000111346 0.000271354 0.000238573 0.000123143 0.00015261 0.000145875 8.82321e-05
threshold=1.5000000000000002 85.500000000000014 3366.4407467532469 2796.8571428571436 4046.7099056603779 5783.3850931677034 7416.9642857142871 8981.8181818181838
decision_type=2 2 2 2 2 2 2 2
left_child=-1 3 -3 -2 -5 -6 -7 -8
right_child=1 2 -4 4 5 6 7 -9
leaf_value=-0.00014181439779576978 -0.00034822421206627042 0.00029777007329334409 -0.00011463684258396152 0.00021281585170611464 -0.00022959218972742006 0.00026976266443463312 -0.00020504659158177677 8.516289949925108e-05
leaf_weight=32 20 39 27 27 27 21 20 22
leaf_count=32 20 39 27 27 27 21 20 22
internal_value=-3.32836e-13 2.2355e-05 0.000129058 -2.90495e-05 2.55103e-05 -3.06813e-05 5.45662e-05 -5.30321e-05
internal_weight=235 203 66 137 117 90 63 42
internal_count=235 203 66 137 117 90 63 42
is_linear=0
shrinkage=0.1


Tree=85
num_leaves=9
num_cat=0
split_feature=1 1 1 1 0 1 1 0
split_gain=7.03849e-05 0.000288991 0.000170043 9.16691e-05 0.000108256 0.000211129 0.000423425 0.000156814
threshold=121.00000000000001 106.50000000000001 95.250000000000014 83.250000000000014 8406.7674418604674 70.250000000000014 52.250000000000007 5936.666666666667
decision_type=2 2 2 2 2 2 2 2
left_child=1 2 3 4 5 6 7 -1
right_child=-2 -3 -4 -5 -6 -7 -8 -9
leaf_value=1.951774666567558e-05 -0.00017943614468094894 0.00036907387631280084 -0.00026487037376500669 0.00020493326830381357 0.00017119253215451655 -0.00027400881390349241 0.00030962945011472616 -0.00031537450095466164
leaf_weight=29 20 21 25 22 26 32 33 27
leaf_count=29 20 21 25 22 26 32 33 27
internal_value=-6.81153e-13 1.66917e-05 -2.14527e-05 1.45558e-05 -1.39361e-05 -5.37158e-05 2.54907e-05 -0.000141948
internal_weight=235 215 194 169 147 121 89 56
internal_count=235 215 194 169 147 121 89 56
is_linear=0
shrinkage=0.1


Tree=86
num_leaves=8
num_cat=0
split_feature=0 0 2 0 0 1 2
split_gain=6.40359e-05 0.000295062 0.000265264 0.000178329 0.000148344 0.00014113 0.000144211
threshold=3855.4270491803286 3005.7692307692309 6.5000000000000009 5137.9545454545469 8347.82196969697 85.500000000000014 3.5000000000000004
decision_type=2 2 2 2 2 2 2
left_child=1 5 3 -2 -5 -1 -7
right_child=2 -3 -4 4 -6 6 -8
leaf_value=-0.00010864202415224357 0.00037916444513636329 -0.00034236005427643523 -0.00017890970322436523 -5.76962118383306e-05 0.00027727975160814824 0.00030260243888564963 -3.4293964320871356e-05
leaf_weight=39 24 27 35 39 20 27 24
leaf_count=39 24 27 35 39 20 27 24
internal_value=5.94461e-13 -5.24235e-05 5.19792e-05 0.000149342 5.5855e-05 3.45575e-05 0.000144063
internal_weight=235 117 118 83 59 90 51
internal_count=235 117 118 83 59 90 51
is_linear=0
shrinkage=0.1


Tree=87
num_leaves=8
num_cat=0
split_feature=0 0 0 2 1 0 0
split_gain=6.86566e-05 0.000143004 0.000169693 0.000214864 0.000171139 0.000144447 0.000124175
threshold=14.37303370786517 1920.2566964285718 3855.4270491803286 6.5000000000000009 67.000000000000014 5137.9545454545469 7602.5238095238101
decision_type=2 2 2 2 2 2 2
left_child=-1 -2 4 5 -3 -4 -7
right_child=1 2 3 -5 -6 6 -8
leaf_value=-0.00017254587091017692 0.0001900948742658306 -0.00039021152292012371 0.00034124798742899055 -0.00016101873296845174 -3.0999713271739895e-05 -7.8502514004481571e-05 0.00021371083387818478
leaf_weight=21 39 21 24 35 36 33 26
leaf_count=21 39 21 24 35 36 33 26
internal_value=-3.77731e-13 1.69321e-05 -2.16585e-05 4.67813e-05 -0.000163341 0.000134408 5.02695e-05
internal_weight=235 214 175 118 57 83 59
internal_count=235 214 175 118 57 83 59
is_linear=0
shrinkage=0.1


Tree=88
num_leaves=9
num_cat=0
split_feature=3 1 2 0 0 1 3 1
split_gain=7.19626e-05 0.000107919 0.000278261 0.000257803 0.000335351 0.000153211 0.000146466 0.000130147
threshold=1.5000000000000002 65.250000000000014 3.5000000000000004 3950.5263157894742 6283.4561602418753 80.250000000000014 4.2500000000000009 106.50000000000001
decision_type=2 2 2 2 2 2 2 2
left_child=-1 3 -3 -2 -5 -4 -6 -7
right_child=1 2 5 4 6 7 -8 -9
leaf_value=-0.00013937740977780779 -0.00036500536596230674 0.00034917633398436011 0.00022947699064388869 0.00033001690637320282 5.6383667348806436e-05 -0.00021734694494037236 -0.00028946827678009871 8.6801320503582249e-05
leaf_weight=32 21 30 20 25 24 34 25 24
leaf_count=32 21 30 20 25 24 34 25 24
internal_value=-2.74629e-12 2.19708e-05 9.03543e-05 -5.57704e-05 3.19855e-05 -9.19262e-06 -0.000120071 -9.14925e-05
internal_weight=235 203 108 95 74 78 49 58
internal_count=235 203 108 95 74 78 49 58
is_linear=0
shrinkage=0.1


Tree=89
num_leaves=8
num_cat=0
split_feature=3 1 0 0 0 1 1
split_gain=7.50902e-05 0.000172193 8.89981e-05 0.000264688 0.00012508 0.000111746 4.02832e-05
threshold=5.2500000000000009 80.250000000000014 3855.4270491803286 5936.666666666667 2890.8750000000005 90.500000000000014 45.250000000000007
decision_type=2 2 2 2 2 2 2
left_child=2 -2 4 -4 5 -1 -5
right_child=1 -3 3 6 -6 -7 -8
leaf_value=9.3285915645537906e-05 0.00032740370924806315 -3.6796758821069759e-05 0.0002819537635271748 -0.00020339117812303209 -0.00026289462878291187 -0.00014956585396753833 -1.1826694991095398e-05
leaf_weight=40 21 34 30 21 30 36 23
leaf_count=40 21 34 30 21 30 36 23
internal_value=-3.00327e-12 0.000102262 -3.12466e-05 5.29106e-05 -8.99979e-05 -2.17491e-05 -0.000103255
internal_weight=235 55 180 74 106 76 44
internal_count=235 55 180 74 106 76 44
is_linear=0
shrinkage=0.1


Tree=90
num_leaves=8
num_cat=0
split_feature=3 1 0 0 0 1 1
split_gain=6.08231e-05 0.000139477 7.20885e-05 0.000214398 0.000101315 9.05141e-05 3.26294e-05
threshold=5.2500000000000009 80.250000000000014 3855.4270491803286 5936.666666666667 2890.8750000000005 90.500000000000014 45.250000000000007
decision_type=2 2 2 2 2 2 2
left_child=2 -2 4 -4 5 -1 -5
right_child=1 -3 3 6 -6 -7 -8
leaf_value=8.3957322967762596e-05 0.00029466335794755389 -3.3117072855341526e-05 0.00025375839245195194 -0.00018305206724021229 -0.00023660516579790663 -0.00013460925838444383 -1.0644020284930973e-05
leaf_weight=40 21 34 30 21 30 36 23
leaf_count=40 21 34 30 21 30 36 23
internal_value=2.45834e-12 9.20355e-05 -2.81219e-05 4.76195e-05 -8.09981e-05 -1.95742e-05 -9.29297e-05
internal_weight=235 55 180 74 106 76 44
internal_count=235 55 180 74 106 76 44
is_linear=0
shrinkage=0.1


Tree=91
num_leaves=9
num_cat=0
split_feature=0 0 0 1 1 0 2 2
split_gain=7.59182e-05 0.000237437 0.000148344 0.000159397 0.000153374 8.55043e-05 0.000145698 3.48785e-05
threshold=4046.7099056603779 5024.0033222591373 1279.3529411764709 70.250000000000014 99.500000000000014 9487.6491862567837 4.5000000000000009 2.5000000000000004
decision_type=2 2 2 2 2 2 2 2
left_child=2 -2 7 -4 -5 6 -3 -1
right_child=1 5 3 4 -6 -7 -8 -9
leaf_value=-7.8612726173122186e-06 -0.00033836888208801008 -0.000102378095730923 0.00032064146365883066 -0.00018334576423512772 0.00018818664830178022 -0.00015959408178570727 0.00019660943642240737 -0.00017969493887254171
leaf_weight=27 24 28 30 20 25 21 39 21
leaf_count=27 24 28 30 20 25 21 39 21
internal_value=-3.37016e-12 -5.95638e-05 5.4237e-05 0.000142093 2.30611e-05 1.64739e-05 7.16594e-05 -8.30385e-05
internal_weight=235 112 123 75 45 88 67 48
internal_count=235 112 123 75 45 88 67 48
is_linear=0
shrinkage=0.1


Tree=92
num_leaves=10
num_cat=0
split_feature=1 1 0 0 1 0 1 2 1
split_gain=7.32359e-05 0.000191215 0.000162138 0.000121067 8.56239e-05 0.000147445 0.000279162 3.29677e-05 5.4885e-05
threshold=85.500000000000014 78.500000000000014 3366.4407467532469 1465.681211331814 67.000000000000014 3005.7692307692309 55.500000000000007 4.5000000000000009 42.250000000000007
decision_type=2 2 2 2 2 2 2 2 2
left_child=1 4 3 -2 5 -1 7 8 -7
right_child=2 -3 -4 -5 -6 6 -8 -9 -10
leaf_value=0.00020962292765034363 5.3358403101810842e-05 -0.00032114888364005658 -0.00011902336326394497 0.00035809430357238109 0.00017034348240122201 7.2160758381042725e-05 -0.00039939503172222021 0.00011228710936848075 -0.00015385578680295674
leaf_weight=20 32 21 28 22 25 22 22 22 21
leaf_count=20 32 21 28 22 25 22 22 22 21
internal_value=-2.83917e-12 -4.08686e-05 7.62547e-05 0.00017751 3.72149e-06 -3.52089e-05 -9.14921e-05 1.27213e-05 -3.82194e-05
internal_weight=235 153 82 54 132 107 87 65 43
internal_count=235 153 82 54 132 107 87 65 43
is_linear=0
shrinkage=0.1


Tree=93
num_leaves=9
num_cat=0
split_feature=1 3 0 0 0 1 1 0
split_gain=6.16959e-05 0.000321563 0.000198334 0.000125433 0.000161591 0.000150609 0.000219611 8.30855e-05
threshold=121.00000000000001 7.2500000000000009 8406.7674418604674 1279.3529411764709 6283.4561602418753 61.750000000000007 78.500000000000014 3366.4407467532469
decision_type=2 2 2 2 2 2 2 2
left_child=1 2 3 -1 5 -5 -7 -8
right_child=-2 -3 -4 4 -6 6 7 -9
leaf_value=-0.00022389093721505708 -0.00016799581819213928 0.00038733840809159338 0.00025810679441995243 0.0001973966123701897 -0.0002252315134432263 -0.00028444395773112775 0.00023741365643218163 -4.420465424614535e-05
leaf_weight=37 20 21 22 39 29 25 20 22
leaf_count=37 20 21 22 39 29 25 20 22
internal_value=3.36552e-12 1.56275e-05 -2.46092e-05 -6.07706e-05 -1.60635e-05 4.11617e-05 -4.9781e-05 8.98993e-05
internal_weight=235 215 194 172 135 106 67 42
internal_count=235 215 194 172 135 106 67 42
is_linear=0
shrinkage=0.1


Tree=94
num_leaves=9
num_cat=0
split_feature=0 1 1 3 1 0 2 0
split_gain=6.15152e-05 0.000170697 0.000210718 0.00021189 0.000175893 0.00021741 0.00019217 4.47943e-05
threshold=9487.6491862567837 42.250000000000007 60.500000000000007 6.5000000000000009 85.500000000000014 3561.2903225806454 3.5000000000000004 5936.666666666667
decision_type=2 2 2 2 2 2 2 2
left_child=1 -1 7 4 5 -4 -6 -3
right_child=-2 2 3 -5 6 -7 -8 -9
leaf_value=-0.00020954841404153711 -0.00016332566294641724 0.00014086405863054097 -4.5110436732295165e-05 0.00022868412061749648 0.00023177308271285789 -0.00046294628293253482 -0.00012922874377788201 0.00034504941471492537
leaf_weight=29 21 21 33 30 29 20 30 22
leaf_count=29 21 21 33 30 29 20 30 22
internal_value=2.50788e-13 1.60273e-05 5.13878e-05 -7.34147e-06 -7.05626e-05 -0.000202784 4.82128e-05 0.000245331
internal_weight=235 214 185 142 112 53 59 43
internal_count=235 214 185 142 112 53 59 43
is_linear=0
shrinkage=0.1


Tree=95
num_leaves=9
num_cat=0
split_feature=1 3 0 0 0 1 1 0
split_gain=6.23366e-05 0.000237367 0.00016495 0.000107513 0.000144279 0.000108827 0.000165741 5.96922e-05
threshold=121.00000000000001 7.2500000000000009 8406.7674418604674 1279.3529411764709 6283.4561602418753 61.750000000000007 78.500000000000014 3366.4407467532469
decision_type=2 2 2 2 2 2 2 2
left_child=1 2 3 -1 5 -5 -7 -8
right_child=-2 -3 -4 4 -6 6 7 -9
leaf_value=-0.00020285859582882778 -0.00016886585885004027 0.00033506969976726747 0.00023896553214978089 0.00017643100914145366 -0.00020809522117407801 -0.00023754160525277256 0.00021269832388497888 -2.6004290504550391e-05
leaf_weight=37 20 21 22 39 29 25 20 22
leaf_count=37 20 21 22 39 29 25 20 22
internal_value=3.2974e-13 1.57085e-05 -1.88616e-05 -5.18395e-05 -1.0449e-05 4.3624e-05 -3.36816e-05 8.76636e-05
internal_weight=235 215 194 172 135 106 67 42
internal_count=235 215 194 172 135 106 67 42
is_linear=0
shrinkage=0.1


Tree=96
num_leaves=10
num_cat=0
split_feature=0 0 2 0 0 1 1 3 0
split_gain=7.37018e-05 0.000194908 0.000173571 9.09244e-05 0.000185699 0.000204426 9.84427e-05 2.66744e-05 6.19205e-06
threshold=4046.7099056603779 5669.2527562270325 6.5000000000000009 2796.8571428571436 1920.2566964285718 110.50000000000001 70.250000000000014 4.2500000000000009 195.53650793650797
decision_type=2 2 2 2 2 2 2 2 2
left_child=3 -2 7 4 5 8 -5 -3 -1
right_child=1 2 -4 6 -6 -7 -8 -9 -10
leaf_value=-8.8759807695169002e-05 -0.00023917054238084415 0.00020203399419967485 -0.00020490954740948623 0.00033340940150083042 -0.00026440610305317457 0.00034214540050015786 2.6867304272441704e-05 5.8364659586610894e-05 -1.0070207645185292e-05
leaf_weight=20 39 28 21 20 21 20 22 24 20
leaf_count=20 39 28 21 20 21 20 22 24 20
internal_value=1.20131e-12 -5.86879e-05 3.77343e-05 5.34394e-05 -8.47186e-06 8.11051e-05 0.00017284 0.000135725 -4.9415e-05
internal_weight=235 112 73 123 81 60 42 52 40
internal_count=235 112 73 123 81 60 42 52 40
is_linear=0
shrinkage=0.1


Tree=97
num_leaves=10
num_cat=0
split_feature=0 1 1 3 0 0 1 0 0
split_gain=6.80021e-05 0.000147272 0.000155151 0.000163169 0.000136495 0.000119675 0.000141444 6.41342e-05 3.94951e-05
threshold=9487.6491862567837 42.250000000000007 60.500000000000007 6.5000000000000009 521.51162790697686 3005.7692307692309 99.500000000000014 3950.5263157894742 5936.666666666667
decision_type=2 2 2 2 2 2 2 2 2
left_child=1 -1 8 4 -4 6 -6 -7 -3
right_child=-2 2 3 -5 5 7 -8 -9 -10
leaf_value=-0.00019267614085853485 -0.00017172137519255991 0.00011802137101074636 0.00014976182667305693 0.00020642191928345712 -0.00041893713641911746 0.00011716951266862453 -5.9977344062644991e-05 -0.00012768051528837533 0.00030974894259336658
leaf_weight=29 21 21 25 30 21 23 23 20 22
leaf_count=29 21 21 25 30 21 23 23 20 22
internal_value=6.45548e-12 1.68512e-05 4.9696e-05 -6.98359e-07 -5.6177e-05 -0.000115355 -0.000231299 3.28578e-06 0.000216115
internal_weight=235 214 185 142 112 87 44 43 43
internal_count=235 214 185 142 112 87 44 43 43
is_linear=0
shrinkage=0.1


Tree=98
num_leaves=9
num_cat=0
split_feature=1 3 0 0 0 1 1 1
split_gain=6.59932e-05 0.00020044 0.000132294 8.91789e-05 0.000205434 0.000245004 0.000240245 0.0001941
threshold=121.00000000000001 7.2500000000000009 8406.7674418604674 6283.4561602418753 3855.4270491803286 57.000000000000007 90.500000000000014 67.000000000000014
decision_type=2 2 2 2 2 2 2 2
left_child=1 2 3 4 6 -6 7 -1
right_child=-2 -3 -4 -5 5 -7 -8 -9
leaf_value=-0.00016373098878830206 -0.00017374799874232851 0.00030963286934863952 0.00021529409251260488 -0.00020503375813734302 0.00042447360930964351 -4.1073564520607206e-05 -0.00030947744800120266 0.00018772067860206308
leaf_weight=30 20 21 22 29 20 26 34 33
leaf_count=30 20 21 22 29 20 26 34 33
internal_value=1.43661e-12 1.61626e-05 -1.56048e-05 -4.51384e-05 -1.2712e-05 0.000161338 -9.52513e-05 2.03627e-05
internal_weight=235 215 194 172 143 46 97 63
internal_count=235 215 194 172 143 46 97 63
is_linear=0
shrinkage=0.1


Tree=99
num_leaves=9
num_cat=0
split_feature=0 0 2 1 3 1 1 3
split_gain=9.067e-05 0.000172572 0.000161814 7.99522e-05 0.000174526 0.000119451 7.48374e-05 2.20684e-05
threshold=4046.7099056603779 5669.2527562270325 6.5000000000000009 61.750000000000007 1.5000000000000002 85.500000000000014 106.50000000000001 4.2500000000000009
decision_type=2 2 2 2 2 2 2 2
left_child=3 -2 7 -1 -5 -6 -7 -3
right_child=1 2 -4 4 5 6 -8 -9
leaf_value=0.0002230201096911818 -0.00023492048016916483 0.00018056177463482268 -0.00020864657736161636 -0.00021513717789882017 -5.9879779679855957e-05 0.00031835803480741257 5.9864151712861798e-05 4.9883740818283207e-05
leaf_weight=24 39 28 21 24 30 24 21 24
leaf_count=24 39 28 21 24 30 24 21 24
internal_value=-1.65025e-12 -6.50941e-05 2.56351e-05 5.92727e-05 1.95763e-05 9.46846e-05 0.000197728 0.000120249
internal_weight=235 112 73 123 99 75 45 52
internal_count=235 112 73 123 99 75 45 52
is_linear=0
shrinkage=0.1


Tree=100
num_leaves=9
num_cat=0
split_feature=1 0 0 0 3 1 0 0
split_gain=7.4739e-05 0.000141666 0.000178173 0.000124036 0.000164926 0.000112398 4.43463e-05 3.21207e-05
threshold=52.250000000000007 521.51162790697686 2331.2250000000004 3561.2903225806454 6.5000000000000009 40.250000000000007 6657.857142857144 5024.0033222591373
decision_type=2 2 2 2 2 2 2 2
left_child=5 -2 -3 -4 7 -1 -7 -5
right_child=1 2 3 4 -6 6 -8 -9
leaf_value=8.9843551699153105e-05 0.00024094911859720016 -0.00021699121820523533 0.00021659566696281688 2.0627661918600403e-05 -0.00018832184787243023 -0.00028333766941531478 -8.2552227236605677e-05 0.00019168651576720829
leaf_weight=23 28 31 33 21 32 22 22 23
leaf_count=23 28 31 33 21 32 22 22 23
internal_value=6.80379e-13 3.56141e-05 -5.45285e-06 5.47094e-05 -1.55833e-05 -8.93011e-05 -0.000182945 0.000110045
internal_weight=235 168 140 109 76 67 44 44
internal_count=235 168 140 109 76 67 44 44
is_linear=0
shrinkage=0.1


Tree=101
num_leaves=9
num_cat=0
split_feature=0 1 1 3 1 0 2 0
split_gain=6.80963e-05 0.000137714 0.000123479 0.0001473 0.000131551 0.000176114 0.0001629 3.26608e-05
threshold=9487.6491862567837 42.250000000000007 60.500000000000007 6.5000000000000009 85.500000000000014 3561.2903225806454 3.5000000000000004 5936.666666666667
decision_type=2 2 2 2 2 2 2 2
left_child=1 -1 7 4 5 -4 -6 -3
right_child=-2 2 3 -5 6 -7 -8 -9
leaf_value=-0.00018575108030024145 -0.00017184032504225064 0.00010788443503857015 -2.1481520767944555e-05 0.0002004580124048516 0.00022267725495300419 -0.00039754619705490769 -0.00010969694383675233 0.00028223622522835452
leaf_weight=29 21 21 33 30 29 20 30 22
leaf_count=29 21 21 33 30 29 20 30 22
internal_value=1.10842e-12 1.68628e-05 4.86239e-05 3.66661e-06 -4.90454e-05 -0.000163393 5.36734e-05 0.000197088
internal_weight=235 214 185 142 112 53 59 43
internal_count=235 214 185 142 112 53 59 43
is_linear=0
shrinkage=0.1


Tree=102
num_leaves=8
num_cat=0
split_feature=0 0 2 0 1 1 0
split_gain=6.06589e-05 0.000135989 0.000126309 0.00010354 0.000245381 0.000100409 1.98761e-05
threshold=4046.7099056603779 5669.2527562270325 6.5000000000000009 452.11558307533545 62.500000000000007 92.500000000000014 7416.9642857142871
decision_type=2 2 2 2 2 2 2
left_child=3 -2 6 -1 -5 -6 -3
right_child=1 2 -4 4 5 -7 -8
leaf_value=-0.00011305995120589311 -0.00020399763747357214 0.00018308613375252623 -0.00017969097797980622 0.00041092191520874626 -0.00010332967301817714 0.00013125310518237687 5.7946229353547104e-05
leaf_weight=30 39 22 21 20 36 37 30
leaf_count=30 39 22 21 20 36 37 30
internal_value=-6.16134e-13 -5.32423e-05 2.72982e-05 4.84808e-05 0.000100591 1.55684e-05 0.00011089
internal_weight=235 112 73 123 93 73 52
internal_count=235 112 73 123 93 73 52
is_linear=0
shrinkage=0.1


Tree=103
num_leaves=9
num_cat=0
split_feature=1 1 0 0 0 3 0 0
split_gain=7.58426e-05 0.000113308 0.000112405 0.000169182 8.71136e-05 0.00019823 5.21025e-05 3.6095e-05
threshold=52.250000000000007 40.250000000000007 521.51162790697686 2331.2250000000004 4046.7099056603779 6.5000000000000009 3255.5319148936173 6657.857142857144
decision_type=2 2 2 2 2 2 2 2
left_child=1 -1 -2 -4 6 -6 -5 -3
right_child=2 7 3 4 5 -7 -8 -9
