tree
version=v4
num_class=1
num_tree_per_iteration=1
label_index=0
max_feature_idx=5
objective=regression
feature_names=country location_freq bedrooms bathrooms area_sqm property_type
feature_infos=none [0.00025726781579624391:0.061487007975302287] [1:61] [1:45] [1:119138] none
tree_sizes=2709 2772 2773 2784 2781 2787 2765 2778 2780 2769 2788 2798 2787 2796 2788 2798 2753 2767 2766 2785 2761 2770 2771 2786 2773 2763 2779 2805 2807 2810 2783 2788 2786 2798 2783 2797 2782 2791 2797 2773 2800 2780 2785 2799 2778 2777 2778 2788 2769 2778 2795 2777 2791 2792 2797 2802 2768 2798 2800 2794 2764 2792 2794 2788 2775 2794 2779 2788 2782 2784 2785 2767 2780 2795 2792 2798 2796 2779 2797 2790 2785 2803 2802 2783 2770 2780 2782 2776 2778 2788 2781 2782 2786 2776 2780 2773 2786 2776 2782 2797 2777 2783 2764 2785 2789 2783 2766 2771 2780 2766 2803 2785 2798 2782 2803 2793 2774 2803 2774 2789 2793 2791 2796 2797 2792 2780 2778 2791 2788 2803 2782 2771 2795 2763 2772 2775 2793 2785 2786 2795 2806 2787 2786 2791 2789 2781 2779 2789 2796 2779 2783 2786 2777 2780 2778 2783 2801 2806 2774 2805 2777 2776 2786 2780 2812 2760 2801 2771 2812 2773 2784 2781 2777 2787 2779 2780 2780 2781 2766 2782 2793 2790 2762 2753 2761 2783 2774 2800 2782 2764 2779 2781 2772 2770 2794 2783 2776 2778 2783 2786 2788 2800 2803 2770 2791 2803 2772 2773 2782 2801 2769 2772 2768 2776 2799 2789 2776 2773 2805 2823 2786 2788 2765 2791 2780 2769 2781 2784 2799 2774 2774 2766 2792 2781 2788 2758 2762 2784 2776 2785 2775 2799 2802 2775 2785 2787 2787 2774 2774 2786 2777 2778 2782 2770 2783 2768 2790 2804 2773 2796 2789 2797 2780 2786 2783 2794 2789 2780 2774 2790 2808 2772 2762 2797 2763 2786 2768 2796 2815 2777 2798 2781 2790 2781 2786 2774 2797 2788 2790 2784 2788 2772 2782 2789 2805 2813 2818 2789 2789 2784 2803 2765 2812 2785 2781 2798 2771 2819 2775 2793 2798 2787 2777 2808 2774 2795 2822 2778 2775 2797 2772 2771 2772 2764 2786 2768 2774 2776 2772 2787 2797 2797 2785 2795 2778 2790 2771 2765 2778 2761 2770 2762 2785 2762 2777 2790 2768 2788 2758 2788 2803 2771 2776 2778 2780 2772 2759 2800 2776 2774 2769 2785 2771 2763 2776 2775 2790 2784 2787 2762 2780 2781 2768 2797 2777 2785 2777 2777 2781 2790 2771 2761 2779 2792 2783 2754 2788 2789 2775 2783 2759 2795 2778 2786 2751 2778 2770 2772 2801 2795 2770 2781 2816 2784 2809 2791 2815 2767 2783 2793 2769 2783 2799 2775 2777 2790 2787 2783 2797 2788 2793 2767 2786 2785 2792 2797 2779 2779 2785 2792 2815 2783 2787 2795 2776 2792 2785 2777 2786 2792 2779 2779 2797 2809 2801 2794 2778 2768 2776 2792 2774 2784 2773 2786 2773 2764 2780 2781 2807 2783 2773 2771 2793 2775 2786 2788 2760 2782 2782 2775 2780 2778 2776 2788 2770 2777 2776 2805 2795 2805 2784 2773 2783 2770 2783 2763 2790 2785 2808 2790 2799 2777 2775 2782 2796 2780 2772 2792 2762 2792

Tree=0
num_leaves=31
num_cat=0
split_feature=4 1 1 4 1 2 1 3 4 4 1 2 3 1 4 4 4 4 3 4 2 2 1 1 4 2 1 4 2 1
split_gain=5.5148e+14 8.98602e+14 2.40734e+15 1.50271e+14 1.19399e+14 2.16111e+14 1.94884e+14 1.54258e+14 4.13544e+13 1.30489e+14 1.35631e+14 1.57347e+14 3.84893e+14 4.22592e+13 4.18117e+12 7.45119e+11 3.85991e+12 6.66744e+11 2.37511e+11 2.42089e+11 1.66784e+11 1.0032e+11 1.61896e+11 8.95169e+10 7.08088e+10 6.76869e+10 1.07406e+11 6.48381e+10 6.21182e+10 6.03047e+10
threshold=995.00000000000011 0.0047594545922305135 0.0043735528685361477 2436.0000000000005 0.017108309750450221 9.5000000000000018 0.015693336763570879 2.5000000000000004 78.500000000000014 100.50000000000001 0.0043735528685361477 2.5000000000000004 2.5000000000000004 0.00064316953949060992 5350.0000000000009 210.50000000000003 241.00000000000003 599.00000000000011 4.5000000000000009 78.500000000000014 5.5000000000000009 4.5000000000000009 0.027013120658605613 0.027013120658605613 39.500000000000007 3.5000000000000004 0.0091330074607666612 56.500000000000007 3.5000000000000004 0.01247748906611783
decision_type=2 2 2 2 2 2 2 2 2 2 2 2 2 2 2 2 2 2 2 2 2 2 2 2 2 2 2 2 2 2
left_child=4 2 3 -2 5 6 8 -8 25 10 -10 -12 -13 -11 28 18 -17 29 21 20 -20 -6 -23 -21 -22 -1 -27 -24 -3 -15
right_child=1 14 -4 -5 15 -7 7 -9 9 13 11 12 -14 17 -16 16 -18 -19 19 23 24 22 27 -25 -26 26 -28 -29 -30 -31
leaf_value=210940.43698343195 384470.86343358865 211014.2172886091 907803.40218358871 215898.32850770719 210961.03337119307 382849.4977066865 395974.1962460886 229578.98855378092 211100.43604821464 273985.87518448383 212130.6055832862 454401.85331845703 216995.63314124991 212206.71344040183 231789.86647635177 230022.88616086135 211475.09512225841 219950.80764655158 216741.48193732504 213655.12976881588 210638.86906509905 216140.76968358862 213779.13951205328 210706.51343358861 214126.03096948389 215225.68331640112 210677.53953312564 210683.92472509251 213973.5494335886 210760.35010546361
leaf_weight=379 20 61 20 39 2010 23 30 26 61 30 31 38 31 258 38 33 187 27 46 33 24 24 23 117 37 25 27 64 25 100
leaf_count=379 20 61 20 39 2010 23 30 26 61 30 31 38 31 258 38 33 187 27 46 33 24 24 23 117 37 25 27 64 25 100
internal_value=221714 301945 433741 273042 217293 231216 227935 318719 222886 231651 269859 305702 347741 216828 217978 211473 214257 212374 211216 212651 214468 211042 212505 211355 212754 211173 212864 211502 211874 211803
internal_weight=3887 203 79 59 3684 1086 1063 56 1007 576 161 100 69 415 124 2598 220 385 2378 257 107 2121 111 150 61 431 52 87 86 358
internal_count=3887 203 79 59 3684 1086 1063 56 1007 576 161 100 69 415 124 2598 220 385 2378 257 107 2121 111 150 61 431 52 87 86 358
is_linear=0
shrinkage=1


Tree=1
num_leaves=31
num_cat=0
split_feature=4 1 1 4 1 2 1 3 4 4 1 2 3 1 4 4 4 4 3 4 2 2 1 1 4 2 1 4 4 1
split_gain=4.97711e+14 8.10988e+14 2.17262e+15 1.3562e+14 1.07758e+14 1.9504e+14 1.75883e+14 1.39218e+14 3.73223e+13 1.17766e+14 1.22407e+14 1.42005e+14 3.47366e+14 3.81389e+13 3.7735e+12 6.7247e+11 3.48357e+12 6.01737e+11 2.14354e+11 2.18485e+11 1.50522e+11 9.05392e+10 1.46111e+11 8.0789e+10 6.3905e+10 6.10874e+10 9.6934e+10 5.85164e+10 5.62552e+10 8.91364e+10
threshold=995.00000000000011 0.0047594545922305135 0.0043735528685361477 2436.0000000000005 0.017108309750450221 9.5000000000000018 0.015693336763570879 2.5000000000000004 78.500000000000014 100.50000000000001 0.0043735528685361477 2.5000000000000004 2.5000000000000004 0.00064316953949060992 5350.0000000000009 210.50000000000003 241.00000000000003 599.00000000000011 4.5000000000000009 78.500000000000014 5.5000000000000009 4.5000000000000009 0.027013120658605613 0.027013120658605613 39.500000000000007 3.5000000000000004 0.0091330074607666612 56.500000000000007 144.50000000000003 0.0084898379212760503
decision_type=2 2 2 2 2 2 2 2 2 2 2 2 2 2 2 2 2 2 2 2 2 2 2 2 2 2 2 2 2 2
left_child=4 2 3 -2 5 6 8 -8 25 10 -10 -12 -13 -11 -3 18 -17 28 21 20 -20 -6 -23 -21 -22 -1 -27 -24 -15 -30
right_child=1 14 -4 -5 15 -7 7 -9 9 13 11 12 -14 17 -16 16 -18 -19 19 23 24 22 27 -25 -26 26 -28 -29 29 -31
leaf_value=-10234.948301386772 154618.96281250002 -9347.5996184593023 651784.85093750013 -5524.9513020833338 -10215.381617266148 153078.67432065218 165547.12406250002 7471.6756911057691 -10082.94925557121 49658.224375000005 -9104.2882560483868 221053.42257401315 -4482.5119455645163 -10231.017710291353 9572.0103824013167 7893.3780539772724 -9727.0229873412445 -1675.0959490740743 -4723.955672554348 -7655.9899147727283 -10521.437955729169 -5294.631998697917 -7538.180876358696 -10457.17578125 -7208.6339946025128 -6163.9642734375002 -10484.701215277779 -10478.634802246095 -9942.4609375 -7951.9025356359653
leaf_weight=379 20 86 20 39 2010 23 30 26 61 30 31 38 31 133 38 33 187 27 46 33 24 24 23 117 37 25 27 64 111 114
leaf_count=379 20 86 20 39 2010 23 30 26 61 30 31 38 31 133 38 33 187 27 46 33 24 24 23 117 37 25 27 64 111 114
internal_value=0.000113614 76218.9 201425 48761.1 -4199.9 9026.43 5909.59 92155 1113.42 9440.01 45737.8 79788.4 119726 -4641.77 -3549.65 -9728.69 -7083.96 -8872.94 -9973.37 -8609.62 -6883.51 -10138.6 -8748.49 -9840.91 -8512.03 -10014.5 -8407.42 -9701.27 -9415.8 -8933.91
internal_weight=3887 203 79 59 3684 1086 1063 56 1007 576 161 100 69 415 124 2598 220 385 2378 257 107 2121 111 150 61 431 52 87 358 225
internal_count=3887 203 79 59 3684 1086 1063 56 1007 576 161 100 69 415 124 2598 220 385 2378 257 107 2121 111 150 61 431 52 87 358 225
is_linear=0
shrinkage=0.05


Tree=2
num_leaves=31
num_cat=0
split_feature=4 1 1 4 1 2 1 3 4 4 1 2 3 1 4 4 4 4 3 1 4 4 2 1 2 1 1 3 2 1
split_gain=4.49184e+14 7.31917e+14 1.96079e+15 1.22397e+14 9.72515e+13 1.76024e+14 1.58734e+14 1.25644e+14 3.36834e+13 1.06284e+14 1.10472e+14 1.2816e+14 3.13498e+14 3.44204e+13 3.40559e+12 6.06904e+11 3.14392e+12 5.43068e+11 1.93454e+11 2.05663e+11 1.34659e+11 1.28683e+11 8.17116e+10 1.31865e+11 5.60617e+10 5.59679e+10 2.50326e+11 4.68514e+11 1.30093e+11 1.34476e+11
threshold=995.00000000000011 0.0047594545922305135 0.0043735528685361477 2436.0000000000005 0.017108309750450221 9.5000000000000018 0.015693336763570879 2.5000000000000004 78.500000000000014 100.50000000000001 0.0043735528685361477 2.5000000000000004 2.5000000000000004 0.00064316953949060992 5350.0000000000009 210.50000000000003 241.00000000000003 599.00000000000011 4.5000000000000009 0.023411371237458196 90.500000000000014 34.500000000000007 4.5000000000000009 0.027013120658605613 3.5000000000000004 0.01247748906611783 0.010676614355544125 2.5000000000000004 3.5000000000000004 0.003473115513249293
decision_type=2 2 2 2 2 2 2 2 2 2 2 2 2 2 2 2 2 2 2 2 2 2 2 2 2 2 2 2 2 2
left_child=4 2 3 -2 5 6 8 -8 -1 10 -10 -12 -13 -11 24 18 -17 25 22 20 -20 -21 -6 -24 -3 26 28 -28 -15 -30
right_child=1 14 -4 -5 15 -7 7 -9 9 13 11 12 -14 17 -16 16 -18 -19 19 21 -22 -23 23 -25 -26 -27 27 -29 29 -31
leaf_value=-9513.7350023167874 146888.00718749998 -9697.477394979509 619195.63187499996 -5248.7039112580132 -9704.6128384323511 145424.73423913046 157269.78343750001 7098.0916766826922 -9578.8016041239753 47175.310442708338 -8649.0735005040315 210000.73519736843 -4258.3862399193549 -9978.1897705078136 9093.4080592105274 7498.7098721590919 -9240.6721956467245 -1591.341550925926 -2172.3231584821428 -5200.8581676136364 -7710.1704823369573 -9239.0991319586465 -5029.9006835937507 -9216.2100597162353 -6886.1115937499999 -9949.1787265625007 278.51532738095239 -10051.096569293479 -10036.722554347827 -4990.7539188508072
leaf_weight=431 20 61 20 39 2010 23 30 26 61 30 31 38 31 160 38 33 187 27 21 22 23 191 24 87 25 100 21 23 23 31
leaf_count=431 20 61 20 39 2010 23 30 26 61 30 31 38 31 160 38 33 187 27 21 22 23 191 24 87 25 100 21 23 23 31
internal_value=-8.41302e-05 72408 191354 46323.1 -3989.91 8575.1 5614.11 87547.2 1057.75 8968 43450.9 75799 113739 -4409.69 -3372.17 -9242.26 -6729.76 -8429.3 -9474.7 -8179.14 -5067.11 -8822 -9631.68 -8311.06 -8880.22 -8945.01 -8555.79 -5121.05 -9262 -7139.96
internal_weight=3887 203 79 59 3684 1086 1063 56 1007 576 161 100 69 415 124 2598 220 385 2378 257 44 213 2121 111 86 358 258 44 214 54
internal_count=3887 203 79 59 3684 1086 1063 56 1007 576 161 100 69 415 124 2598 220 385 2378 257 44 213 2121 111 86 358 258 44 214 54
is_linear=0
shrinkage=0.05


Tree=3
num_leaves=31
num_cat=0
split_feature=4 1 1 4 1 2 1 3 4 4 1 2 3 1 4 4 4 4 3 4 2 1 2 1 4 2 2 1 2 4
split_gain=4.05388e+14 6.60555e+14 1.76961e+15 1.10463e+14 8.77694e+13 1.58862e+14 1.43258e+14 1.13394e+14 3.03993e+13 9.59211e+13 9.97013e+13 1.15664e+14 2.82932e+14 3.10644e+13 3.07354e+12 5.4773e+11 2.83739e+12 4.90118e+11 1.74593e+11 1.87363e+11 1.32379e+11 7.75957e+10 1.32466e+11 6.71762e+10 6.29482e+10 6.23683e+10 5.51314e+10 8.74829e+10 5.05956e+10 5.05611e+10
threshold=995.00000000000011 0.0047594545922305135 0.0043735528685361477 2436.0000000000005 0.017108309750450221 9.5000000000000018 0.015693336763570879 2.5000000000000004 78.500000000000014 100.50000000000001 0.0043735528685361477 2.5000000000000004 2.5000000000000004 0.00064316953949060992 5350.0000000000009 210.50000000000003 241.00000000000003 599.00000000000011 4.5000000000000009 78.500000000000014 5.5000000000000009 0.029714432724466174 4.5000000000000009 0.027013120658605613 39.500000000000007 2.5000000000000004 3.5000000000000004 0.0091330074607666612 3.5000000000000004 560.00000000000011
decision_type=2 2 2 2 2 2 2 2 2 2 2 2 2 2 2 2 2 2 2 2 2 2 2 2 2 2 2 2 2 2
left_child=4 2 3 -2 5 6 8 -8 26 10 -10 -12 -13 -11 28 18 -17 -15 21 20 -20 22 25 -21 -22 -6 -1 -28 -3 -18
right_child=1 14 -4 -5 15 -7 7 -9 9 13 11 12 -14 17 -16 16 29 -19 19 23 24 -23 -24 -25 -26 -27 27 -29 -30 -31
leaf_value=-9247.5139439726245 139543.60718749999 -9212.6031762295079 588235.83750000002 -4986.2686899038463 -9403.9604194078947 138153.50027173915 149406.28187500002 6743.1870192307688 -9099.8617539702882 44816.543691406252 -8216.6202494959689 199500.70263157896 -4045.4668850806456 -8497.7568981319837 8638.7387746710519 7123.7741950757572 -9145.1403049566816 -1511.7743055555557 -4146.5086107336965 -6918.0526870265157 -9693.2580078125011 -9346.9051040137383 -5862.853485576924 -9472.3617187500004 -6405.346686285895 -8376.8402737396937 -5380.079215820313 -9484.7793402777788 -6541.8061250000001 -6934.3073462701614
leaf_weight=379 20 61 20 39 285 23 30 26 61 30 31 38 31 358 38 33 156 27 46 33 24 1490 39 117 37 307 25 27 25 31
leaf_count=379 20 61 20 39 285 23 30 26 61 30 31 38 31 358 38 33 156 27 46 33 24 1490 39 117 37 307 25 27 25 31
internal_value=0.000130964 68787.6 181786 44006.9 -3790.41 8146.35 5333.4 83169.8 1004.86 8519.6 41278.3 72009 108052 -4189.2 -3203.56 -8780.15 -6393.28 -8007.83 -9000.97 -7770.18 -6171.73 -9150.1 -8685.37 -8910.41 -7698.95 -8871.32 -9038.05 -7511.37 -8436.21 -8778.64
internal_weight=3887 203 79 59 3684 1086 1063 56 1007 576 161 100 69 415 124 2598 220 385 2378 257 107 2121 631 150 61 592 431 52 86 187
internal_count=3887 203 79 59 3684 1086 1063 56 1007 576 161 100 69 415 124 2598 220 385 2378 257 107 2121 631 150 61 592 431 52 86 187
is_linear=0
shrinkage=0.05


Tree=4
num_leaves=31
num_cat=0
split_feature=4 1 1 4 1 2 1 3 4 4 1 2 3 1 4 4 4 4 3 1 4 4 1 2 2 1 1 3 2 1
split_gain=3.65863e+14 5.96151e+14 1.59708e+15 9.96931e+13 7.92119e+13 1.43373e+14 1.2929e+14 1.02338e+14 2.74353e+13 8.65688e+13 8.99804e+13 1.04387e+14 2.55346e+14 2.80356e+13 2.77387e+12 4.94327e+11 2.56074e+12 4.42332e+11 1.5757e+11 1.74742e+11 1.18865e+11 1.17188e+11 7.00302e+10 1.19551e+11 5.62874e+10 5.0511e+10 2.25919e+11 4.22834e+11 1.17409e+11 1.21365e+11
threshold=995.00000000000011 0.0047594545922305135 0.0043735528685361477 2436.0000000000005 0.017108309750450221 9.5000000000000018 0.015693336763570879 2.5000000000000004 78.500000000000014 100.50000000000001 0.0043735528685361477 2.5000000000000004 2.5000000000000004 0.00064316953949060992 5350.0000000000009 210.50000000000003 241.00000000000003 599.00000000000011 4.5000000000000009 0.023411371237458196 34.500000000000007 90.500000000000014 0.029714432724466174 4.5000000000000009 2.5000000000000004 0.01247748906611783 0.010676614355544125 2.5000000000000004 3.5000000000000004 0.003473115513249293
decision_type=2 2 2 2 2 2 2 2 2 2 2 2 2 2 2 2 2 2 2 2 2 2 2 2 2 2 2 2 2 2
left_child=4 2 3 -2 5 6 8 -8 -1 10 -10 -12 -13 -11 -3 18 -17 25 22 21 -21 -20 23 24 -6 26 28 -28 -15 -30
right_child=1 14 -4 -5 15 -7 7 -9 9 13 11 12 -14 17 -16 16 -18 -19 19 20 -22 -23 -24 -25 -26 -27 27 -29 29 -31
leaf_value=-8586.1458395265381 132566.423125 -8014.3979832848845 558824.04312500008 -4736.9554286858975 -8933.7627001096498 131245.81447010869 141935.980625 6406.0280048076929 -8644.8687403944677 42575.716560872395 -7805.7890372983866 189525.67006578948 -3843.1932963709678 -9054.3925610351562 8206.8012746710519 6767.5848484848484 -8339.7066139914787 -1436.1854166666667 -1812.6305245535714 -4493.9708451704546 -8375.1129034072328 -6978.7594577955169 -8879.56047753251 -5569.710897435898 -7957.9988231795624 -9026.8318515624997 689.47752976190486 -9123.6536005434791 -9109.9983355978256 -4316.3282384072581
leaf_weight=431 20 86 20 39 285 23 30 26 61 30 31 38 31 160 38 33 187 27 21 22 191 23 1490 39 307 100 21 23 23 31
leaf_count=431 20 86 20 39 285 23 30 26 61 30 31 38 31 160 38 33 187 27 21 22 191 23 1490 39 307 100 21 23 23 31
internal_value=-0.000163216 65348.2 172697 41806.6 -3600.89 7739.03 5066.73 79011.4 954.616 8093.62 39214.4 68408.6 102650 -3979.74 -3043.39 -8341.14 -6073.61 -7607.44 -8550.92 -7381.68 -7974.24 -4513.11 -8692.59 -8251.1 -8427.75 -8072.87 -7703.12 -4440.11 -8374.01 -6358.08
internal_weight=3887 203 79 59 3684 1086 1063 56 1007 576 161 100 69 415 124 2598 220 385 2378 257 213 44 2121 631 592 358 258 44 214 54
internal_count=3887 203 79 59 3684 1086 1063 56 1007 576 161 100 69 415 124 2598 220 385 2378 257 213 44 2121 631 592 358 258 44 214 54
is_linear=0
shrinkage=0.05


Tree=5
num_leaves=31
num_cat=0
split_feature=4 1 1 4 1 2 1 3 4 4 1 2 3 1 4 4 4 4 4 2 1 3 2 1 4 4 1 1 4 2
split_gain=3.30191e+14 5.38026e+14 1.44136e+15 8.9973e+13 7.14888e+13 1.29394e+14 1.16684e+14 9.23601e+13 2.47604e+13 7.81283e+13 8.12073e+13 9.42092e+13 2.3045e+14 2.53021e+13 2.50342e+12 4.4613e+11 2.31107e+12 3.99205e+11 1.48552e+11 1.48317e+11 1.13406e+11 2.09019e+11 4.97561e+10 7.89533e+10 4.97119e+10 6.94683e+10 6.31899e+10 9.59017e+10 1.91648e+11 4.56626e+10
threshold=995.00000000000011 0.0047594545922305135 0.0043735528685361477 2436.0000000000005 0.017108309750450221 9.5000000000000018 0.015693336763570879 2.5000000000000004 78.500000000000014 100.50000000000001 0.0043735528685361477 2.5000000000000004 2.5000000000000004 0.00064316953949060992 5350.0000000000009 210.50000000000003 241.00000000000003 599.00000000000011 1.5000000000000002 11.500000000000002 0.021353228711088249 3.5000000000000004 3.5000000000000004 0.0091330074607666612 144.50000000000003 179.50000000000003 0.0084898379212760503 0.012091587342423464 232.00000000000003 3.5000000000000004
decision_type=2 2 2 2 2 2 2 2 2 2 2 2 2 2 2 2 2 2 2 2 2 2 2 2 2 2 2 2 2 2
left_child=4 2 3 -2 5 6 8 -8 22 10 -10 -12 -13 -11 29 18 -17 24 -6 20 21 -20 -1 -24 -15 -26 -27 28 -28 -3
right_child=1 14 -4 -5 15 -7 7 -9 9 13 11 12 -14 17 -16 16 -18 -19 19 -21 -22 -23 23 -25 25 26 27 -29 -30 -31
leaf_value=-8355.8311139511879 125938.10531250002 -8351.2531762295093 530882.84312500001 -4500.1076772836541 -4890.0015848214289 124683.53172554349 134839.18062500001 6085.7263822115383 -8212.6250384221312 40446.931565755214 -7415.4992817540324 180049.37319078948 -3651.03402217742 -8435.5698748825198 7796.4618626644733 6429.2067471590917 -7922.7208122702204 -1364.3758101851854 -8094.9022632116557 -3884.3238134765629 -8291.8956898405504 -3649.9588404605261 -4681.7681411132817 -8581.2324942129635 -5593.4433976715691 -8633.823797052557 -8916.7701953124997 -8560.9714342948719 -2459.1320023148151 -5813.9959687500004
leaf_weight=379 20 61 20 39 35 23 30 26 61 30 31 38 31 133 38 33 187 27 87 20 2198 38 25 27 51 88 20 39 27 25
leaf_count=379 20 61 20 39 35 23 30 26 61 30 31 38 31 133 38 33 187 27 87 20 2198 38 25 27 51 88 20 39 27 25
internal_value=-0.000142713 62080.8 164062 39716.2 -3420.85 7352.08 4813.39 75060.8 906.885 7688.94 37253.7 64988.1 97517.3 -3780.75 -2891.22 -7924.08 -5769.93 -7227.07 -8123.37 -8171.67 -8208.58 -6743.64 -8156.84 -6706.49 -7669.23 -7216.23 -7691.88 -6728.02 -5207.06 -7613.68
internal_weight=3887 203 79 59 3684 1086 1063 56 1007 576 161 100 69 415 124 2598 220 385 2378 2343 2323 125 431 52 358 225 174 86 47 86
internal_count=3887 203 79 59 3684 1086 1063 56 1007 576 161 100 69 415 124 2598 220 385 2378 2343 2323 125 431 52 358 225 174 86 47 86
is_linear=0
shrinkage=0.05


Tree=6
num_leaves=31
num_cat=0
split_feature=4 1 1 4 1 2 1 3 4 4 1 1 1 1 1 4 4 4 4 3 4 2 4 2 3 1 4 4 2 1
split_gain=2.97998e+14 4.85569e+14 1.30083e+15 8.12006e+13 6.45186e+13 1.16778e+14 1.05308e+14 8.3355e+13 2.23463e+13 7.05108e+13 8.00873e+13 3.28881e+13 4.88683e+13 3.30985e+13 2.28352e+13 2.25934e+12 4.02632e+11 2.08574e+12 3.60282e+11 1.37723e+11 1.60218e+11 1.14503e+11 6.21067e+10 6.10968e+10 1.22644e+11 5.44131e+10 5.27105e+10 4.56314e+10 4.49049e+10 7.12554e+10
threshold=995.00000000000011 0.0047594545922305135 0.0043735528685361477 2436.0000000000005 0.017108309750450221 9.5000000000000018 0.015693336763570879 2.5000000000000004 78.500000000000014 100.50000000000001 0.012091587342423464 0.0043735528685361477 0.0059171597633136111 0.0084898379212760503 0.00064316953949060992 5350.0000000000009 210.50000000000003 241.00000000000003 599.00000000000011 4.5000000000000009 78.500000000000014 5.5000000000000009 39.500000000000007 4.5000000000000009 2.5000000000000004 0.027013120658605613 59.500000000000007 560.00000000000011 3.5000000000000004 0.0091330074607666612
decision_type=2 2 2 2 2 2 2 2 2 2 2 2 2 2 2 2 2 2 2 2 2 2 2 2 2 2 2 2 2 2
left_child=4 2 3 -2 5 6 8 -8 28 10 11 -10 -13 -14 -11 -3 19 -18 -16 23 21 -21 -23 -6 -25 -22 -26 -19 -1 -30
right_child=1 15 -4 -5 16 -7 7 -9 9 14 -12 12 13 -15 18 -17 17 27 -20 20 25 22 -24 24 26 -27 -28 -29 29 -31
leaf_value=-7938.0396731736473 119641.20000000001 -7232.9945403343027 504338.72375 -4275.1020582932697 -7912.7192112845805 118449.35433084238 128097.22 5781.4407752403849 -7801.9937884221308 38424.582955729165 112248.41476004464 100350.9806966146 -32167.981605113637 51161.144501201925 -7285.7643625611036 7406.6387746710525 6107.7454308712122 -7874.7614170172283 -1296.1570601851854 -3262.4150390625 -5885.3436727812805 -8547.2380533854175 -5281.3775153082779 -3364.8714055841624 -5783.7802262931036 -8184.2294871794875 -8379.9858984375005 -5774.4706054687504 -4447.6793583984381 -8152.1715277777785
leaf_weight=379 20 86 20 39 2010 23 30 26 61 30 28 24 22 26 358 38 33 156 27 46 33 24 37 22 29 117 60 31 25 27
leaf_count=379 20 86 20 39 2010 23 30 26 61 30 28 24 22 26 358 38 33 156 27 46 33 24 37 22 29 117 60 31 25 27
internal_value=0.000203748 58976.8 155859 37730.4 -3249.81 6984.48 4572.72 71307.8 861.541 7304.5 35391 19210.5 42096.1 12968.6 -3591.72 -2746.66 -7527.88 -5481.44 -6865.71 -7717.2 -6624.07 -5145.94 -6566.31 -7849.66 -6707.71 -7678.47 -7534.03 -7526.58 -7749 -6371.17
internal_weight=3887 203 79 59 3684 1086 1063 56 1007 576 161 133 72 48 415 124 2598 220 385 2378 257 107 61 2121 111 150 89 187 431 52
internal_count=3887 203 79 59 3684 1086 1063 56 1007 576 161 133 72 48 415 124 2598 220 385 2378 257 107 61 2121 111 150 89 187 431 52
is_linear=0
shrinkage=0.05


Tree=7
num_leaves=31
num_cat=0
split_feature=4 1 1 4 1 2 1 3 4 4 1 1 1 1 1 4 4 4 4 4 2 1 3 4 4 1 1 4 1 1
split_gain=2.68943e+14 4.38226e+14 1.174e+15 7.32836e+13 5.82281e+13 1.05392e+14 9.50401e+13 7.52279e+13 2.01675e+13 6.3636e+13 7.22788e+13 3.33003e+13 1.48727e+14 5.69806e+13 2.06087e+13 2.03905e+12 3.63376e+11 1.88238e+12 3.25155e+11 1.34342e+11 1.31065e+11 9.99601e+10 1.82195e+11 4.48649e+10 6.26952e+10 5.70289e+10 8.65513e+10 1.72962e+11 4.36066e+10 4.12572e+10
threshold=995.00000000000011 0.0047594545922305135 0.0043735528685361477 2436.0000000000005 0.017108309750450221 9.5000000000000018 0.015693336763570879 2.5000000000000004 78.500000000000014 100.50000000000001 0.012091587342423464 0.0050167224080267568 0.003473115513249293 0.0084898379212760503 0.00064316953949060992 5350.0000000000009 210.50000000000003 241.00000000000003 599.00000000000011 1.5000000000000002 11.500000000000002 0.021353228711088249 3.5000000000000004 144.50000000000003 179.50000000000003 0.0084898379212760503 0.012091587342423464 232.00000000000003 0.010676614355544125 0.017108309750450221
decision_type=2 2 2 2 2 2 2 2 2 2 2 2 2 2 2 2 2 2 2 2 2 2 2 2 2 2 2 2 2 2
left_child=4 2 3 -2 5 6 8 -8 -1 10 11 12 -10 -13 -11 29 19 -18 23 -6 21 22 -21 -16 28 -26 27 -27 -25 -3
right_child=1 15 -4 -5 16 -7 7 -9 9 14 -12 13 -14 -15 18 -17 17 -19 -20 20 -22 -23 -24 24 25 26 -28 -29 -30 -31
leaf_value=-7361.5467830082671 113659.13656250002 -7693.531122159091 479121.75125000003 -4061.3467923677886 -4256.5087946428566 112526.89177139947 121692.36375 5492.3689603365383 -7355.8252115885425 36503.354270833333 106635.99536830357 -47983.328082770277 149637.66613991477 48603.089678485579 -7649.5031044407897 7036.3056743421057 5802.359138257576 -7150.25599489263 -1231.3493055555555 -7298.1916038074723 -3346.9819628906248 -7490.1908137466398 -3148.2531352796054 -6123.826965725807 -7837.8447531960228 -8106.6436328125001 -7768.6340244391031 -1971.8872974537037 -3129.2498437499999 -5412.6264112903227
leaf_weight=431 20 55 20 39 35 23 30 26 48 30 28 37 22 26 133 38 33 187 27 87 20 2198 38 31 88 20 39 27 20 31
leaf_count=431 20 55 20 39 35 23 30 26 48 30 28 37 22 26 133 38 33 187 27 87 20 2198 38 31 88 20 39 27 20 31
internal_value=6.93237e-05 56027.9 148066 35843.9 -3087.32 6635.25 4344.09 67742.4 818.464 6939.27 33621.5 18250 41985 -8122.27 -3412.13 -2609.32 -7151.48 -5207.36 -6522.43 -7331.34 -7377.28 -7411.97 -6036.61 -6921.48 -6491.13 -6942.99 -6027.33 -4582.42 -4949.48 -6871.34
internal_weight=3887 203 79 59 3684 1086 1063 56 1007 576 161 133 70 63 415 124 2598 220 385 2378 2343 2323 125 358 225 174 86 47 51 86
internal_count=3887 203 79 59 3684 1086 1063 56 1007 576 161 133 70 63 415 124 2598 220 385 2378 2343 2323 125 358 225 174 86 47 51 86
is_linear=0
shrinkage=0.05


Tree=8
num_leaves=31
num_cat=0
split_feature=4 1 1 4 1 2 1 4 2 1 4 4 3 1 4 1 4 1 4 4 2 4 4 4 2 1 3 1 1 2
split_gain=2.42721e+14 3.95499e+14 1.05953e+15 6.61384e+13 5.25508e+13 9.51163e+13 8.57736e+13 7.23698e+13 1.84355e+13 3.20672e+13 2.50187e+13 1.13381e+14 1.82632e+14 5.78863e+13 1.84024e+12 6.53824e+11 5.35869e+11 4.30903e+11 3.27947e+11 1.69885e+12 2.72577e+11 1.48364e+11 2.30799e+11 1.21243e+11 1.18286e+11 9.0214e+10 1.64431e+11 6.93151e+10 2.02867e+11 9.69473e+10
threshold=995.00000000000011 0.0047594545922305135 0.0043735528685361477 2436.0000000000005 0.017108309750450221 9.5000000000000018 0.015693336763570879 50.500000000000007 2.5000000000000004 0.0003859017236943659 100.50000000000001 78.500000000000014 2.5000000000000004 0.006303061487007976 5350.0000000000009 0.00064316953949060992 599.00000000000011 0.0014149729868793415 210.50000000000003 241.00000000000003 4.5000000000000009 78.500000000000014 99.500000000000014 1.5000000000000002 11.500000000000002 0.021353228711088249 3.5000000000000004 0.01247748906611783 0.010676614355544125 3.5000000000000004
decision_type=2 2 2 2 2 2 2 2 2 2 2 2 2 2 2 2 2 2 2 2 2 2 2 2 2 2 2 2 2 2
left_child=4 2 3 -2 5 6 8 -8 15 -10 11 -11 13 -13 -3 -1 17 -12 23 -20 -14 -17 -23 -6 25 26 -25 28 29 -19
right_child=1 14 -4 -5 18 -7 7 -9 9 10 16 12 20 -15 -16 21 -18 27 19 -21 -22 22 -24 24 -26 -27 -28 -29 -30 -31
leaf_value=-16817.956708559785 107976.18859375 -6527.7773346656977 455165.65750000003 -3858.2796699719556 -4043.6833482142861 106900.54293478263 135016.72045454546 18633.101654411767 63628.671875 -6759.4915114868727 -13902.422539062502 79401.153488685348 -12608.129520089286 188403.11279761908 6684.4912828947381 -7253.079700259108 1449.6665178571429 -7494.7892773437507 5512.2394412878784 -6792.7428572547624 -5262.0338315217396 -13039.564299242425 -8120.8232376453489 -6933.2822243175287 -3179.6331054687503 -7115.681394862695 -2990.8406250000003 -7443.1744076236273 -2496.6773231907896 -4849.6676444575478
leaf_weight=23 20 86 20 39 35 23 22 34 23 219 20 29 28 21 38 199 21 100 33 187 23 33 86 87 20 2198 38 91 38 53
leaf_count=23 20 86 20 39 35 23 22 34 23 219 20 29 28 21 38 199 21 100 33 187 23 33 86 87 20 2198 38 91 38 53
internal_value=-0.000155014 53226.5 140663 34051.7 -2932.95 6303.49 4126.88 64355.2 777.541 5618.4 3543.38 13452.2 57277.7 125182 -2478.86 -8677.04 -6273.43 -6810.47 -6793.91 -4947 -9295.18 -8088.24 -9484.84 -6964.78 -7008.41 -7041.38 -5734.78 -6307.5 -5766.41 -6578.51
internal_weight=3887 203 79 59 3684 1086 1063 56 1007 666 643 320 101 50 124 341 323 302 2598 220 51 318 119 2378 2343 2323 125 282 191 153
internal_count=3887 203 79 59 3684 1086 1063 56 1007 666 643 320 101 50 124 341 323 302 2598 220 51 318 119 2378 2343 2323 125 282 191 153
is_linear=0
shrinkage=0.05


Tree=9
num_leaves=31
num_cat=0
split_feature=4 1 1 4 1 2 1 3 2 1 4 4 3 1 4 1 4 1 4 4 4 4 4 3 2 4 4 1 1 2
split_gain=2.19056e+14 3.56938e+14 9.56228e+14 5.96899e+13 4.74271e+13 8.58425e+13 7.74107e+13 6.676e+13 1.6638e+13 2.89406e+13 2.25794e+13 1.02326e+14 1.64825e+14 5.22424e+13 1.66082e+12 5.90076e+11 4.83621e+11 3.8889e+11 2.95972e+11 1.53321e+12 2.4919e+11 1.33899e+11 2.08296e+11 1.167e+11 1.48155e+11 9.00878e+10 1.77621e+11 6.25568e+10 1.83087e+11 8.74949e+10
threshold=995.00000000000011 0.0047594545922305135 0.0043735528685361477 2436.0000000000005 0.017108309750450221 9.5000000000000018 0.015693336763570879 2.5000000000000004 2.5000000000000004 0.0003859017236943659 100.50000000000001 78.500000000000014 2.5000000000000004 0.006303061487007976 5350.0000000000009 0.00064316953949060992 599.00000000000011 0.0014149729868793415 210.50000000000003 241.00000000000003 84.500000000000014 78.500000000000014 99.500000000000014 4.5000000000000009 4.5000000000000009 78.500000000000014 56.500000000000007 0.01247748906611783 0.010676614355544125 3.5000000000000004
decision_type=2 2 2 2 2 2 2 2 2 2 2 2 2 2 2 2 2 2 2 2 2 2 2 2 2 2 2 2 2 2
left_child=4 2 3 -2 5 6 8 -8 15 -10 11 -11 13 -13 -3 -1 17 -12 23 -20 -14 -17 -23 -6 -25 26 -26 28 29 -19
right_child=1 14 -4 -5 18 -7 7 -9 9 10 16 12 20 -15 -16 21 -18 27 19 -21 -22 22 -24 24 25 -27 -28 -29 -30 -31
leaf_value=-15977.057897418479 102577.37875 -6201.3883312136632 432407.42375000002 -3665.3653295272438 -6738.4633303313594 101555.51949728261 111960.45708333334 2495.5782752403848 60447.240726902179 -6421.5170590753432 -13207.301328125001 75431.097440732759 -13007.776320684525 178982.95267857146 6350.2664884868427 -6890.4257859119816 1377.1831845238096 -7120.0497460937513 5236.628787878788 -6453.1061164407174 -5906.279414062501 -12387.586162405303 -7714.7821561591572 -2854.8150128620427 -6805.9955390625 -6963.8483112980775 -2199.9270290798609 -7071.0153932005505 -2371.843708881579 -4607.1844118514155
leaf_weight=23 20 86 20 39 2121 23 30 26 23 219 20 29 21 21 38 199 21 100 33 187 30 33 86 41 50 130 36 91 38 53
leaf_count=23 20 86 20 39 2121 23 30 26 23 219 20 29 21 21 38 199 21 100 33 187 30 33 86 41 50 130 36 91 38 53
internal_value=-1.2631e-05 50565.2 133630 32349.1 -2786.3 5988.31 3920.54 61137.5 738.664 5337.48 3366.22 12779.6 54413.8 118923 -2354.91 -8243.19 -5959.76 -6469.95 -6454.21 -4699.65 -8830.43 -7683.82 -9010.6 -6616.54 -5610.29 -6133.32 -4877.87 -5992.12 -5478.09 -6249.58
internal_weight=3887 203 79 59 3684 1086 1063 56 1007 666 643 320 101 50 124 341 323 302 2598 220 51 318 119 2378 257 216 86 282 191 153
internal_count=3887 203 79 59 3684 1086 1063 56 1007 666 643 320 101 50 124 341 323 302 2598 220 51 318 119 2378 257 216 86 282 191 153
is_linear=0
shrinkage=0.05


Tree=10
num_leaves=31
num_cat=0
split_feature=4 1 1 4 1 2 1 4 2 1 4 4 3 1 4 1 4 1 4 4 2 4 4 4 2 1 3 1 1 2
split_gain=1.97698e+14 3.22136e+14 8.62996e+14 5.38702e+13 4.2803e+13 7.74728e+13 6.98632e+13 6.42462e+13 1.50158e+13 2.61189e+13 2.03779e+13 9.23494e+13 1.48755e+14 4.71488e+13 1.49889e+12 5.32544e+11 4.36468e+11 3.50973e+11 2.67115e+11 1.38372e+12 2.45069e+11 1.20844e+11 1.87987e+11 1.09465e+11 1.06905e+11 8.05299e+10 1.45051e+11 5.64575e+10 1.65236e+11 7.89642e+10
threshold=995.00000000000011 0.0047594545922305135 0.0043735528685361477 2436.0000000000005 0.017108309750450221 9.5000000000000018 0.015693336763570879 50.500000000000007 2.5000000000000004 0.0003859017236943659 100.50000000000001 78.500000000000014 2.5000000000000004 0.006303061487007976 5350.0000000000009 0.00064316953949060992 599.00000000000011 0.0014149729868793415 210.50000000000003 241.00000000000003 4.5000000000000009 78.500000000000014 99.500000000000014 1.5000000000000002 11.500000000000002 0.021353228711088249 3.5000000000000004 0.01247748906611783 0.010676614355544125 3.5000000000000004
decision_type=2 2 2 2 2 2 2 2 2 2 2 2 2 2 2 2 2 2 2 2 2 2 2 2 2 2 2 2 2 2
left_child=4 2 3 -2 5 6 8 -8 15 -10 11 -11 13 -13 -3 -1 17 -12 23 -20 -14 -17 -23 -6 25 26 -25 28 29 -19
right_child=1 14 -4 -5 18 -7 7 -9 9 10 16 12 20 -15 -16 21 -18 27 19 -21 -22 22 -24 24 -26 -27 -28 -29 -30 -31
leaf_value=-15178.20495923913 97448.505312499998 -5891.3190497819778 410787.03500000003 -3482.0974934895839 -3510.1240848214288 96477.742119565228 124658.13821022728 15001.024080882353 57424.876732336954 -6100.4412376926375 -12546.93603515625 71659.542052801728 -11530.234095982145 170033.79702380951 6032.7527549342112 -6545.9046676252365 1308.3241071428572 -6764.0473398437507 4974.7969696969703 -6130.4506433823535 -4564.6760020380434 -11768.206972064394 -7329.0428211300868 -6249.6947293687144 -2687.2430957031252 -6428.7149333978159 -2546.8626027960527 -6717.4645904876379 -2253.2514391447371 -4376.8250515919817
leaf_weight=23 20 86 20 39 35 23 22 34 23 219 20 29 28 21 38 199 21 100 33 187 23 33 86 87 20 2198 38 91 38 53
leaf_count=23 20 86 20 39 35 23 22 34 23 219 20 29 28 21 38 199 21 100 33 187 23 33 86 87 20 2198 38 91 38 53
internal_value=-7.6345e-05 48036.9 126948 30731.7 -2646.99 5688.9 3724.51 58080.6 701.73 5070.61 3197.9 12140.6 51693.1 112977 -2237.17 -7831.03 -5661.77 -6146.45 -6131.5 -4464.66 -8388.9 -7299.63 -8560.07 -6285.71 -6327.17 -6358.51 -5124.03 -5692.52 -5204.19 -5937.1
internal_weight=3887 203 79 59 3684 1086 1063 56 1007 666 643 320 101 50 124 341 323 302 2598 220 51 318 119 2378 2343 2323 125 282 191 153
internal_count=3887 203 79 59 3684 1086 1063 56 1007 666 643 320 101 50 124 341 323 302 2598 220 51 318 119 2378 2343 2323 125 282 191 153
is_linear=0
shrinkage=0.05


Tree=11
num_leaves=31
num_cat=0
split_feature=4 1 1 1 1 2 1 3 4 4 2 1 4 1 1 4 1 4 4 4 3 2 1 1 2 4 2 2 1 4
split_gain=1.78422e+14 2.90728e+14 7.78854e+14 5.3119e+13 3.86297e+13 6.99192e+13 6.30515e+13 5.92451e+13 1.36381e+13 4.17809e+13 6.23666e+13 2.51222e+13 1.82972e+13 4.8531e+13 6.63587e+13 1.35275e+12 9.44523e+11 2.41071e+11 1.24881e+12 2.04448e+11 1.02074e+11 1.33177e+11 8.49926e+10 5.42554e+10 9.24154e+10 4.54638e+10 4.47542e+10 4.24506e+10 6.4308e+10 4.2108e+10
threshold=995.00000000000011 0.0047594545922305135 0.0043735528685361477 0.00090043735528685378 0.017108309750450221 9.5000000000000018 0.015693336763570879 2.5000000000000004 78.500000000000014 80.500000000000014 2.5000000000000004 0.0003859017236943659 100.50000000000001 0.0084898379212760503 0.0047594545922305135 5350.0000000000009 0.00090043735528685378 210.50000000000003 241.00000000000003 599.00000000000011 4.5000000000000009 4.5000000000000009 0.023411371237458196 0.029714432724466174 4.5000000000000009 71.500000000000014 2.5000000000000004 3.5000000000000004 0.0091330074607666612 144.50000000000003
decision_type=2 2 2 2 2 2 2 2 2 2 2 2 2 2 2 2 2 2 2 2 2 2 2 2 2 2 2 2 2 2
left_child=4 2 3 -2 5 6 8 -8 27 10 -10 -11 13 14 -13 -3 -14 20 -19 29 23 25 -23 24 26 -22 -6 -1 -29 -18
right_child=1 15 -4 -5 17 -7 7 -9 9 11 -12 12 16 -15 -16 -17 19 18 -20 -21 21 22 -24 -25 -26 -27 -28 28 -30 -31
leaf_value=-6243.9110715599363 79114.665049525676 -5596.7531704215116 390247.65750000003 -15893.569720262098 -6303.370970052084 91653.862245244571 103053.72708333335 -66.285456730769226 -11178.772031250001 52414.110071331525 95750.500169270847 35439.09487179487 -15703.429670516307 66620.188235294117 -65450.19046456473 5731.1152549342114 -6306.225514777132 4726.0576704545456 -5823.9279866101278 -1073.2094328703704 -711.76308593750002 -2784.7834687499999 -5885.0615275278142 -6250.0212833604237 -3339.3342247596156 -4042.7288690476194 -5433.2972577955516 -2893.1456757812502 -6412.4129484953701 -5166.5172573824548
leaf_weight=379 28 86 20 31 285 23 30 26 25 23 30 39 23 34 28 38 129 33 187 27 20 25 191 1490 39 21 307 25 27 218
leaf_count=379 28 86 20 31 285 23 30 26 25 23 30 39 23 34 28 38 129 33 187 27 20 25 191 1490 39 21 307 25 27 218
internal_value=5.03313e-05 45635.1 120601 29195.1 -2514.64 5404.45 3538.29 55176.6 666.644 5700.03 47146.3 1324.7 -1034.85 17966.4 -6723.59 -2125.31 -5868.92 -5824.93 -4241.43 -5264.12 -5971.42 -5030.35 -5526.23 -6085.45 -5696.86 -2417.87 -5852.17 -6060.11 -4720.46 -5590.21
internal_weight=3887 203 79 59 3684 1086 1063 56 1007 576 55 521 498 101 67 124 397 2598 220 374 2378 257 216 2121 631 41 592 431 52 347
internal_count=3887 203 79 59 3684 1086 1063 56 1007 576 55 521 498 101 67 124 397 2598 220 374 2378 257 216 2121 631 41 592 431 52 347
is_linear=0
shrinkage=0.05


Tree=12
num_leaves=31
num_cat=0
split_feature=4 1 1 4 1 2 1 4 2 3 4 4 1 1 4 1 1 1 1 4 1 4 4 1 1 2 4 4 4 2
split_gain=1.61026e+14 2.62382e+14 7.02915e+14 4.87971e+13 3.48633e+13 6.31021e+13 5.6904e+13 5.70346e+13 1.2953e+13 2.4042e+13 3.27837e+13 1.44237e+14 5.70609e+13 3.06359e+13 1.22085e+12 5.82654e+11 4.28888e+11 2.84191e+11 2.24867e+11 6.25315e+11 3.56385e+12 2.67061e+11 1.75611e+11 1.61883e+11 4.11152e+11 1.58748e+11 1.46348e+11 1.93549e+11 1.32303e+11 1.21929e+11
threshold=995.00000000000011 0.0047594545922305135 0.0043735528685361477 2436.0000000000005 0.017108309750450221 9.5000000000000018 0.015693336763570879 50.500000000000007 2.5000000000000004 2.5000000000000004 78.500000000000014 100.50000000000001 0.006303061487007976 0.00090043735528685378 5350.0000000000009 0.00064316953949060992 0.0032158476974530488 0.0016722408026755855 0.033058914329817349 210.50000000000003 0.029714432724466174 5.5000000000000009 255.50000000000003 0.01247748906611783 0.0084898379212760503 3.5000000000000004 78.500000000000014 102.50000000000001 362.00000000000006 2.5000000000000004
decision_type=2 2 2 2 2 2 2 2 2 2 2 2 2 2 2 2 2 2 2 2 2 2 2 2 2 2 2 2 2 2
left_child=4 2 3 -2 5 6 8 -8 15 10 -10 12 -12 -13 -3 -1 -15 -11 19 29 28 -20 23 24 -18 -19 -17 -28 -21 -6
right_child=1 14 -4 -5 18 -7 7 -9 9 17 11 13 -14 16 -16 26 22 25 21 20 -22 -23 -24 -25 -26 -27 27 -29 -30 -31
leaf_value=-14976.78809442935 91233.068593750009 -5316.9155069040698 370735.3175 -4827.6169671474363 -6030.6508918160325 87071.159341032617 115147.45383522728 11827.931824448531 -6025.9952794017408 -11715.28793402778 55053.122656250001 57450.882506793481 159879.75357142859 1390.2212760416669 5444.5609991776319 -5906.4137002149428 -6219.8054154829551 -8355.4765653722425 -217.93228515625003 -6959.2128736413042 15650.29833984375 -6036.6187129364343 -7155.3492373511908 -6107.2115625000006 3685.5393359374998 -5506.4078978089083 -10491.778875854492 -6406.4319010416666 -3345.0030664062501 -4941.7732308386085
leaf_weight=23 20 86 20 39 469 23 22 34 149 27 34 23 21 30 38 199 22 68 20 69 24 1407 63 35 20 174 50 69 40 569
leaf_count=23 20 86 20 39 469 23 22 34 149 27 34 23 21 30 38 199 22 68 20 69 24 1407 63 35 20 174 50 69 40 569
internal_value=0.000117515 43353.3 114571 27735.3 -2388.91 5134.23 3361.37 52417.7 633.312 4691.02 12510.9 23648 95077.8 3292.29 -2019.04 -7291.72 -4035.05 -6849.81 -5533.68 -5020.17 -1792.32 -5955.07 -5197.6 -3595.81 -1502.97 -6306.97 -6735.88 -8122.96 -5632.9 -5433.76
internal_weight=3887 203 79 59 3684 1086 1063 56 1007 666 397 248 55 193 124 341 170 269 2598 1171 133 1427 140 77 42 242 318 119 109 1038
internal_count=3887 203 79 59 3684 1086 1063 56 1007 666 397 248 55 193 124 341 170 269 2598 1171 133 1427 140 77 42 242 318 119 109 1038
is_linear=0
shrinkage=0.05


Tree=13
num_leaves=31
num_cat=0
split_feature=4 1 1 1 1 2 1 3 2 3 4 4 1 1 4 1 1 1 1 4 1 4 4 1 1 2 4 4 4 2
split_gain=1.45326e+14 2.368e+14 6.34381e+14 4.81105e+13 3.14641e+13 5.69496e+13 5.13558e+13 5.2576e+13 1.16901e+13 2.16979e+13 2.95873e+13 1.30174e+14 5.14975e+13 2.76489e+13 1.10182e+12 5.25845e+11 3.87072e+11 2.56483e+11 2.02943e+11 5.64346e+11 3.21638e+12 2.41022e+11 1.58489e+11 1.51304e+11 3.92323e+11 1.4327e+11 1.32079e+11 1.74678e+11 1.19403e+11 1.10041e+11
threshold=995.00000000000011 0.0047594545922305135 0.0043735528685361477 0.00090043735528685378 0.017108309750450221 9.5000000000000018 0.015693336763570879 2.5000000000000004 2.5000000000000004 2.5000000000000004 78.500000000000014 100.50000000000001 0.006303061487007976 0.00090043735528685378 5350.0000000000009 0.00064316953949060992 0.0032158476974530488 0.0016722408026755855 0.033058914329817349 210.50000000000003 0.029714432724466174 5.5000000000000009 255.50000000000003 0.010676614355544125 0.014535631592487781 3.5000000000000004 78.500000000000014 102.50000000000001 362.00000000000006 2.5000000000000004
decision_type=2 2 2 2 2 2 2 2 2 2 2 2 2 2 2 2 2 2 2 2 2 2 2 2 2 2 2 2 2 2
left_child=4 2 3 -2 5 6 8 -8 15 10 -10 12 -12 -13 -3 -1 -15 -11 19 29 28 -20 23 -18 -25 -19 -17 -28 -21 -6
right_child=1 14 -4 -5 18 -7 7 -9 9 17 11 13 -14 16 -16 26 22 25 21 20 -22 -23 -24 24 -26 -27 27 -29 -30 -31
leaf_value=-14227.948505434784 73856.478669084827 -5051.0696584302332 352198.53500000003 -16561.812789818548 -5729.1182616276528 82717.594802989144 94898.843958333338 -2243.8983473557691 -5724.6955930159402 -11129.523423032408 52300.46971507353 54578.336107336952 151885.76428571431 1320.7102734375001 5172.331661184211 -5611.0929932867466 -6044.3529663085938 -7937.7027027803315 -207.03574218750001 -6611.2522192028991 14867.781914265952 -5734.7878368342444 -6797.5816592261908 3672.6611328125 -5722.6954218749997 -5231.0873711947743 -9967.1898969726572 -6086.1102524909429 -3177.7530664062501 -4694.6846271293653
leaf_weight=23 28 86 20 31 469 23 30 26 149 27 34 23 21 30 38 199 32 68 20 69 24 1407 63 20 25 174 50 69 40 569
leaf_count=23 28 86 20 31 469 23 30 26 149 27 34 23 21 30 38 199 32 68 20 69 24 1407 63 20 25 174 50 69 40 569
internal_value=-1.20371e-05 41185.7 108842 26348.6 -2269.46 4877.52 3193.3 49796.9 601.646 4456.47 11885.3 22465.6 90323.9 3127.68 -1918.09 -6927.13 -3833.29 -6507.32 -5257 -4769.16 -1702.7 -5657.31 -4937.72 -3416.02 -1546.98 -5991.62 -6399.08 -7716.82 -5351.25 -5162.07
internal_weight=3887 203 79 59 3684 1086 1063 56 1007 666 397 248 55 193 124 341 170 269 2598 1171 133 1427 140 77 45 242 318 119 109 1038
internal_count=3887 203 79 59 3684 1086 1063 56 1007 666 397 248 55 193 124 341 170 269 2598 1171 133 1427 140 77 45 242 318 119 109 1038
is_linear=0
shrinkage=0.05


Tree=14
num_leaves=31
num_cat=0
split_feature=4 1 1 4 1 1 4 4 1 1 1 1 1 1 4 4 1 3 1 1 4 2 4 4 4 1 4 4 4 4
split_gain=1.31157e+14 2.13712e+14 5.72529e+14 4.42018e+13 2.88102e+13 1.73897e+14 2.80166e+14 2.79445e+13 1.35843e+14 2.12081e+13 2.84148e+14 1.47192e+13 1.25661e+13 5.71518e+12 1.65473e+13 2.96999e+13 2.41213e+13 3.49345e+13 4.17641e+12 3.23369e+13 3.67051e+12 2.49601e+12 2.05312e+12 6.82633e+12 1.95645e+12 1.00578e+12 9.94394e+11 8.19624e+11 3.37177e+12 7.2231e+11
threshold=995.00000000000011 0.0047594545922305135 0.0043735528685361477 2436.0000000000005 0.01247748906611783 0.012091587342423464 71.500000000000014 20.500000000000004 0.021996398250578857 0.0050167224080267568 0.0043735528685361477 0.0003859017236943659 0.0059171597633136111 0.017108309750450221 98.500000000000014 109.50000000000001 0.015693336763570879 2.5000000000000004 0.0084898379212760503 0.0091330074607666612 76.500000000000014 5.5000000000000009 105.50000000000001 78.500000000000014 312.00000000000006 0.00064316953949060992 5350.0000000000009 146.00000000000003 83.500000000000014 298.50000000000006
decision_type=2 2 2 2 2 2 2 2 2 2 2 2 2 2 2 2 2 2 2 2 2 2 2 2 2 2 2 2 2 2
left_child=4 2 3 -2 5 9 -7 8 -6 10 11 -1 -11 14 16 -16 20 -18 22 -20 -9 25 23 -14 -17 -13 -3 28 -21 -27
right_child=1 26 -4 -5 7 6 -8 13 -10 12 -12 21 18 -15 15 24 17 -19 19 27 -22 -23 -24 -25 -26 29 -28 -29 -30 -31
leaf_value=25449.412410261826 85465.102968749998 -4798.5163426598838 334588.62375000003 -5960.6427834535261 111702.38338541666 -5536.7274594907412 241368.02794921875 -5246.8627075195318 -4784.8079677152318 -33381.178152252913 151353.77721557618 -17243.867494419643 -5514.6649988511035 -5006.168450009568 56695.0625 -6537.6008053626547 -95690.128125000003 -9456.5167459239146 43324.996875000004 -6044.6287051361396 -28734.491480654764 -24559.677688453314 -5300.8502802309786 -41258.979742986507 -24000.128984375002 -6676.1557739756063 4913.7151315789479 -3881.6164062500002 -23353.540815304488 2591.121688179348
leaf_weight=37 20 86 20 39 30 27 20 80 151 43 32 21 34 2428 20 81 24 23 35 101 21 21 46 22 20 245 38 60 39 23
leaf_count=37 20 86 20 39 30 27 20 80 151 43 32 21 34 2428 20 81 24 23 35 101 21 21 46 22 20 245 38 60 39 23
internal_value=0.000271393 39126.4 103400 25031.1 -2155.99 6199.3 99529.1 -4495.93 14522.5 419.985 8788.95 -4358.24 -7926.96 -5772.29 -12687.3 1027.71 -23900.2 -53490.7 -4679.09 -1011.99 -10130.4 -7915.93 -13127.8 -19557.1 -9995.53 -6706.52 -1822.19 -8770.96 -10866.4 -5880.83
internal_weight=3887 203 79 59 3684 806 47 2878 181 759 379 347 380 2697 269 121 148 47 337 235 101 310 102 56 101 289 124 200 140 268
internal_count=3887 203 79 59 3684 806 47 2878 181 759 379 347 380 2697 269 121 148 47 337 235 101 310 102 56 101 289 124 200 140 268
is_linear=0
shrinkage=0.05


Tree=15
num_leaves=31
num_cat=0
split_feature=4 1 1 1 1 2 1 4 2 3 4 4 1 1 4 1 1 1 4 4 4 4 4 4 4 4 4 1 3 4
split_gain=1.18369e+14 1.92875e+14 5.16707e+14 4.35743e+13 2.64462e+13 4.97559e+13 5.10143e+13 5.09806e+13 1.08533e+13 1.92637e+13 2.64735e+13 1.16933e+14 4.54788e+13 2.49665e+13 8.9744e+11 4.89821e+11 4.15311e+11 2.18817e+11 1.76341e+11 2.23814e+11 1.74312e+11 1.10248e+12 1.37986e+11 7.22546e+11 1.05412e+11 1.01653e+11 1.27062e+11 2.25407e+11 9.77416e+10 1.27346e+11
threshold=995.00000000000011 0.0047594545922305135 0.0043735528685361477 0.00090043735528685378 0.017108309750450221 9.5000000000000018 0.015693336763570879 50.500000000000007 2.5000000000000004 2.5000000000000004 78.500000000000014 100.50000000000001 0.006303061487007976 0.00090043735528685378 5350.0000000000009 0.00064316953949060992 0.0032158476974530488 0.0016722408026755855 78.500000000000014 99.500000000000014 210.50000000000003 241.00000000000003 67.500000000000014 84.500000000000014 455.50000000000006 140.50000000000003 255.50000000000003 0.010676614355544125 4.5000000000000009 78.500000000000014
decision_type=2 2 2 2 2 2 2 2 2 2 2 2 2 2 2 2 2 2 2 2 2 2 2 2 2 2 2 2 2 2
left_child=4 2 3 -2 5 6 8 -8 15 10 -10 12 -12 -13 -3 -1 -15 -11 -17 -20 28 -22 -19 -24 25 -18 27 -27 -6 -30
right_child=1 14 -4 -5 20 -7 7 -9 9 17 11 13 -14 16 -16 18 24 22 19 -21 21 -23 23 -25 -26 26 -28 -29 29 -31
leaf_value=-13953.718817934785 68992.342187500006 -4558.5903252180233 317859.15125000005 -17057.759223790323 -5023.3138769945635 77262.07438858696 108685.30156250001 11003.036259191176 -5596.6815410025174 -10538.686472800926 49651.191727941179 51632.083355978262 143236.26845238096 1464.9190494791667 4668.0289884868425 -5487.2813044715767 -7035.5519396551726 -3538.4079291577614 -11420.899928977273 -6577.1563249454939 4985.0718276515154 -4927.5447499321108 -13542.478307291669 -5082.3997917895049 -8378.4643945312509 -5440.0252038043482 -5610.1438680959309 1418.6532500000001 -2673.0380987149533 -4930.8731653645837
leaf_weight=23 28 86 20 31 2121 23 22 34 149 27 34 23 21 30 38 199 29 53 33 86 33 187 30 159 20 23 43 25 107 150
leaf_count=23 28 86 20 31 2121 23 22 34 149 27 34 23 21 30 38 199 29 53 33 86 33 187 30 159 20 23 43 25 107 150
internal_value=-0.000169562 37170.1 98230.1 23779.6 -2048.19 4504.16 2929.9 49378.2 346.877 4061.16 11060.9 21068.9 85383.7 2740.91 -1731.08 -6907.42 -3873.78 -6269.35 -6397.78 -7920.38 -4787.16 -3440.65 -5793.02 -6425.27 -5017.79 -4457.68 -3636.16 -1867.8 -4911.73 -3990.84
internal_weight=3887 203 79 59 3684 1086 1063 56 1007 666 397 248 55 193 124 341 170 269 318 119 2598 220 242 189 140 120 91 48 2378 257
internal_count=3887 203 79 59 3684 1086 1063 56 1007 666 397 248 55 193 124 341 170 269 318 119 2598 220 242 189 140 120 91 48 2378 257
is_linear=0
shrinkage=0.05


Tree=16
num_leaves=31
num_cat=0
split_feature=1 1 4 4 4 4 1 4 1 1 4 1 1 4 4 1 1 1 4 4 1 3 4 4 1 4 4 4 4 4
split_gain=1.08018e+14 7.23264e+14 7.43305e+13 2.70019e+13 4.57149e+13 1.759e+13 7.28462e+13 1.31711e+14 1.245e+13 1.93691e+14 2.47615e+14 1.09818e+13 9.79302e+12 1.5977e+13 2.00742e+13 9.17167e+12 2.20313e+13 6.24398e+12 1.58382e+13 2.58969e+13 2.48762e+13 3.18797e+13 3.59692e+12 3.3587e+12 2.77036e+12 3.88215e+12 1.98857e+12 1.00699e+12 3.09308e+12 7.89771e+11
threshold=0.0050167224080267568 0.0043735528685361477 995.00000000000011 1550.0000000000002 5050.0000000000009 20.500000000000004 0.017108309750450221 14.500000000000002 0.01247748906611783 0.012091587342423464 72.500000000000014 0.0003859017236943659 0.0068175971186004635 107.50000000000001 84.500000000000014 0.0091330074607666612 0.0084898379212760503 0.017108309750450221 98.500000000000014 109.50000000000001 0.015693336763570879 2.5000000000000004 76.500000000000014 5350.0000000000009 0.0019295086184718294 199.50000000000003 398.00000000000006 146.00000000000003 83.500000000000014 298.50000000000006
decision_type=2 2 2 2 2 2 2 2 2 2 2 2 2 2 2 2 2 2 2 2 2 2 2 2 2 2 2 2 2 2
left_child=1 3 -3 11 -5 6 7 -2 9 12 -11 -1 13 14 -7 16 23 18 20 -20 22 -22 -10 -14 25 -13 -21 28 -17 -26
right_child=5 2 -4 4 -6 8 -8 -9 17 10 -12 24 15 -15 -16 27 -18 -19 19 26 21 -23 -24 -25 29 -27 -28 -29 -30 -31
leaf_value=20302.839982524674 -5385.7709859913793 143600.4117919922 261441.25910326091 92631.204687500009 -5630.1820043103453 -13112.952228009259 -4984.393047736673 159035.41000744049 -4717.7546362304693 -9763.2502840909092 233320.99210937499 -8659.6987485139271 -9358.1910156249996 -4831.3965959821426 -79203.722861328133 -5659.0477056962027 43989.729681581441 -4497.4098892664906 52782.248789062505 -5958.1835569852947 -93897.828125 -11520.748063858697 -27968.732161458334 13990.5 -5473.5819849474683 -28649.57354403409 -23481.256621093751 -3517.764546130953 -22868.255849358975 5017.7820898437503
leaf_weight=38 29 32 23 20 29 27 170 21 80 22 20 92 67 84 20 79 33 2459 20 85 24 23 21 20 174 33 20 63 39 20
leaf_count=38 29 32 23 20 29 27 170 21 80 22 20 92 67 84 20 79 33 2459 20 85 24 23 21 20 174 33 20 63 39 20
internal_value=4.86067e-05 22722.4 192879 -328.372 34476.5 -3057.51 10619.1 63671.1 -3996.02 3484.37 105991 -5105.51 -6481.56 -17892.8 -41236.7 -1515.19 9203.94 -5293.87 -12467.8 636.594 -23535.7 -53585.6 -9552.12 -3990.68 -8132.21 -13937 -9295.91 -8621.8 -11346.8 -4392
internal_weight=3887 461 55 406 49 3426 220 50 3206 474 42 357 432 131 47 301 120 2732 273 125 148 47 101 87 319 125 105 181 118 194
internal_count=3887 461 55 406 49 3426 220 50 3206 474 42 357 432 131 47 301 120 2732 273 125 148 47 101 87 319 125 105 181 118 194
is_linear=0
shrinkage=0.05


Tree=17
num_leaves=31
num_cat=0
split_feature=1 1 4 4 1 4 1 1 1 1 3 1 1 4 4 1 1 1 4 4 1 3 4 4 1 4 4 4 4 4
split_gain=9.74866e+13 6.52745e+14 6.70832e+13 2.43692e+13 4.25208e+13 1.5875e+13 6.57437e+13 1.26897e+14 1.12362e+13 1.74806e+14 2.36207e+14 9.91109e+12 8.8382e+12 1.44192e+13 1.81169e+13 8.27743e+12 1.98832e+13 5.63519e+12 1.4294e+13 2.33719e+13 2.24508e+13 2.87714e+13 3.24622e+12 3.03122e+12 2.52146e+12 3.76995e+12 1.79468e+12 9.08807e+11 2.79151e+12 7.41043e+11
threshold=0.0050167224080267568 0.0043735528685361477 995.00000000000011 1550.0000000000002 0.00090043735528685378 20.500000000000004 0.017108309750450221 0.010676614355544125 0.01247748906611783 0.012091587342423464 2.5000000000000004 0.0003859017236943659 0.0068175971186004635 107.50000000000001 84.500000000000014 0.0091330074607666612 0.0084898379212760503 0.017108309750450221 98.500000000000014 109.50000000000001 0.015693336763570879 2.5000000000000004 76.500000000000014 5350.0000000000009 0.00090043735528685378 139.00000000000003 398.00000000000006 146.00000000000003 83.500000000000014 105.50000000000001
decision_type=2 2 2 2 2 2 2 2 2 2 2 2 2 2 2 2 2 2 2 2 2 2 2 2 2 2 2 2 2 2
left_child=1 3 -3 11 -5 6 7 -2 9 12 -11 -1 13 14 -7 16 23 18 20 -20 22 -22 -10 29 25 -13 -21 28 -17 -14
right_child=5 2 -4 4 -6 8 -8 -9 17 10 -12 24 15 -15 -16 27 -18 -19 19 26 21 -23 -24 -25 -26 -27 -28 -29 -30 -31
leaf_value=19287.695970394736 -7295.4715180495696 136420.38637695313 248369.18355978263 76560.325841346159 -16769.00992697011 -12457.305367476853 -4735.1734156709563 154092.71670386905 -4481.8669897460941 213747.96400923296 -23670.407167968751 -6996.6994376890116 -15705.959621093753 -4589.8266159784225 -75243.535546875006 -5376.0953125000005 41790.245706084279 -4272.5393292774952 50143.1419140625 -5660.2745542279408 -89202.9375 -10944.711107336958 -26570.295535714286 13290.975 -5786.4223758526705 -34840.408164062501 -22307.193876953126 -3341.8762772817463 -21724.843164062502 -4833.3299479166662
leaf_weight=38 29 32 23 26 23 27 170 21 80 22 20 31 25 84 20 79 33 2459 20 85 24 23 21 20 268 20 20 63 39 42
leaf_count=38 29 32 23 26 23 27 170 21 80 22 20 31 25 84 20 79 33 2459 20 85 24 23 21 20 268 20 20 63 39 42
internal_value=-1.63179e-05 21586.3 183235 -311.954 32752.7 -2904.64 10088.2 60487.6 -3796.22 3310.16 100692 -4850.24 -6157.48 -16998.2 -39174.9 -1439.43 8743.74 -5029.17 -11844.4 604.765 -22358.9 -50906.4 -9074.51 -3791.14 -7725.6 -17915.8 -8831.12 -8190.71 -10779.5 -8890.28
internal_weight=3887 461 55 406 49 3426 220 50 3206 474 42 357 432 131 47 301 120 2732 273 125 148 47 101 87 319 51 105 181 118 67
internal_count=3887 461 55 406 49 3426 220 50 3206 474 42 357 432 131 47 301 120 2732 273 125 148 47 101 87 319 51 105 181 118 67
is_linear=0
shrinkage=0.05


Tree=18
num_leaves=31
num_cat=0
split_feature=1 1 4 4 4 4 1 4 1 1 4 1 1 4 4 1 1 1 4 4 1 3 4 4 1 4 4 4 4 4
split_gain=8.79817e+13 5.89103e+14 6.05426e+13 2.19932e+13 4.11227e+13 1.43272e+13 5.93337e+13 1.15684e+14 1.01406e+13 1.57762e+14 2.22325e+14 8.94475e+12 7.97648e+12 1.30134e+13 1.63505e+13 7.47038e+12 1.79446e+13 5.08576e+12 1.29003e+13 2.10931e+13 2.02618e+13 2.59662e+13 2.92971e+12 2.73568e+12 2.36565e+12 3.257e+12 1.6197e+12 8.20199e+11 2.53885e+12 1.94783e+12
threshold=0.0050167224080267568 0.0043735528685361477 995.00000000000011 1550.0000000000002 5050.0000000000009 20.500000000000004 0.017108309750450221 14.500000000000002 0.01247748906611783 0.012091587342423464 72.500000000000014 0.0003859017236943659 0.0068175971186004635 107.50000000000001 84.500000000000014 0.0091330074607666612 0.0084898379212760503 0.017108309750450221 98.500000000000014 109.50000000000001 0.015693336763570879 2.5000000000000004 76.500000000000014 5350.0000000000009 0.0019295086184718294 199.50000000000003 398.00000000000006 146.00000000000003 78.500000000000014 114.50000000000001
decision_type=2 2 2 2 2 2 2 2 2 2 2 2 2 2 2 2 2 2 2 2 2 2 2 2 2 2 2 2 2 2
left_child=1 3 -3 11 -5 6 7 -2 9 12 -11 -1 13 14 -7 16 23 18 20 -20 22 -22 -10 -14 25 -13 -21 28 -17 -30
right_child=5 2 -4 4 -6 8 -8 -9 17 10 -12 24 15 -15 -16 27 -18 -19 19 26 21 -23 -24 -25 -26 -27 -28 -29 29 -31
leaf_value=18323.310690789476 -7256.0083782327583 129599.36337890626 235950.74633152175 86271.534375000003 -6923.9120959051725 -11834.439366319444 -4498.4147024356616 146837.32280505952 -4257.7736462402345 -14027.026686789774 216309.46465820313 -7869.6314920176637 -8445.7671860424434 -4360.3354654947916 -71481.360312500008 -4585.1937130489869 39700.730844578604 -4058.9123523043545 47635.981640625003 -5377.2607490808832 -84742.790625000009 -10397.475713315218 -25241.781256975446 12626.42625 -3883.0770341696198 -26179.413334517045 -21191.833544921876 -3174.7825024801587 -31275.911796875003 -10148.285030110677
leaf_weight=38 29 32 23 20 29 27 170 21 80 22 20 92 67 84 20 74 33 2459 20 85 24 23 21 20 194 33 20 63 20 24
leaf_count=38 29 32 23 20 29 27 170 21 80 22 20 92 67 84 20 74 33 2459 20 85 24 23 21 20 194 33 20 63 20 24
internal_value=7.48313e-05 20507 174074 -296.356 31115 -2759.41 9583.77 57463.2 -3606.41 3144.65 95657 -4607.73 -5849.61 -16148.3 -37216.1 -1367.46 8306.55 -4777.72 -11252.2 574.526 -21241 -48361 -8620.79 -3601.58 -7339.32 -12703.4 -8389.56 -7781.18 -10240.5 -19751.8
internal_weight=3887 461 55 406 49 3426 220 50 3206 474 42 357 432 131 47 301 120 2732 273 125 148 47 101 87 319 125 105 181 118 44
internal_count=3887 461 55 406 49 3426 220 50 3206 474 42 357 432 131 47 301 120 2732 273 125 148 47 101 87 319 125 105 181 118 44
is_linear=0
shrinkage=0.05


Tree=19
num_leaves=31
num_cat=0
split_feature=1 1 4 4 1 4 1 1 1 1 3 1 1 4 4 1 1 1 4 4 1 3 4 4 2 4 1 4 4 4
split_gain=7.94035e+13 5.31665e+14 5.46397e+13 1.98489e+13 3.8247e+13 1.29303e+13 5.35487e+13 1.11539e+14 9.15192e+12 1.42381e+14 2.12089e+14 8.07264e+12 7.19877e+12 1.17446e+13 1.49259e+13 6.74202e+12 1.6195e+13 4.5899e+12 1.16425e+13 1.90366e+13 1.82863e+13 2.34345e+13 2.64406e+12 2.46895e+12 2.27972e+12 1.46178e+12 1.08942e+12 1.59455e+12 1.12277e+12 7.40229e+11
threshold=0.0050167224080267568 0.0043735528685361477 995.00000000000011 1550.0000000000002 0.00090043735528685378 20.500000000000004 0.017108309750450221 0.010676614355544125 0.01247748906611783 0.012091587342423464 2.5000000000000004 0.0003859017236943659 0.0068175971186004635 107.50000000000001 78.500000000000014 0.0091330074607666612 0.0084898379212760503 0.017108309750450221 98.500000000000014 109.50000000000001 0.015693336763570879 2.5000000000000004 76.500000000000014 5350.0000000000009 5.5000000000000009 398.00000000000006 0.0019295086184718294 215.50000000000003 248.50000000000003 146.00000000000003
decision_type=2 2 2 2 2 2 2 2 2 2 2 2 2 2 2 2 2 2 2 2 2 2 2 2 2 2 2 2 2 2
left_child=1 3 -3 11 -5 6 7 -2 9 12 -11 -1 13 14 -7 16 23 18 20 -20 22 -22 -10 -14 26 -21 27 -13 -28 -17
right_child=5 2 -4 4 -6 8 -8 -9 17 10 -12 24 15 -15 -16 29 -18 -19 19 25 21 -23 -24 -25 -26 -27 28 -29 -30 -31
leaf_value=17407.149876644737 -8959.0007543103457 123119.39755859376 224153.18288043479 71107.063701923078 -17407.752768342394 -2616.8975585937501 -4273.4939941406255 142348.20554315476 -4044.8849670410159 198003.50969460228 -26968.106259765627 -6647.2238740961611 -8023.4788450326496 -4142.3186546688985 -59605.972280092596 -9728.4942755230404 37715.695231119797 -3855.9666797391278 45254.182656249999 -5108.3976148897063 -80505.653125000012 -9877.6009171195656 -23979.692639160159 11995.103750000002 -22894.938876488097 -20132.242652587891 -4914.0020849920384 -21087.018105061852 6914.6969089673921 -3016.0433407738096
leaf_weight=38 29 32 23 26 23 20 170 21 80 22 20 94 67 84 27 118 33 2459 20 85 24 23 21 20 21 20 157 24 23 63
leaf_count=38 29 32 23 26 23 20 170 21 80 22 20 94 67 84 27 118 33 2459 20 85 24 23 21 20 21 20 157 24 23 63
internal_value=-2.96241e-05 19481.6 165370 -281.538 29559.3 -2621.44 9104.58 54590 -3426.09 2987.42 90874.2 -4377.34 -5557.13 -15340.9 -35355.3 -1299.09 7891.22 -4538.83 -10689.6 545.8 -20179 -45943 -8189.75 -3421.51 -6972.36 -7970.08 -5850.29 -9584.13 -3402.56 -7392.12
internal_weight=3887 461 55 406 49 3426 220 50 3206 474 42 357 432 131 47 301 120 2732 273 125 148 47 101 87 319 105 298 118 180 181
internal_count=3887 461 55 406 49 3426 220 50 3206 474 42 357 432 131 47 301 120 2732 273 125 148 47 101 87 319 105 298 118 180 181
is_linear=0
shrinkage=0.05


Tree=20
num_leaves=31
num_cat=0
split_feature=1 1 4 4 4 4 1 2 1 1 4 1 1 4 4 1 1 1 4 4 1 3 4 4 2 4 1 4 4 4
split_gain=7.16616e+13 4.79828e+14 4.93123e+13 1.79136e+13 3.69918e+13 1.16696e+13 4.83277e+13 1.05567e+14 8.25961e+12 1.28498e+14 1.99618e+14 7.28556e+12 6.49689e+12 1.05995e+13 1.36775e+13 6.08467e+12 1.4616e+13 4.14239e+12 1.05074e+13 1.71805e+13 1.65034e+13 2.11496e+13 2.38627e+12 2.22823e+12 2.05744e+12 1.31926e+12 9.83204e+11 1.44626e+12 1.0133e+12 6.68792e+11
threshold=0.0050167224080267568 0.0043735528685361477 995.00000000000011 1550.0000000000002 5050.0000000000009 20.500000000000004 0.017108309750450221 2.5000000000000004 0.01247748906611783 0.012091587342423464 72.500000000000014 0.0003859017236943659 0.0068175971186004635 107.50000000000001 84.500000000000014 0.0091330074607666612 0.0084898379212760503 0.017108309750450221 98.500000000000014 109.50000000000001 0.015693336763570879 2.5000000000000004 76.500000000000014 5350.0000000000009 5.5000000000000009 398.00000000000006 0.0019295086184718294 301.50000000000006 248.50000000000003 105.50000000000001
decision_type=2 2 2 2 2 2 2 2 2 2 2 2 2 2 2 2 2 2 2 2 2 2 2 2 2 2 2 2 2 2
left_child=1 3 -3 11 -5 6 7 -2 9 12 -11 -1 13 14 -7 16 23 18 20 -20 22 -22 -10 29 26 -21 27 -13 -28 -14
right_child=5 2 -4 4 -6 8 -8 -9 17 10 -12 24 15 -15 -16 -17 -18 -19 19 25 21 -23 -24 -25 -26 -27 28 -29 -30 -31
leaf_value=16536.791324013157 -17941.632008713943 116963.43203125001 212945.52309782608 80394.19140625 -7996.5047047582166 -10373.125864438658 -4059.8192750459561 127479.52810872396 -3842.6405957031257 -17601.560427024149 200655.67929687502 -6604.2633624641276 -14097.199091796874 -3935.2026948474704 -64926.991875 -7022.5105120748449 35829.910073390151 -3663.1684984527501 42991.470625000002 -4852.9776976102939 -76480.365625000006 -9383.7210597826088 -22780.707152157738 11395.35 -21750.192264229914 -19125.630496826172 -4668.3020028861465 -21358.16494384766 6568.9619904891315 -3768.2012137276784
leaf_weight=38 26 32 23 20 29 27 170 24 80 22 20 98 25 84 20 181 33 2459 20 85 24 23 21 20 21 20 157 20 23 42
leaf_count=38 26 32 23 20 29 27 170 24 80 22 20 98 25 84 20 181 33 2459 20 85 24 23 21 20 21 20 157 20 23 42
internal_value=-6.47284e-05 18507.6 157101 -267.461 28081.3 -2490.36 8649.35 51860.5 -3254.79 2838.04 86330.5 -4158.47 -5279.27 -14573.8 -33587.5 -1234.14 7496.66 -4311.89 -10155.1 518.51 -19170 -43645.8 -7780.26 -3250.43 -6623.74 -7571.58 -5557.78 -9104.92 -3232.43 -7622.3
internal_weight=3887 461 55 406 49 3426 220 50 3206 474 42 357 432 131 47 301 120 2732 273 125 148 47 101 87 319 105 298 118 180 67
internal_count=3887 461 55 406 49 3426 220 50 3206 474 42 357 432 131 47 301 120 2732 273 125 148 47 101 87 319 105 298 118 180 67
is_linear=0
shrinkage=0.05


Tree=21
num_leaves=31
num_cat=0
split_feature=1 1 4 4 1 4 1 4 1 1 3 1 1 4 4 1 1 1 4 4 1 3 4 4 1 4 4 4 4 4
split_gain=6.46746e+13 4.33045e+14 4.45044e+13 1.6167e+13 3.44027e+13 1.05318e+13 4.36157e+13 1.02516e+14 7.4543e+12 1.1597e+14 1.90435e+14 6.57522e+12 5.86344e+12 9.56601e+12 1.24839e+13 5.49142e+12 1.31909e+13 3.7385e+12 9.48292e+12 1.55054e+13 1.48943e+13 1.90875e+13 2.15361e+12 2.01098e+12 1.96793e+12 2.97771e+12 1.19063e+12 6.68057e+11 2.32845e+12 6.03584e+11
threshold=0.0050167224080267568 0.0043735528685361477 995.00000000000011 1550.0000000000002 0.00090043735528685378 20.500000000000004 0.017108309750450221 14.500000000000002 0.01247748906611783 0.012091587342423464 2.5000000000000004 0.0003859017236943659 0.0068175971186004635 107.50000000000001 78.500000000000014 0.0091330074607666612 0.0084898379212760503 0.017108309750450221 98.500000000000014 109.50000000000001 0.015693336763570879 2.5000000000000004 76.500000000000014 5350.0000000000009 0.00090043735528685378 139.00000000000003 398.00000000000006 146.00000000000003 83.500000000000014 105.50000000000001
decision_type=2 2 2 2 2 2 2 2 2 2 2 2 2 2 2 2 2 2 2 2 2 2 2 2 2 2 2 2 2 2
left_child=1 3 -3 11 -5 6 7 -2 9 12 -11 -1 13 14 -7 16 23 18 20 -20 22 -22 -10 29 25 -13 -21 28 -17 -14
right_child=5 2 -4 4 -6 8 -8 -9 17 10 -12 24 15 -15 -16 27 -18 -19 19 26 21 -23 -24 -25 -26 -27 -28 -29 -30 -31
leaf_value=15709.951881167764 -11656.938951373922 111115.25761718751 202298.26983695652 66081.739423076928 -17866.923318614132 -1967.3964208984378 -3856.8282686121329 133401.24330357145 -3650.5085546875002 183526.97578125002 -29650.411284179689 -5590.8086087134579 -13392.338802246095 -3738.4425478980661 -54086.502795862267 -3956.0163123022157 34038.41726444129 -3480.0099764258848 40841.895390625003 -4610.328864889706 -72656.350000000006 -8914.534986413044 -21641.671186755953 10825.58375 -4579.3952266863926 -30336.540976562505 -18169.348974914552 -2514.1156560019845 -18887.336058944311 -3579.7911225818457
leaf_weight=38 29 32 23 26 23 20 170 21 80 22 20 31 25 84 27 79 33 2459 20 85 24 23 21 20 268 20 20 63 39 42
leaf_count=38 29 32 23 26 23 20 170 21 80 22 20 31 25 84 27 79 33 2459 20 85 24 23 21 20 268 20 20 63 39 42
internal_value=0.000119811 17582.2 149246 -254.088 26677.3 -2365.85 8216.88 49267.5 -3092.05 2696.14 82013.9 -3950.55 -5015.31 -13845.1 -31908.2 -1172.43 7121.83 -4096.29 -9647.36 492.584 -18211.5 -41463.5 -7391.25 -3087.91 -6292.55 -15295 -7193 -6671.38 -8890.94 -7241.19
internal_weight=3887 461 55 406 49 3426 220 50 3206 474 42 357 432 131 47 301 120 2732 273 125 148 47 101 87 319 51 105 181 118 67
internal_count=3887 461 55 406 49 3426 220 50 3206 474 42 357 432 131 47 301 120 2732 273 125 148 47 101 87 319 51 105 181 118 67
is_linear=0
shrinkage=0.05


Tree=22
num_leaves=31
num_cat=0
split_feature=1 1 4 4 4 4 1 1 1 1 4 1 1 4 4 1 1 1 4 4 1 3 4 2 4 4 1 4 4 4
split_gain=5.83688e+13 3.90823e+14 4.01652e+13 1.45907e+13 3.32758e+13 9.50493e+12 3.93632e+13 9.72715e+13 6.7275e+12 1.04663e+14 1.79231e+14 5.93413e+12 5.29176e+12 8.63332e+12 1.14415e+13 4.956e+12 1.19048e+13 3.374e+12 8.55834e+12 1.39936e+13 1.34421e+13 1.72265e+13 1.94363e+12 1.83152e+12 1.8149e+12 1.07454e+12 8.25221e+11 1.23528e+12 9.14499e+11 6.02921e+11
threshold=0.0050167224080267568 0.0043735528685361477 995.00000000000011 1550.0000000000002 5050.0000000000009 20.500000000000004 0.017108309750450221 0.010676614355544125 0.01247748906611783 0.012091587342423464 72.500000000000014 0.0003859017236943659 0.0068175971186004635 107.50000000000001 84.500000000000014 0.0091330074607666612 0.0084898379212760503 0.017108309750450221 98.500000000000014 109.50000000000001 0.015693336763570879 2.5000000000000004 76.500000000000014 5.5000000000000009 5350.0000000000009 398.00000000000006 0.0019295086184718294 301.50000000000006 248.50000000000003 146.00000000000003
decision_type=2 2 2 2 2 2 2 2 2 2 2 2 2 2 2 2 2 2 2 2 2 2 2 2 2 2 2 2 2 2
left_child=1 3 -3 11 -5 6 7 -2 9 12 -11 -1 13 14 -7 16 24 18 20 -20 22 -22 -10 26 -14 -21 27 -13 -28 -17
right_child=5 2 -4 4 -6 8 -8 -9 17 10 -12 23 15 -15 -16 29 -18 -19 19 25 21 -23 -24 -25 -26 -27 28 -29 -30 -31
leaf_value=14924.452364309211 -12541.465102202317 105559.4912109375 192183.33288043481 74959.240937500013 -8874.4203579606674 -9080.4812246817146 -3663.9868887867651 128757.55930059525 -3467.9831658935545 -20568.396244673295 186243.03828125002 -5910.8110481106505 -6879.1302136777058 -3551.5204078311017 -58976.316874999997 -8446.3970065375506 32336.494495738636 -3306.0095064526995 38799.804375 -4379.8125482536771 -69023.534375000003 -8468.8077445652179 -20559.588969494049 -20249.732914806547 10284.3025 -17260.881311035158 -4205.9171868779858 -19546.143342590334 6469.4836277173918 -2388.4098400297621
leaf_weight=38 29 32 23 20 29 27 170 21 80 22 20 98 67 84 20 118 33 2459 20 85 24 23 21 21 20 20 157 20 23 63
leaf_count=38 29 32 23 20 29 27 170 21 80 22 20 98 67 84 20 118 33 2459 20 85 24 23 21 21 20 20 157 20 23 63
internal_value=-9.31026e-05 16703.1 141784 -241.384 25343.4 -2247.55 7806.04 46804.1 -2937.44 2561.34 77913.2 -3753.02 -4764.54 -13152.9 -30312.8 -1113.81 6765.74 -3891.48 -9164.99 467.955 -17300.9 -39390.4 -7021.68 -5977.92 -2933.51 -6833.35 -4972.19 -8221.88 -2841.84 -6337.82
internal_weight=3887 461 55 406 49 3426 220 50 3206 474 42 357 432 131 47 301 120 2732 273 125 148 47 101 319 87 105 298 118 180 181
internal_count=3887 461 55 406 49 3426 220 50 3206 474 42 357 432 131 47 301 120 2732 273 125 148 47 101 319 87 105 298 118 180 181
is_linear=0
shrinkage=0.05


Tree=23
num_leaves=31
num_cat=0
split_feature=1 1 4 4 1 4 1 2 1 1 3 1 1 4 4 4 4 4 1 2 4 4 1 3 1 4 4 3 4 1
split_gain=5.26779e+13 3.52717e+14 3.62491e+13 1.31681e+13 3.09448e+13 8.5782e+12 3.55253e+13 9.5422e+13 6.07157e+12 9.44582e+13 1.70991e+14 5.35556e+12 4.77581e+12 7.79158e+12 1.04414e+13 4.82106e+12 2.38898e+13 3.74774e+12 3.04503e+12 8.15972e+12 1.14482e+13 1.57196e+13 1.23362e+13 1.74149e+13 1.71603e+12 2.60115e+12 1.33961e+12 5.95004e+11 4.78299e+11 4.69938e+11
threshold=0.0050167224080267568 0.0043735528685361477 995.00000000000011 1550.0000000000002 0.00090043735528685378 20.500000000000004 0.017108309750450221 2.5000000000000004 0.01247748906611783 0.012091587342423464 2.5000000000000004 0.0003859017236943659 0.0068175971186004635 107.50000000000001 78.500000000000014 95.500000000000014 108.50000000000001 78.500000000000014 0.017108309750450221 7.5000000000000009 98.500000000000014 111.50000000000001 0.015693336763570879 2.5000000000000004 0.00090043735528685378 139.00000000000003 5350.0000000000009 4.5000000000000009 191.00000000000003 0.0019295086184718294
decision_type=2 2 2 2 2 2 2 2 2 2 2 2 2 2 2 2 2 2 2 2 2 2 2 2 2 2 2 2 2 2
left_child=1 3 -3 11 -5 6 7 -2 9 12 -11 -1 13 14 -7 17 -17 -14 19 20 22 -22 -10 -24 25 -13 27 -18 -23 -26
right_child=5 2 -4 4 -6 8 -8 -9 18 10 -12 24 15 -15 -16 16 26 -19 -20 -21 21 28 23 -25 29 -27 -28 -29 -30 -31
leaf_value=14178.230016447369 -21899.41565622183 100281.51328125001 182574.17228260869 61447.962379807694 -18170.079441236416 -1415.0024975585939 -3480.7875614659929 116357.53818359376 -5038.2337338226016 170208.76150568182 -31792.727949218752 -5015.7275721396172 -4806.4222102238582 -3373.9443103608633 -49080.16119791667 55704.788437500007 -2337.843934873777 -28440.225624999999 -3140.7091048269749 -33780.658991109914 40662.553019831736 -9482.6057314116388 -65572.353125000009 -2398.7515625000001 -7469.3316759264144 -28143.924902343751 9770.0874999999996 -10305.632195027669 -1283.3870817764946 -2786.1501812177835
leaf_weight=38 26 32 23 26 23 20 170 24 99 22 20 31 104 84 27 20 107 20 2459 29 26 29 24 20 74 20 20 30 46 194
leaf_count=38 26 32 23 26 23 20 170 24 99 22 20 31 104 84 27 20 107 20 2459 29 26 29 24 20 74 20 20 30 46 194
internal_value=-8.35602e-05 15867.9 134695 -229.315 24076.2 -2135.18 7415.74 44463.9 -2790.57 2433.27 74017.6 -3565.37 -4526.32 -12495.2 -28797.1 -1058.12 4238.3 -8618.33 -3696.9 -8706.74 -5726.65 7160.35 -14828.6 -36857.1 -5679.03 -14085.6 -2317.94 -4082.62 -4453.75 -4079.27
internal_weight=3887 461 55 406 49 3426 220 50 3206 474 42 357 432 131 47 301 177 124 2732 273 244 101 143 44 319 51 157 137 75 268
internal_count=3887 461 55 406 49 3426 220 50 3206 474 42 357 432 131 47 301 177 124 2732 273 244 101 143 44 319 51 157 137 75 268
is_linear=0
shrinkage=0.05


Tree=24
num_leaves=31
num_cat=0
split_feature=1 1 4 4 4 4 4 1 1 1 4 4 1 1 1 4 4 1 1 1 2 4 4 1 3 2 4 4 4 4
split_gain=4.75418e+13 3.18328e+14 3.27148e+13 1.18843e+13 2.99332e+13 7.74183e+12 3.41976e+13 1.13982e+14 5.47959e+12 8.52485e+13 1.60925e+14 5.24187e+12 1.04396e+13 4.39674e+12 4.31017e+12 7.0319e+12 9.57116e+12 4.36383e+12 1.07709e+13 2.74814e+12 7.36415e+12 1.0332e+13 1.41869e+13 1.11334e+13 1.57169e+13 1.78418e+12 1.59029e+12 1.52563e+12 5.67305e+11 2.32546e+12
threshold=0.0050167224080267568 0.0043735528685361477 995.00000000000011 1550.0000000000002 5050.0000000000009 20.500000000000004 18.500000000000004 0.027013120658605613 0.01247748906611783 0.012091587342423464 72.500000000000014 657.50000000000011 0.0003859017236943659 0.017108309750450221 0.0068175971186004635 107.50000000000001 84.500000000000014 0.0091330074607666612 0.0084898379212760503 0.017108309750450221 7.5000000000000009 98.500000000000014 111.50000000000001 0.015693336763570879 2.5000000000000004 5.5000000000000009 10.500000000000002 5350.0000000000009 146.00000000000003 83.500000000000014
decision_type=2 2 2 2 2 2 2 2 2 2 2 2 2 2 2 2 2 2 2 2 2 2 2 2 2 2 2 2 2 2
left_child=1 3 -3 11 -5 6 13 -8 9 14 -11 12 -1 26 15 16 -7 18 27 20 21 23 -23 -10 -25 -14 -2 -16 29 -19
right_child=5 2 -4 4 -6 8 7 -9 19 10 -12 -13 25 -15 17 -17 -18 28 -20 -21 -22 22 -24 24 -26 -27 -28 -29 -30 -31
leaf_value=24799.013967803032 -13165.222519066221 95267.445410156259 173445.47092391306 69930.279843750002 -9581.2817820581895 -7937.8258789062502 124081.65227864584 -3421.4283533653852 -4786.322062667693 -23000.37743252841 172965.48484375002 -28257.286884765625 -3767.1397924632147 -3021.0572612847227 -6454.672407007929 -3205.2471191406253 -53573.492031250003 -3020.7840616346916 30711.058191287881 -2983.6735851559324 -32091.62638065733 38629.423287259611 -4231.0639713541668 -62293.739062500004 -2278.8134375000004 -18872.210452125186 -32865.655859375001 9281.5850000000009 -2076.2135137648811 -17942.52910137421
leaf_weight=33 21 32 23 20 29 27 24 65 99 22 20 20 283 90 67 84 20 79 33 2459 29 26 75 24 20 21 20 20 63 39
leaf_count=33 21 32 23 20 29 27 24 65 99 22 20 20 283 90 67 84 20 79 33 2459 29 26 75 24 20 21 20 20 63 39
internal_value=-9.19971e-06 15074.5 127960 -217.849 22872.4 -2028.42 7044.95 30961.4 -2651.04 2311.61 70316.7 -3387.1 -1911.13 -9203.65 -4300 -11870.5 -27357.3 -1005.21 6388.61 -3512.06 -8271.41 -5440.31 6802.33 -14087.2 -35014.2 -4810.58 -22775.2 -2837.14 -5907.19 -7952.55
internal_weight=3887 461 55 406 49 3426 220 89 3206 474 42 357 337 131 432 131 47 301 120 2732 273 244 101 143 44 304 41 87 181 118
internal_count=3887 461 55 406 49 3426 220 89 3206 474 42 357 337 131 432 131 47 301 120 2732 273 244 101 143 44 304 41 87 181 118
is_linear=0
shrinkage=0.05


Tree=25
num_leaves=31
num_cat=0
split_feature=1 1 4 4 1 4 1 4 1 1 3 4 4 1 1 1 4 4 4 4 4 1 2 4 4 1 3 4 4 3
split_gain=4.29065e+13 2.87291e+14 2.95251e+13 1.07255e+13 2.78345e+13 6.987e+12 3.23708e+13 8.73822e+13 4.94533e+12 7.69368e+13 1.53532e+14 4.87003e+12 3.96985e+13 9.55637e+12 4.75859e+12 3.88993e+12 6.34629e+12 8.733e+12 4.49528e+12 2.15715e+13 3.38306e+12 2.4802e+12 6.64614e+12 9.32466e+12 1.28037e+13 1.00479e+13 1.41845e+13 1.08686e+12 8.91574e+11 7.02735e+11
threshold=0.0050167224080267568 0.0043735528685361477 995.00000000000011 1550.0000000000002 0.00090043735528685378 20.500000000000004 0.017108309750450221 14.500000000000002 0.01247748906611783 0.012091587342423464 2.5000000000000004 185.50000000000003 149.00000000000003 0.00090043735528685378 0.0003859017236943659 0.0068175971186004635 107.50000000000001 78.500000000000014 95.500000000000014 108.50000000000001 78.500000000000014 0.017108309750450221 7.5000000000000009 98.500000000000014 111.50000000000001 0.015693336763570879 2.5000000000000004 5350.0000000000009 78.500000000000014 2.5000000000000004
decision_type=2 2 2 2 2 2 2 2 2 2 2 2 2 2 2 2 2 2 2 2 2 2 2 2 2 2 2 2 2 2
left_child=1 3 -3 11 -5 6 7 -2 9 15 -11 12 14 -13 -1 16 17 -7 20 -20 -17 22 23 25 -25 -10 -27 -21 -16 -15
right_child=5 2 -4 4 -6 8 -8 -9 21 10 -12 13 -14 29 28 18 -18 -19 19 27 -22 -23 -24 24 -26 26 -28 -29 -30 -31
leaf_value=-27585.101529947919 -14190.238502660293 90504.0703125 164773.18315217391 57172.654627403856 -18338.172939731765 -947.36108749389643 -3708.7884007352945 119733.59702380952 -4547.0061418013138 157949.19659090909 -33462.304375 -38285.464641203704 56380.993073381695 2520.9670109468352 -1525.2318636113948 -4633.5568068284256 -3044.9847749255955 -44539.049464699077 53064.906562500008 -3660.1200644388687 -27088.098010253907 -2834.4899644005441 -30487.045203057656 36697.954987980767 -4019.5108046875002 -59179.051562500004 -2164.8735937500001 8817.5037500000017 -7937.2062659222156 -9290.6213354492193
leaf_weight=24 29 32 23 26 23 20 170 21 99 22 20 27 28 34 132 104 84 27 20 137 20 2459 29 26 75 24 20 20 92 20
leaf_count=24 29 32 23 26 23 20 170 21 99 22 20 27 28 34 132 104 84 27 20 137 20 2459 29 26 75 24 20 20 92 20
internal_value=-7.5068e-05 14320.8 121562 -206.956 21728.8 -1927 6692.7 42057.8 -2518.49 2196.02 66800.9 -3217.75 -54.0877 -13997.6 -6425.79 -4085 -11276.9 -25989.4 -954.951 4159.39 -8255.26 -3336.46 -7857.84 -5168.3 6462.21 -13382.9 -33263.5 -2070.61 -4158.72 -1853.7
internal_weight=3887 461 55 406 49 3426 220 50 3206 474 42 357 276 81 248 432 131 47 301 177 124 2732 273 244 101 143 44 157 224 54
internal_count=3887 461 55 406 49 3426 220 50 3206 474 42 357 276 81 248 432 131 47 301 177 124 2732 273 244 101 143 44 157 224 54
is_linear=0
shrinkage=0.05


Tree=26
num_leaves=31
num_cat=0
split_feature=1 1 4 4 4 4 4 1 1 1 1 1 4 1 4 4 4 4 4 1 2 4 4 1 3 4 2 4 3 1
split_gain=3.87231e+13 2.5928e+14 3.10529e+13 9.6798e+12 2.69263e+13 6.30577e+12 3.05813e+13 9.8975e+13 4.75172e+12 4.59847e+12 4.46316e+12 6.94354e+13 1.44489e+14 3.51066e+12 5.72752e+12 8.00659e+12 4.05699e+12 1.94682e+13 3.05321e+12 2.23838e+12 5.99814e+12 8.4155e+12 1.15553e+13 9.06823e+12 1.28015e+13 2.1176e+12 1.47649e+12 9.80894e+11 5.66244e+11 5.32902e+11
threshold=0.0050167224080267568 0.0043735528685361477 109.50000000000001 1550.0000000000002 5050.0000000000009 20.500000000000004 18.500000000000004 0.027013120658605613 0.0003859017236943659 0.017108309750450221 0.01247748906611783 0.012091587342423464 72.500000000000014 0.0068175971186004635 107.50000000000001 84.500000000000014 95.500000000000014 108.50000000000001 78.500000000000014 0.017108309750450221 7.5000000000000009 98.500000000000014 111.50000000000001 0.015693336763570879 2.5000000000000004 10.500000000000002 5.5000000000000009 5350.0000000000009 4.5000000000000009 0.0019295086184718294
decision_type=2 2 2 2 2 2 2 2 2 2 2 2 2 2 2 2 2 2 2 2 2 2 2 2 2 2 2 2 2 2
left_child=1 3 -3 8 -5 6 9 -8 -1 25 11 13 -13 14 15 -7 18 -18 -15 20 21 23 -23 -12 -25 -2 29 28 -19 -10
right_child=5 2 -4 4 -6 10 7 -9 26 -11 19 12 -14 16 -16 -17 17 27 -20 -21 -22 22 -24 24 -26 -27 -28 -29 -30 -31
leaf_value=13656.542537006579 -11797.449516369048 161497.50142045456 84808.266477272729 65274.133437500001 -10138.175094288794 -6928.4885625203451 115748.46966552734 -3064.9175390625005 -6756.2329984503276 -2684.5650857204864 -4319.6558200412328 -24962.530877130685 160726.50031250002 -4401.8790297288169 -2892.7356549944197 -48667.866718750003 50411.662883300785 -1775.0331456264603 -25733.692861328127 -2692.7653947393505 -28962.69284078664 34863.059765625003 -3818.535299316407 -56220.096875000003 -2056.6295312500001 -34530.575429687502 -17861.913304210844 8376.6287500000017 -9547.8691861979169 -2432.8424631076391
leaf_weight=38 21 22 33 20 29 27 24 65 118 90 99 22 20 104 84 20 20 107 20 2459 29 26 75 24 20 20 21 20 30 180
leaf_count=38 21 22 33 20 29 27 24 65 118 90 99 22 20 104 84 20 20 107 20 2459 29 26 75 24 20 20 21 20 30 180
internal_value=-3.89015e-05 13604.8 115484 -196.609 20642.4 -1830.65 6358.07 28974.6 -3056.86 -9007.4 -2392.57 2086.22 63460.8 -3880.75 -10713.1 -24689.9 -907.203 3951.42 -7842.49 -3169.63 -7464.94 -4909.88 6139.1 -12713.7 -31600.3 -22886.8 -5047.8 -1967.08 -3477.11 -4144.79
internal_weight=3887 461 55 406 49 3426 220 89 357 131 3206 474 42 432 131 47 301 177 124 2732 273 244 101 143 44 41 319 157 137 298
internal_count=3887 461 55 406 49 3426 220 89 357 131 3206 474 42 432 131 47 301 177 124 2732 273 244 101 143 44 41 319 157 137 298
is_linear=0
shrinkage=0.05


Tree=27
num_leaves=31
num_cat=0
split_feature=1 1 4 1 2 4 4 1 1 4 1 1 1 4 1 1 1 4 4 1 4 1 1 1 4 1 4 4 2 2
split_gain=3.59142e+13 3.69039e+14 8.73602e+12 2.50368e+13 7.42283e+12 2.55841e+13 9.80169e+13 1.20026e+13 1.20398e+14 9.56731e+12 3.84209e+13 1.88653e+13 6.01849e+12 4.58381e+12 9.40451e+12 4.24865e+12 3.09895e+13 8.97259e+12 3.29668e+12 3.11956e+12 4.33196e+12 2.84693e+12 2.60579e+12 3.55072e+12 2.68703e+12 2.05402e+12 3.25029e+12 1.48894e+12 1.45378e+12 1.28014e+12
threshold=0.0047594545922305135 0.0043735528685361477 1550.0000000000002 0.00090043735528685378 2.5000000000000004 20.500000000000004 18.500000000000004 0.01247748906611783 0.012091587342423464 81.500000000000014 0.006303061487007976 0.0054026241317211227 0.017108309750450221 657.50000000000011 0.0003859017236943659 0.0084898379212760503 0.0095189091844610271 124.50000000000001 146.00000000000003 0.006303061487007976 24.500000000000004 0.017108309750450221 0.015693336763570879 0.014921533316182147 107.50000000000001 0.012091587342423464 78.500000000000014 47.500000000000007 5.5000000000000009 11.500000000000002
decision_type=2 2 2 2 2 2 2 2 2 2 2 2 2 2 2 2 2 2 2 2 2 2 2 2 2 2 2 2 2 2
left_child=1 2 13 -4 12 6 21 8 9 10 -7 -11 19 14 -1 17 -17 -13 -18 -2 -21 -6 23 -9 -25 -22 27 -27 -16 -24
right_child=4 -3 3 -5 5 7 -8 22 -10 11 -12 15 -14 -15 28 16 18 -19 -20 20 25 -23 29 24 -26 26 -28 -29 -30 -31
leaf_value=23827.670667613638 -30632.052789016001 166846.41180555557 53225.675300480776 -18389.813332201087 -27771.934960937502 73146.294935302736 97896.551612903233 -4292.2231728342786 99787.305419921875 -47490.506007812503 -9090.3435780116488 -38500.350302734376 -3198.8322982855902 -26160.777793579102 -3333.873213179626 56935.304156759514 -21807.921336315525 -2214.9604848845111 -712.22798488451099 -27999.39930338542 -2868.1648729046574 -4357.6974503800675 -2003.1303458207553 -32829.249609375001 -7770.3827050781256 -13266.870487607761 -27633.935224971065 4466.5412011718754 -16968.817833891368 -11947.394051846592
leaf_weight=33 21 36 26 23 20 20 31 113 32 25 49 20 900 20 283 23 31 115 46 30 103 37 1677 23 20 29 27 20 21 33
leaf_count=33 21 36 26 23 20 20 31 113 32 25 49 20 900 20 283 23 31 115 46 30 103 37 1677 23 20 29 27 20 21 33
internal_value=5.3708e-05 13417.7 -186.778 19610.2 -1721.52 -99.9952 26342.3 -1144.86 7200.57 -1804.82 14746.4 -6197.25 -5043.5 -2904.02 -1523.79 -1804.36 6007.04 -7590.57 -9205.3 -12261.7 -10415.9 -12573.2 -2759.39 -8945.52 -21174 -7468.97 -13704.3 -6028.74 -4275.76 -2195.04
internal_weight=3887 442 406 49 3445 2315 88 2227 361 329 69 260 1130 357 337 235 100 135 77 230 209 57 1866 156 43 179 76 49 304 1710
internal_count=3887 442 406 49 3445 2315 88 2227 361 329 69 260 1130 357 337 235 100 135 77 230 209 57 1866 156 43 179 76 49 304 1710
is_linear=0
shrinkage=0.05


Tree=28
num_leaves=31
num_cat=0
split_feature=1 1 4 4 4 4 1 2 4 1 3 1 1 1 1 1 4 1 2 1 1 1 1 1 1 4 1 4 1 1
split_gain=3.24126e+13 3.33057e+14 8.34865e+12 2.86522e+13 1.18952e+13 2.42215e+13 8.93378e+12 6.6991e+12 2.30897e+13 9.32906e+13 1.15383e+13 3.78599e+13 1.2075e+14 1.59868e+13 1.57807e+13 2.46758e+13 1.1835e+13 8.22339e+12 2.46398e+13 5.43168e+12 5.22861e+12 3.92565e+12 1.24586e+13 4.98192e+12 2.81541e+12 3.90959e+12 1.85375e+12 2.93339e+12 1.46659e+12 1.82364e+12
threshold=0.0047594545922305135 0.0043735528685361477 149.00000000000003 181.00000000000003 1550.0000000000002 5050.0000000000009 0.00090043735528685378 2.5000000000000004 20.500000000000004 0.017108309750450221 2.5000000000000004 0.01247748906611783 0.011319783895034732 0.0054026241317211227 0.0084898379212760503 0.010162078723951636 105.50000000000001 0.017108309750450221 8.5000000000000018 0.017108309750450221 0.0003859017236943659 0.015693336763570879 0.019423720092616416 0.014921533316182147 0.006303061487007976 24.500000000000004 0.012091587342423464 78.500000000000014 0.01247748906611783 0.011319783895034732
decision_type=2 2 2 2 2 2 2 2 2 2 2 2 2 2 2 2 2 2 2 2 2 2 2 2 2 2 2 2 2 2
left_child=1 2 20 -4 6 -6 -5 19 9 -9 11 12 13 -10 16 -16 -15 18 28 24 -1 23 -23 -13 -2 -26 -27 -28 29 -12
right_child=7 -3 3 4 5 -7 -8 8 10 -11 17 21 -14 14 15 -17 -18 -19 -20 -21 -22 22 -24 -25 25 26 27 -29 -30 -31
leaf_value=-28080.05719401042 -29100.450477236795 158504.10381944446 55705.512641963258 -36062.844113498264 60960.490468750002 -10563.900424299571 -944.72602672230119 109093.42281901043 45144.776442649149 -6500.4446388244633 -8255.0894584068883 -3574.1306208376027 109194.44771247632 -40855.365068847663 64297.175674293161 -8574.4821589543262 -1822.2915116233389 -2529.1766854398547 -64921.566577148442 -3038.8906921657986 -3523.9634545462477 31360.644713092672 -1923.5267796552662 -28460.619824218753 -26599.429306640628 -2724.7564611934922 -5727.3059550382659 -26252.239029947919 -3094.4933002068015 -21904.611993408205
leaf_weight=24 21 36 27 27 20 29 55 24 22 64 104 61 33 25 21 26 87 730 21 900 224 29 921 30 30 103 49 27 85 32
leaf_count=24 21 36 27 27 20 29 55 24 22 64 104 61 33 25 21 26 87 730 21 900 224 29 921 30 30 103 49 27 85 32
internal_value=0.000136089 12746.8 -177.439 8805.37 -861.069 18629.7 -12508 -1635.44 -94.9955 25025.2 -1087.62 2079.71 21233.6 5196.5 -330.939 23985.2 -10535 -5177.12 -13164.7 -4791.32 -5900.36 -1857.78 -907.484 -11778.5 -11648.7 -9895.13 -7095.52 -13019.1 -8246.65 -11466.7
internal_weight=3887 442 406 158 131 49 82 3445 2315 88 2227 1255 214 181 159 47 112 972 242 1130 248 1041 950 91 230 209 179 76 221 136
internal_count=3887 442 406 158 131 49 82 3445 2315 88 2227 1255 214 181 159 47 112 972 242 1130 248 1041 950 91 230 209 179 76 221 136
is_linear=0
shrinkage=0.05


Tree=29
num_leaves=31
num_cat=0
split_feature=1 1 3 4 1 2 4 4 3 2 1 1 1 4 4 1 2 1 1 1 1 1 1 1 1 4 1 1 2 4
split_gain=2.92523e+13 3.00584e+14 7.59716e+12 2.24166e+13 4.2443e+13 6.04594e+12 2.08384e+13 9.0635e+13 1.04134e+13 3.41924e+13 1.59435e+13 7.94876e+12 4.12098e+13 9.48178e+13 1.0681e+13 7.42161e+12 2.22375e+13 6.03973e+12 4.90209e+12 4.07805e+12 3.64562e+12 1.30147e+13 4.37955e+12 3.49988e+12 2.5409e+12 3.52841e+12 1.67301e+12 2.82937e+12 1.45968e+12 1.37731e+12
threshold=0.0047594545922305135 0.0043735528685361477 2.5000000000000004 149.00000000000003 0.00090043735528685378 2.5000000000000004 20.500000000000004 18.500000000000004 2.5000000000000004 4.5000000000000009 0.0054026241317211227 0.01247748906611783 0.0084898379212760503 106.50000000000001 105.50000000000001 0.017108309750450221 8.5000000000000018 0.00090043735528685378 0.017108309750450221 0.017108309750450221 0.015693336763570879 0.019423720092616416 0.014921533316182147 0.0003859017236943659 0.006303061487007976 24.500000000000004 0.012091587342423464 0.013506560329302806 4.5000000000000009 210.50000000000003
decision_type=2 2 2 2 2 2 2 2 2 2 2 2 2 2 2 2 2 2 2 2 2 2 2 2 2 2 2 2 2 2
left_child=1 2 3 23 -5 18 7 19 9 10 -8 12 14 -14 -12 16 28 -4 24 -7 22 -22 -13 -1 -2 -26 -27 -28 -10 -23
right_child=5 -3 17 4 -6 6 8 -9 15 -11 11 20 13 -15 -16 -17 -18 -19 -20 -21 21 29 -24 -25 25 26 27 -29 -30 -31
leaf_value=-26200.216601562501 -27645.427659970239 150578.87690972222 -33763.775694208562 60059.980129450014 -4150.1774516444048 -31838.009765625 42887.539612926135 92580.979385080645 -12028.645684244031 55636.781095096987 -38812.596351562497 -3574.0795968783104 95198.243596917237 -15854.510671386721 -1731.1767652489675 -2402.7178282855307 -61675.488871837806 -5265.4395006946688 -2886.9461596137153 -3814.7903689822633 33315.80356264468 -2539.869514614928 -27037.589315592446 -4015.2981123352056 -25269.457631429039 -2588.5187177195135 -25364.536662688082 -5206.8065359933034 -3897.5288610625685 4220.67727315512
leaf_weight=20 21 36 23 44 62 20 22 31 107 29 25 59 37 40 87 730 21 97 900 37 27 816 30 160 30 103 27 49 114 83
leaf_count=20 21 36 23 44 62 20 22 31 107 29 25 59 37 40 87 730 21 97 900 37 27 816 30 160 30 103 27 49 114 83
internal_value=-0.000104613 12109.5 -168.567 4261.8 22503.1 -1553.67 -90.2457 23773.9 -1033.24 1975.72 706.415 -64.337 9350.41 37508.5 -10008.3 -4918.26 -12506.5 -10727.6 -4551.75 -13647.5 -1817.43 -888.435 -11483.1 -6480.29 -11066.2 -9400.37 -6740.75 -12368.1 -7834.31 -1915.7
internal_weight=3887 442 406 286 106 3445 2315 88 2227 1255 1226 1204 189 77 112 972 242 120 1130 57 1015 926 89 180 230 209 179 76 221 899
internal_count=3887 442 406 286 106 3445 2315 88 2227 1255 1226 1204 189 77 112 972 242 120 1130 57 1015 926 89 180 230 209 179 76 221 899
is_linear=0
shrinkage=0.05


Tree=30
num_leaves=31
num_cat=0
split_feature=4 4 1 1 4 2 3 2 1 1 4 4 4 4 1 1 4 1 4 1 3 1 1 1 1 1 1 2 1 4
split_gain=2.74796e+13 8.45742e+13 1.87467e+14 1.59967e+14 3.38153e+13 1.26829e+13 9.96991e+13 9.99752e+12 1.71171e+13 1.39182e+14 1.81156e+13 6.13431e+13 2.16174e+13 5.64156e+13 1.88311e+13 1.39157e+13 1.32071e+13 6.56239e+12 4.34568e+12 6.27347e+12 4.27149e+12 3.73574e+12 2.37145e+13 5.6621e+12 3.49233e+12 1.70802e+12 3.71825e+12 1.43721e+12 1.327e+12 1.26206e+12
threshold=6430.0000000000009 995.00000000000011 0.0047594545922305135 0.0019295086184718294 10100.000000000002 9.5000000000000018 7.5000000000000009 2.5000000000000004 0.017108309750450221 0.015693336763570879 78.500000000000014 81.500000000000014 99.500000000000014 100.50000000000001 0.00090043735528685378 0.0054026241317211227 55.500000000000007 0.017108309750450221 24.500000000000004 0.0043735528685361477 2.5000000000000004 0.0043735528685361477 0.0059171597633136111 0.012091587342423464 0.033058914329817349 0.012091587342423464 0.013506560329302806 1.5000000000000002 0.0084898379212760503 33.500000000000007
decision_type=2 2 2 2 2 2 2 2 2 2 2 2 2 2 2 2 2 2 2 2 2 2 2 2 2 2 2 2 2 2
left_child=1 5 3 -3 -2 7 -7 17 9 10 18 -12 -13 15 -15 -14 -11 20 19 -9 21 -1 -23 28 -8 -16 -27 29 -24 -25
right_child=4 2 -4 -5 -6 6 24 8 -10 16 11 12 13 14 25 -17 -18 -19 -20 -21 -22 22 23 27 -26 26 -28 -29 -30 -31
leaf_value=-4976.7743384609712 -84834.510193452385 29033.963984375001 -2643.751909128825 209754.41516927085 -5396.2188925253386 107465.6990913723 -24290.8021886489 -2432.6045765269887 -2302.7648512073729 126325.72433593751 76452.431966145843 -39222.400391466865 31605.369432689524 38256.037818287041 -2729.7661456094406 85176.086967329553 68864.654687500006 -2744.0666877943968 -6206.4095337984863 -37584.895890299485 11680.852968750001 -65214.189515269885 5076.1286506204051 -23513.209189860027 -1628.5600241268385 -27831.982092285158 -5220.9282568359376 -28688.496090698245 -6737.7088434533234 -7754.9573838975693
leaf_weight=119 21 25 96 24 37 23 34 22 1641 20 30 29 27 27 209 22 20 889 171 30 20 22 34 24 34 24 75 32 79 27
leaf_count=119 21 25 96 24 37 23 34 22 1641 20 30 29 27 27 209 22 20 889 171 30 20 22 34 24 34 24 75 32 79 27
internal_value=2.95597e-05 517.416 37973.5 117550 -34158.4 -956.832 17477.5 -1423.72 498.001 7007.99 1567.32 7418.05 2403.45 5547.07 -1782.52 55657.5 97595.2 -5043.52 -10055.4 -22712.8 -10769.6 -12102 -15991.4 -10466.4 -12959.7 -5292.4 -10702.4 -20382.3 -3183.1 -15170.6
internal_weight=3887 3829 145 49 58 3684 91 3593 2347 706 666 443 413 384 335 49 40 1246 223 52 357 337 218 196 68 308 99 83 113 51
internal_count=3887 3829 145 49 58 3684 91 3593 2347 706 666 443 413 384 335 49 40 1246 223 52 357 337 218 196 68 308 99 83 113 51
is_linear=0
shrinkage=0.05


Tree=31
num_leaves=31
num_cat=0
split_feature=4 4 1 1 4 2 3 2 1 1 4 4 4 4 1 1 4 1 1 4 3 1 1 1 4 1 1 2 4 1
split_gain=2.4966e+13 7.4571e+13 1.71005e+14 1.4437e+14 3.09809e+13 1.14463e+13 8.99785e+13 9.02276e+12 1.54482e+13 1.25612e+14 1.63493e+13 5.53622e+13 1.95097e+13 5.09151e+13 1.6995e+13 1.25589e+13 1.19194e+13 5.92256e+12 3.95177e+12 7.39924e+12 3.85502e+12 3.37151e+12 2.14024e+13 5.11005e+12 3.28113e+12 2.12596e+12 1.56675e+12 1.29708e+12 1.19782e+12 1.62451e+12
threshold=6800.0000000000009 995.00000000000011 0.0047594545922305135 0.0019295086184718294 10400.000000000002 9.5000000000000018 7.5000000000000009 2.5000000000000004 0.017108309750450221 0.015693336763570879 78.500000000000014 81.500000000000014 99.500000000000014 100.50000000000001 0.00090043735528685378 0.0054026241317211227 55.500000000000007 0.017108309750450221 0.0043735528685361477 20.500000000000004 2.5000000000000004 0.0043735528685361477 0.0059171597633136111 0.012091587342423464 78.500000000000014 0.01247748906611783 0.0043735528685361477 1.5000000000000002 109.50000000000001 0.01247748906611783
decision_type=2 2 2 2 2 2 2 2 2 2 2 2 2 2 2 2 2 2 2 2 2 2 2 2 2 2 2 2 2 2
left_child=1 5 3 -3 -2 7 -7 17 9 10 18 -12 -13 15 -15 -14 -11 20 -9 -20 21 -1 -23 -24 -8 -21 -16 -25 -28 -30
right_child=4 2 -4 -5 -6 6 24 8 -10 16 11 12 13 14 26 -17 -18 -19 19 25 -22 22 23 27 -26 -27 28 -29 29 -31
leaf_value=-4727.9356043711432 -83038.842636718764 27582.271187499999 -2726.478868881537 199266.67356770835 -5424.0020833333338 102092.41261888586 -662.30134887695317 -739.8341267479791 -2187.6265805576286 120009.43617187502 72629.81128255208 -37261.280542834051 30025.103291377316 36343.235937500001 1487.6072599169236 80917.283647017044 65421.423632812504 -2606.8633540253268 -39887.508821614581 -14607.414142175625 11096.811201171877 -61953.480131392047 -3023.9477107225266 -14412.075433828319 -22666.715321180556 -728.79050882512877 -18688.287264404298 -27254.071168518069 -9206.3817604677515 -239.19323098182679
leaf_weight=119 20 25 98 24 36 23 32 81 1641 20 30 29 27 27 71 22 20 889 24 74 20 22 113 51 36 44 20 32 137 80
leaf_count=119 20 25 98 24 36 23 32 81 1641 20 30 29 27 27 71 22 20 889 24 74 20 22 113 51 36 44 20 32 137 80
internal_value=-6.28387e-05 484.479 35406.5 111673 -33143.6 -908.991 16603.6 -1352.53 473.101 6657.6 1488.96 7047.15 2283.28 5269.71 -1693.4 52874.7 92715.4 -4791.35 -9552.66 -14579.7 -10231.1 -11496.9 -15191.9 -9943.12 -12311.7 -9432.33 -5027.78 -19363.2 -6979.64 -5900.51
internal_weight=3887 3831 147 49 56 3684 91 3593 2347 706 666 443 413 384 335 49 40 1246 223 142 357 337 218 196 68 118 308 83 237 217
internal_count=3887 3831 147 49 56 3684 91 3593 2347 706 666 443 413 384 335 49 40 1246 223 142 357 337 218 196 68 118 308 83 237 217
is_linear=0
shrinkage=0.05


Tree=32
num_leaves=31
num_cat=0
split_feature=3 2 4 4 1 1 2 1 2 1 1 4 4 4 1 1 1 1 1 4 1 1 1 4 1 4 4 1 2 4
split_gain=2.33035e+13 1.92222e+14 7.09598e+13 1.2108e+14 2.68507e+14 2.83962e+13 2.51184e+13 7.00728e+13 1.75247e+13 3.61789e+13 5.89397e+13 2.23047e+14 4.08267e+13 1.21672e+14 2.14624e+13 1.83205e+13 6.65493e+12 3.54258e+12 3.21163e+12 6.03078e+12 3.04278e+12 1.93156e+13 4.61182e+12 1.88109e+12 1.87811e+12 1.65257e+12 3.85769e+12 1.48191e+12 1.44057e+12 1.88685e+12
threshold=2.5000000000000004 5.5000000000000009 995.00000000000011 5660.0000000000009 0.0047594545922305135 0.0054026241317211227 9.5000000000000018 0.017108309750450221 2.5000000000000004 0.017108309750450221 0.014921533316182147 99.500000000000014 78.500000000000014 101.50000000000001 0.00090043735528685378 0.0050167224080267568 0.017108309750450221 0.01247748906611783 0.0043735528685361477 21.500000000000004 0.0043735528685361477 0.0059171597633136111 0.012091587342423464 995.00000000000011 0.011319783895034732 210.50000000000003 298.50000000000006 0.012091587342423464 2.5000000000000004 63.500000000000007
decision_type=2 2 2 2 2 2 2 2 2 2 2 2 2 2 2 2 2 2 2 2 2 2 2 2 2 2 2 2 2 2
left_child=1 2 8 4 -4 -5 17 -8 16 10 12 -12 18 15 -15 -14 20 23 -10 -20 -1 -22 -23 24 -2 -11 -27 -16 29 -19
right_child=6 -3 3 5 -6 -7 7 -9 9 25 11 -13 13 14 27 -17 -18 28 19 -21 21 22 -24 -25 -26 26 -28 -29 -30 -31
leaf_value=-4491.5388309767268 -5026.6613060037926 156963.00757812499 166340.01292968751 -77352.102631835951 -1466.5922901218221 3316.8079264322914 -89572.890281723492 -1192.2024162946429 -1842.4951842064952 -2579.2933652212055 189614.95562686014 -29474.321751051684 126818.97562500002 46791.438383152177 -2290.619270613387 65816.06640625 -2621.6675293541853 18147.409038085938 -40320.525071022734 -10308.846518031531 -58855.80600142046 -2872.7503164274503 -18395.045650472988 -18987.42306887978 -17954.300254498106 23956.685605468752 -1814.9521963443397 -13964.798066541885 -2493.8861500563376 -2851.3515625
leaf_weight=119 189 20 40 20 59 24 33 70 51 891 21 26 20 23 111 32 852 20 22 70 22 113 83 38 33 20 53 36 753 23
leaf_count=119 189 20 40 20 59 24 33 70 51 891 21 26 20 23 111 32 852 20 22 70 22 113 83 38 33 20 53 36 753 23
internal_value=-1.26862e-05 2523.44 1382.82 35661.8 66334.1 -33350.9 -5939.55 -29508.3 -528.246 3313.55 15715.2 68416.6 8928.95 22350 1877.72 89278.7 -4974.26 -3640.7 -11906.6 -17485.6 -10922 -14432.3 -9445.97 -8707.9 -6948.34 -1986.73 5245.77 -5149.6 -1985.59 6915.51
internal_weight=3887 2728 2708 143 99 44 1159 103 2565 1376 412 47 365 222 170 52 1189 1056 143 92 337 218 196 260 222 964 73 147 796 43
internal_count=3887 2728 2708 143 99 44 1159 103 2565 1376 412 47 365 222 170 52 1189 1056 143 92 337 218 196 260 222 964 73 147 796 43
is_linear=0
shrinkage=0.05


Tree=33
num_leaves=31
num_cat=0
split_feature=3 2 4 4 1 4 2 1 2 1 1 4 4 4 1 1 1 1 1 4 1 1 1 4 1 1 4 4 1 1
split_gain=2.10314e+13 1.7348e+14 6.40412e+13 1.09274e+14 2.42327e+14 2.70147e+13 2.26693e+13 6.32407e+13 1.58161e+13 3.26515e+13 5.3193e+13 2.013e+14 3.68461e+13 1.09809e+14 1.94122e+13 1.93698e+13 6.00608e+12 3.19717e+12 2.89849e+12 5.44278e+12 2.74611e+12 1.74324e+13 4.16217e+12 1.73585e+12 3.33617e+12 1.76988e+12 1.49144e+12 3.48156e+12 1.33742e+12 1.32416e+12
threshold=2.5000000000000004 5.5000000000000009 995.00000000000011 5660.0000000000009 0.0047594545922305135 10100.000000000002 9.5000000000000018 0.017108309750450221 2.5000000000000004 0.017108309750450221 0.014921533316182147 99.500000000000014 78.500000000000014 101.50000000000001 0.0054026241317211227 0.00090043735528685378 0.017108309750450221 0.01247748906611783 0.0043735528685361477 21.500000000000004 0.0043735528685361477 0.0059171597633136111 0.012091587342423464 64.500000000000014 0.011319783895034732 0.0016722408026755855 210.50000000000003 298.50000000000006 0.012091587342423464 0.013506560329302806
decision_type=2 2 2 2 2 2 2 2 2 2 2 2 2 2 2 2 2 2 2 2 2 2 2 2 2 2 2 2 2 2
left_child=1 2 8 4 -4 -5 17 -8 16 10 12 -12 18 14 -14 -15 20 23 -10 -20 -1 -22 -23 -2 25 -25 -11 -28 -17 -24
right_child=6 -3 3 5 -6 -7 7 -9 9 26 11 -13 13 15 -16 28 -18 -19 19 -21 21 22 29 24 -26 -27 27 -29 -30 -31
leaf_value=-4266.9618832884717 100.17547900390626 149114.85187500002 158023.01283203127 -70861.501740056832 -1393.2625595868644 7494.831676136364 -85094.24560546875 -1132.5923352050781 -1750.3704111136642 -2450.3286874824639 180134.20018601191 -28000.604679987984 58653.637343750001 44451.866236413043 120489.07727272727 -2176.0883037945173 -2490.5841432956463 -1886.3099762652987 -38304.499325284087 -9793.4041545758937 -55913.015411931825 -2729.112729448977 -25249.005823863637 -19779.786517443485 -27409.531679687498 -5927.6364549564414 22758.850312499999 -1724.2045142983491 -13266.558452012803 -12344.643500488281
leaf_weight=119 50 20 40 22 59 22 33 70 51 891 21 26 30 23 22 111 852 796 22 70 22 113 33 27 25 158 20 53 36 50
leaf_count=119 50 20 40 22 59 22 33 70 51 891 21 26 30 23 22 111 852 796 22 70 22 113 33 27 25 158 20 53 36 50
internal_value=-0.000114357 2397.27 1313.68 33878.7 63017.4 -31683.3 -5642.58 -28032.9 -501.834 3147.87 14929.4 64995.8 8482.5 21232.5 84814.8 1783.83 -4725.54 -3458.67 -11311.2 -16611.3 -10375.9 -13710.7 -8973.67 -8272.5 -10266 -7949.3 -1887.39 4983.48 -4892.12 -17475.3
internal_weight=3887 2728 2708 143 99 44 1159 103 2565 1376 412 47 365 222 52 170 1189 1056 143 92 337 218 196 260 210 185 964 73 147 83
internal_count=3887 2728 2708 143 99 44 1159 103 2565 1376 412 47 365 222 52 170 1189 1056 143 92 337 218 196 260 210 185 964 73 147 83
is_linear=0
shrinkage=0.05


Tree=34
num_leaves=31
num_cat=0
split_feature=3 2 4 4 1 1 2 1 2 1 1 4 4 4 1 1 1 1 1 4 1 1 1 4 1 4 4 2 4 1
split_gain=1.89808e+13 1.56566e+14 5.77972e+13 9.86201e+13 2.187e+14 2.5388e+13 2.04591e+13 5.70747e+13 1.4274e+13 2.94679e+13 4.80067e+13 1.81673e+14 3.32536e+13 9.91029e+13 1.77694e+13 1.74812e+13 5.42049e+12 2.88545e+12 2.61589e+12 4.94255e+12 2.47837e+12 1.57327e+13 3.75636e+12 1.66195e+12 1.51899e+12 1.34603e+12 3.14211e+12 1.30011e+12 1.70288e+12 1.21292e+12
threshold=2.5000000000000004 5.5000000000000009 995.00000000000011 5660.0000000000009 0.0047594545922305135 0.0054026241317211227 9.5000000000000018 0.017108309750450221 2.5000000000000004 0.017108309750450221 0.014921533316182147 99.500000000000014 78.500000000000014 101.50000000000001 0.0050167224080267568 0.00090043735528685378 0.017108309750450221 0.01247748906611783 0.0043735528685361477 24.500000000000004 0.0043735528685361477 0.0059171597633136111 0.012091587342423464 995.00000000000011 0.011319783895034732 210.50000000000003 298.50000000000006 2.5000000000000004 63.500000000000007 0.0032158476974530488
decision_type=2 2 2 2 2 2 2 2 2 2 2 2 2 2 2 2 2 2 2 2 2 2 2 2 2 2 2 2 2 2
left_child=1 2 8 4 -4 -5 17 -8 16 10 12 -12 18 14 -14 -15 20 23 -10 -20 -1 -22 -23 24 -2 -11 -27 28 -19 -17
right_child=6 -3 3 5 -6 -7 7 -9 9 25 11 -13 13 15 -16 29 -18 27 19 -21 21 22 -24 -25 -26 26 -28 -29 -30 -31
leaf_value=-4053.6137750192852 -4476.770243714348 141659.11374999999 150121.86273437503 -71704.442304687502 -1323.5994736493644 4571.8924601236977 -80839.530812026525 -1075.9627306774685 -1662.8518966375614 -2327.8122855617812 171127.4967261905 -26600.574819711539 117545.346875 42229.272520380437 57466.982617187503 4321.802182617188 -2366.0549056648647 17334.354228515625 -33762.236443865746 -8311.4620278695929 -53117.364701704544 -2592.6571585056004 -16601.528955666417 -17521.099895276522 -16102.921757368607 21620.9073828125 -1637.9942954009434 -2274.87635249205 -2614.4683933423912 -6947.3407392094277
leaf_weight=119 189 20 40 20 59 24 33 70 51 891 21 26 20 23 32 30 852 20 27 65 22 113 83 38 33 20 53 753 23 117
leaf_count=119 189 20 40 20 59 24 33 70 51 891 21 26 20 23 32 30 852 20 27 65 22 113 83 38 33 20 53 753 23 117
internal_value=-3.10984e-05 2277.4 1248 32184.7 59866.5 -30099.2 -5360.45 -26631.3 -476.742 2990.48 14182.9 61746 8058.38 20170.9 80574 1694.64 -4489.27 -3285.73 -10745.7 -15780.7 -9857.15 -13025.1 -8524.99 -7858.88 -6204.98 -1793.03 4734.31 -1791.99 6664.05 -4647.52
internal_weight=3887 2728 2708 143 99 44 1159 103 2565 1376 412 47 365 222 52 170 1189 1056 143 92 337 218 196 260 222 964 73 796 43 147
