tree
version=v4
num_class=1
num_tree_per_iteration=1
label_index=0
max_feature_idx=5
objective=regression
feature_names=country location_freq bedrooms bathrooms area_sqm property_type
feature_infos=-1:3:1:0:2 [1.7918577981651377e-05:0.046624139908256881] [1:100] [1:100] [0.92902266815310297:62000000] -1:21:20:34:0:14:15:17:33:38:27:22:37:8:35:11:5:3:2:41:23:47:10:42:25:39
tree_sizes=2785 2810 2819 2843 2817 2819 2816 2842 2824 2841 2803 2825 2807 2829 2812 2816 2835 2797 2829 2842 2820 2817 2815 2811 2834 2791 2816 2811 2830 2874 2821 2848 2850 2797 2821 2844 2822 2835 2862 2872 2834 2821 2811 2851 2845 2791 2863 2818 2864 2882 2867 2836 2854 2812 2915 2839 2831 2850 2793 2822 2801 2811 2813 2800 2852 2789 2808 2830 2806 2844 2843 2821 2856 2838 2883 2841 2815 2870 2886 2895 2884 2860 2870 2780 2831 2879 2876 2844 2871 2839 2780 2824 2828 2825 2829 2880 2826 2878 2836 2840 2848 2831 2858 2833 2794 2851 2809 2840 2829 2836 2798 2863 2861 2840 2890 2854 2796 2840 2844 2900 2801 2772 2838 2868 2861 2790 2871 2788 2812 2863 2831 2871 2796 2780 2849 2872 2849 2792 2773 2783 2820 2900 2816 2821 2817 2876 2793 2807 2868 2854 2795 2789 2821 2780 2873 2800 2861 2865 2799 2856 2773 2876 2845 2798 2862 2821 2803 2800 2827 2797 2832 2842 2821 2811 2797 2890 2808 2841 2804 2899 2850 2836 2804 2792 2808 2789 2796 2832 2822 2795 2871 2810 2817 2795 2800 2845 2820 2786 2840 2868 2811 2776 2819 2841 2818 2825 2836 2768 2793 2831 2835 2809 2837 2826 2839 2828 2822 2810 2805 2847 2879 2829 2814 2826 2872 2840 2864 2820 2824 2829 2833 2829 2885 2846

Tree=0
num_leaves=31
num_cat=0
split_feature=4 1 1 1 3 3 4 4 4 1 4 4 2 3 1 4 2 3 1 2 4 1 1 1 1 1 4 1 1 1
split_gain=7.68448e+15 2.60619e+15 1.82209e+15 2.40208e+15 1.37098e+15 9.64716e+14 6.99338e+14 4.88173e+14 3.85605e+14 3.3674e+14 6.91347e+14 3.3084e+14 3.12344e+14 3.11388e+14 2.60567e+14 3.82025e+14 2.20522e+14 2.00593e+14 2.0252e+14 1.51582e+14 1.98539e+14 1.33771e+14 2.259e+14 2.00632e+14 1.78245e+14 4.7164e+14 1.2673e+14 1.23008e+14 1.08915e+14 1.03847e+14
threshold=272.50000000000006 0.0034493262614678903 0.0043273365825688076 0.0040585579128440373 5.5000000000000009 9.5000000000000018 130.70358890247974 420.50000000000006 602.00000000000011 0.0032611811926605509 127.37638785161447 480.50000000000006 10.500000000000002 5.5000000000000009 0.011933772935779819 4748.0000000000009 3.5000000000000004 2.5000000000000004 0.032844753440366976 4.5000000000000009 955.00000000000011 0.0066836295871559644 0.010571961009174314 0.0099448107798165153 0.019343104931192664 0.021636682912844037 72.008630548569897 0.028624928325688078 0.045468391628440373 0.042010106077981661
decision_type=10 2 2 2 2 2 10 10 10 2 10 10 2 2 2 10 2 2 2 2 10 2 2 2 2 2 8 2 2 2
left_child=4 11 3 -3 9 8 26 -7 17 -1 16 -2 -9 14 -10 27 -11 -4 21 -13 -21 -19 23 -23 -24 -26 -6 -16 29 -8
right_child=1 2 5 -5 6 7 28 12 13 10 -12 19 -14 -15 15 -17 -18 18 -20 20 -22 22 24 -25 25 -27 -28 -29 -30 -31
leaf_value=525604.33188635798 541763.28775314998 643914.40233365889 580102.27818257967 1311327.7784840711 546923.56318304373 689443.42351505999 606262.77047668211 980752.77986528096 620030.85835686978 532088.46427440341 565451.96829582006 580098.05280922051 789114.08185127575 825916.63155059912 744313.13144278806 887070.70419771294 540790.46536055102 572677.90825976385 601816.74265490659 608034.94861989678 741815.29482646892 700825.23056239635 588381.34721402475 895607.16737830173 894609.35640004091 644619.76799586136 564081.4376211355 658594.13516340381 677984.85539691884 552973.68415089184
leaf_weight=5877 489 28 177 26 2138 99 756 30 140 14070 2234 233 73 37 59 26 15087 32 185 96 39 39 66 20 23 105 2167 144 47 104
leaf_count=5877 489 28 177 26 2138 99 756 30 140 14070 2234 233 73 37 59 26 15087 32 185 96 39 39 66 20 23 105 2167 144 47 104
internal_value=544632 636497 680874 965262 539948 668638 563967 768727 649437 536589 538645 568713 844931 687633 673767 706620 536591 625469 642554 604524 646683 668997 681180 766853 655125 689540 555560 683508 603869 599819
internal_weight=44646 2166 1309 54 42480 1255 5212 202 1053 37268 31391 857 103 406 369 229 29157 647 470 368 135 285 253 59 194 128 4305 203 907 860
internal_count=44646 2166 1309 54 42480 1255 5212 202 1053 37268 31391 857 103 406 369 229 29157 647 470 368 135 285 253 59 194 128 4305 203 907 860
is_linear=0
shrinkage=1


Tree=1
num_leaves=31
num_cat=0
split_feature=4 1 1 1 3 3 4 4 4 1 4 4 2 3 1 4 2 3 1 2 4 1 1 1 1 1 2 4 1 4
split_gain=6.93525e+15 2.35209e+15 1.64444e+15 2.16788e+15 1.23731e+15 8.70656e+14 6.31153e+14 4.40576e+14 3.48009e+14 3.03908e+14 6.2394e+14 2.98583e+14 2.81891e+14 2.81027e+14 2.35162e+14 3.44778e+14 1.99021e+14 1.81035e+14 1.82774e+14 1.36803e+14 1.80193e+14 1.20729e+14 2.03875e+14 1.8107e+14 1.60866e+14 4.25655e+14 1.18461e+14 1.14374e+14 1.11015e+14 1.03738e+14
threshold=272.50000000000006 0.0034493262614678903 0.0043273365825688076 0.0040585579128440373 5.5000000000000009 9.5000000000000018 130.70358890247974 420.50000000000006 602.00000000000011 0.0032611811926605509 127.37638785161447 480.50000000000006 10.500000000000002 5.5000000000000009 0.011933772935779819 4748.0000000000009 3.5000000000000004 2.5000000000000004 0.032844753440366976 4.5000000000000009 779.50000000000011 0.0066836295871559644 0.010571961009174314 0.0099448107798165153 0.019343104931192664 0.021636682912844037 5.5000000000000009 72.008630548569897 0.028624928325688078 174.12123056151918
decision_type=10 2 2 2 2 2 10 10 10 2 10 10 2 2 2 10 2 2 2 2 10 2 2 2 2 2 2 8 2 10
left_child=4 11 3 -3 9 8 27 -7 17 -1 16 -2 -9 14 -10 28 -11 -4 21 -13 -21 -19 23 -23 -24 -26 -22 -6 -16 -8
right_child=1 2 5 -5 6 7 29 12 13 10 -12 19 -14 -15 15 -17 -18 18 -20 20 26 22 24 -25 25 -27 -28 -29 -30 -31
leaf_value=-18076.169402980628 -2725.1606613190384 94318.400781250006 33696.880498819301 728361.1009615385 2177.1007910961298 137570.97159682767 39752.671145892964 414314.85968749999 71629.031610630584 -11916.243304046546 19779.085972727211 33692.867101998389 232258.09794252994 267220.52010135137 189697.19420683265 325316.8863581731 -3649.3421684276773 26643.728460693361 54325.622341638518 39608.546132884308 226789.49906754034 148383.69094551282 41561.99642260003 333426.52531250002 332478.60889945657 94988.496458333335 93448.614784071178 18477.081378300576 108264.14670179156 73581.149062896802
leaf_weight=5877 489 28 177 26 2138 99 464 30 140 14070 2234 233 73 37 59 26 15087 32 185 68 31 39 66 20 23 105 36 2167 144 443
leaf_count=5877 489 28 177 26 2138 99 464 30 140 14070 2234 233 73 37 59 26 15087 32 185 68 31 39 66 20 23 105 36 2167 144 443
internal_value=-0.000172234 87271.5 129430 399598 -4449.86 117806 18368.4 212890 99565.2 -7641.04 -5687.38 22877.3 285284 135851 122679 153888 -7638.62 76795.3 93026 56897.9 96948.2 118147 129721 211110 104969 137663 155144 10382 131932 56275.3
internal_weight=44646 2166 1309 54 42480 1255 5212 202 1053 37268 31391 857 103 406 369 229 29157 647 470 368 135 285 253 59 194 128 67 4305 203 907
internal_count=44646 2166 1309 54 42480 1255 5212 202 1053 37268 31391 857 103 406 369 229 29157 647 470 368 135 285 253 59 194 128 67 4305 203 907
is_linear=0
shrinkage=0.05


Tree=2
num_leaves=31
num_cat=0
split_feature=4 3 2 1 3 4 1 4 1 1 4 1 1 4 1 2 1 2 1 4 2 3 4 1 4 4 4 1 2 1
split_gain=6.26938e+15 2.04029e+15 1.26241e+15 9.89145e+14 9.4255e+14 5.90098e+14 4.68179e+14 4.36665e+14 3.86464e+14 4.38891e+14 3.81641e+14 4.89128e+14 3.55089e+14 3.40659e+14 2.78848e+14 2.55776e+14 2.48169e+14 2.40427e+14 2.39466e+14 1.88103e+14 2.88501e+14 1.7893e+14 1.68965e+14 1.56062e+14 1.39392e+14 1.33241e+14 1.28286e+14 1.16173e+14 1.02856e+14 1.02719e+14
threshold=300.53608048777136 9.5000000000000018 7.5000000000000009 0.0040585579128440373 55.500000000000007 125.01757610453264 0.010571961009174314 4748.0000000000009 0.0066836295871559644 0.005339736238532111 139.48765205362346 0.0034493262614678903 0.045468391628440373 1002.5000000000001 0.011933772935779819 12.500000000000002 0.0032611811926605509 3.5000000000000004 0.032844753440366976 779.50000000000011 4.5000000000000009 5.5000000000000009 258.12721786829519 0.0099448107798165153 480.50000000000006 69.997429279740189 602.00000000000011 0.019343104931192664 3.5000000000000004 0.016395498853211014
decision_type=10 2 2 2 2 10 2 10 2 2 10 2 2 10 2 2 2 2 2 10 2 2 10 2 10 10 10 2 2 2
left_child=2 3 10 19 12 -4 8 14 9 -5 16 -12 13 15 -8 29 -1 -18 24 -2 -21 23 -7 -10 -16 -19 -20 -26 -13 -3
right_child=1 4 5 6 -6 22 7 -9 21 -11 11 28 -14 -15 18 -17 17 25 26 20 -22 -23 -24 -25 27 -27 -28 -29 -30 -31
leaf_value=-18923.220018596552 12870.004768952735 140376.3277157738 13584.65922469342 276095.44572172622 567534.72203125001 54232.788962859282 21530.306978911358 255425.25267269739 146328.92858231708 -3857.1625964936757 -11755.354034423828 9799.1507811721494 403834.40078125003 357911.46623641305 97705.04460597827 89277.023979749181 -11114.864064846757 -5503.7639032510515 44745.726742029678 30621.889018773323 164920.2184655976 364230.89337499999 123220.87023708232 301139.09184027783 104760.62090845354 3807.7049762955776 105592.52257508117 210451.25504056492 33010.88399285647 278828.07571328658
leaf_weight=4473 533 21 2337 21 20 732 153 38 41 42 1613 735 20 23 115 76 14327 11292 198 134 57 25 101 27 39 5823 154 78 1361 37
leaf_count=4473 533 21 2337 21 20 732 153 38 41 42 1613 735 20 23 115 76 14327 11292 198 134 57 25 101 27 39 5823 154 78 1361 37
internal_value=6.2483e-05 90066.2 -3897.8 71959.9 242177 26464.1 106047 90139.5 185077 89460.4 -6326.81 8942.79 205414 180137 81617.3 149624 -7903.73 -6336.08 97359.3 28126.4 70700.4 249850 62597.5 207798 136797 -2335.74 71366.2 175221 24871.3 228699
internal_weight=44646 1852 42794 1655 197 3170 931 775 156 63 39624 3709 177 157 737 134 35915 31442 584 724 191 93 833 68 232 17115 352 117 2096 58
internal_count=44646 1852 42794 1655 197 3170 931 775 156 63 39624 3709 177 157 737 134 35915 31442 584 724 191 93 833 68 232 17115 352 117 2096 58
is_linear=0
shrinkage=0.05


Tree=3
num_leaves=31
num_cat=1
split_feature=4 1 1 1 2 3 4 4 4 4 1 4 2 3 1 4 1 1 2 1 1 2 0 4 4 4 1 1 1 3
split_gain=5.65997e+15 1.93463e+15 1.43903e+15 1.86707e+15 1.0283e+15 7.06042e+14 5.25697e+14 3.71189e+14 2.88905e+14 2.50829e+14 3.40002e+14 2.50066e+14 2.47981e+14 2.40344e+14 1.99415e+14 2.91511e+14 1.84707e+14 1.57108e+14 1.51174e+14 1.40988e+14 3.60086e+14 1.40411e+14 1.23418e+14 2.41498e+14 1.21383e+14 9.78848e+13 9.34605e+13 2.04414e+14 1.14051e+14 8.91999e+13
threshold=272.50000000000006 0.0034493262614678903 0.0043273365825688076 0.0040585579128440373 5.5000000000000009 9.5000000000000018 113.04006736044904 420.50000000000006 602.00000000000011 139.48765205362346 0.0066836295871559644 480.50000000000006 10.500000000000002 5.5000000000000009 0.019343104931192664 4748.0000000000009 0.0032611811926605509 0.028624928325688078 3.5000000000000004 0.021636682912844037 0.019343104931192664 3.5000000000000004 0 852.50000000000011 174.12123056151918 62.011410087497055 0.0066836295871559644 0.010571961009174314 0.0093982941513761475 10.500000000000002
decision_type=10 2 2 2 2 2 10 10 10 10 2 10 2 2 2 10 2 2 2 2 2 2 1 10 10 8 2 2 2 2
left_child=4 11 3 -3 9 8 25 29 18 16 -11 -2 -9 14 -10 17 -1 -16 -4 20 26 -18 23 -13 -8 -6 -20 28 -28 -7
right_child=1 2 5 -5 6 7 24 12 13 10 -12 22 -14 -15 15 -17 21 -19 19 -21 -22 -23 -24 -25 -26 -27 27 -29 -30 -31
leaf_value=-18053.288151738474 -2990.6936764278298 86497.681291852685 36594.845364102446 674910.14335937507 -1233.0101835511314 214160.55569196428 30631.720291099868 379296.66201171878 69105.536377348733 -8922.6040038849351 23852.09706225769 53906.716857172818 208540.6513270548 244325.37892736486 211612.64107730263 303266.59812500002 -10559.120616657607 97316.447835286468 20839.549514770508 64607.119078514137 322808.00317382812 -3566.5132005603914 17863.389976003549 193665.8048076923 60969.883929248055 13251.271670706308 129980.97484611743 46146.004711914065 281297.45460937498 98065.724501702731
leaf_weight=4403 489 28 231 26 2131 21 968 30 162 1718 1467 149 73 37 38 25 14327 144 32 261 20 14389 180 39 500 2577 33 50 20 78
leaf_count=4403 489 28 231 26 2131 21 968 30 162 1718 1467 149 73 37 38 25 14327 144 32 261 20 14389 180 39 500 2577 33 50 20 78
internal_value=0.000129034 78840.4 117075 369807 -4019.97 106201 14840.9 191826 89775.1 -7228.56 6173.31 20439.5 258275 122837 110655 143172 -8517.4 121180 69028.6 87038.7 124811 -7055.27 51573.7 78712.5 40964.9 6695.2 95477.7 118666 187082 122692
internal_weight=44646 2166 1309 54 42480 1255 6176 202 1053 36304 3185 857 103 406 369 207 33119 182 647 416 155 28716 368 188 1468 4708 135 103 53 99
internal_count=44646 2166 1309 54 42480 1255 6176 202 1053 36304 3185 857 103 406 369 207 33119 182 647 416 155 28716 368 188 1468 4708 135 103 53 99
cat_boundaries=0 1
cat_threshold=2
is_linear=0
shrinkage=0.05


Tree=4
num_leaves=31
num_cat=0
split_feature=4 3 3 1 3 4 1 4 1 1 1 4 1 4 1 2 1 1 2 4 1 4 2 3 1 4 4 2 1 3
split_gain=5.12027e+15 1.65874e+15 1.04844e+15 8.07159e+14 7.90233e+14 5.44508e+14 4.05827e+14 3.60663e+14 3.43132e+14 3.66646e+14 3.163e+14 3.08477e+14 4.03667e+14 3.04693e+14 2.39842e+14 2.29314e+14 2.16974e+14 6.74462e+14 2.16836e+14 1.66178e+14 1.58616e+14 1.56423e+14 2.45964e+14 1.5215e+14 1.3813e+14 1.23002e+14 1.18142e+14 9.71612e+13 8.70763e+13 7.7525e+13
threshold=300.53608048777136 9.5000000000000018 7.5000000000000009 0.0040585579128440373 55.500000000000007 118.00043154601362 0.010571961009174314 4748.0000000000009 0.0066836295871559644 0.005339736238532111 0.045468391628440373 139.48765205362346 0.0034493262614678903 1002.5000000000001 0.011933772935779819 4.5000000000000009 0.021636682912844037 0.019343104931192664 12.500000000000002 258.12721786829519 0.0066836295871559644 779.50000000000011 4.5000000000000009 5.5000000000000009 0.0099448107798165153 602.00000000000011 84.015000000000015 3.5000000000000004 0.016395498853211014 2.5000000000000004
decision_type=10 2 2 2 2 10 2 10 2 2 2 10 2 10 2 2 2 2 2 10 2 10 2 2 2 10 10 2 2 2
left_child=2 3 11 21 10 -4 8 14 9 -5 13 15 -13 18 -8 20 17 -16 28 -7 -1 -2 -23 24 -10 -18 29 -14 -3 -22
right_child=1 4 5 6 -6 19 7 -9 23 -11 -12 12 27 -15 16 -17 25 -19 -20 -21 26 22 -24 -25 -26 -27 -28 -29 -30 -31
leaf_value=-15546.350207813737 11560.296987497069 123658.94601469494 10852.759920576575 249927.7369047619 516458.15673828125 50866.181039009993 17579.620582809948 231265.50386513161 133867.01939786586 -5948.0629534040181 372154.96570312505 -10822.076810272141 7416.392827437242 329157.142357337 70092.654431870411 1887.1267801858478 53148.665500215233 358085.09573511587 76607.805093865652 121783.24983547046 -13480.188840724002 27290.338677158645 151293.38324424342 335948.93825000001 279511.76357060188 104151.23607274424 2106.0074629053647 29903.245679607498 251133.51483319257 -6420.817609040133
leaf_weight=6732 533 21 1885 21 20 809 153 38 41 42 20 1616 727 23 68 6046 285 29 76 92 5246 134 57 25 27 202 3189 1416 37 15036
leaf_count=6732 533 21 1885 21 20 809 153 38 41 42 20 1616 727 23 68 6046 285 29 76 92 5246 134 57 25 27 202 3189 1416 37 15036
internal_value=0.199962 81394.9 -3522.33 65069.2 218547 26135.1 95861.7 81050.9 169441 79343.9 184885 -5587.55 8046.35 161029 73305.8 -7001.38 87905.3 156193 132171 58107.4 -8780.67 25472.7 64296.5 230474 191697 74303.7 -6840.12 22274.7 204979 -8246.75
internal_weight=44646 1852 42794 1655 197 2786 931 775 156 63 177 40008 3759 157 737 36249 584 97 134 901 30203 724 191 93 68 487 23471 2143 58 20282
internal_count=44646 1852 42794 1655 197 2786 931 775 156 63 177 40008 3759 157 737 36249 584 97 134 901 30203 724 191 93 68 487 23471 2143 58 20282
is_linear=0
shrinkage=0.05


Tree=5
num_leaves=31
num_cat=1
split_feature=4 3 3 1 3 4 1 4 1 4 1 1 1 4 1 1 1 4 1 1 1 3 2 4 0 4 4 1 2 3
split_gain=4.62185e+15 1.62539e+15 8.71981e+14 8.41425e+14 7.58268e+14 4.45081e+14 4.02807e+14 3.51884e+14 3.01525e+14 2.77498e+14 2.50509e+14 4.98494e+14 2.05411e+14 4.29071e+14 2.03423e+14 3.41443e+14 5.53208e+14 1.87877e+14 1.82567e+14 3.85621e+14 1.73141e+14 1.50069e+14 1.29043e+14 1.2851e+14 1.16743e+14 2.2327e+14 1.12927e+14 9.32789e+13 8.28674e+13 7.22677e+13
threshold=277.41100847622596 9.5000000000000018 5.5000000000000009 0.0040585579128440373 55.500000000000007 112.06651802303978 0.010571961009174314 2661.5000000000005 0.045468391628440373 1002.5000000000001 0.0066836295871559644 0.0052053469036697254 0.0032611811926605509 120.00864124433922 0.015831063646788993 0.021636682912844037 0.019343104931192664 480.50000000000006 0.021636682912844037 0.019343104931192664 0.038722047018348631 5.5000000000000009 3.5000000000000004 174.12123056151918 0 852.50000000000011 602.00000000000011 0.0099448107798165153 3.5000000000000004 14.500000000000002
decision_type=10 2 2 2 2 10 2 10 2 10 2 2 2 10 2 2 2 10 2 2 2 2 2 10 1 10 10 2 2 2
left_child=2 3 12 17 8 -4 10 14 9 18 11 -5 -1 22 -8 16 -16 -2 19 -3 -9 27 -14 -7 25 -19 -17 -12 -15 -20
right_child=1 4 5 6 -6 23 7 20 -10 -11 21 -13 13 28 15 26 -18 24 29 -21 -22 -23 -24 -25 -26 -27 -28 -29 -30 -31
leaf_value=-14851.160349362717 -864.96613271182343 115461.65331669559 6959.3112647211201 279858.09964334237 490635.25445312506 29237.052732247324 17658.461509889035 99146.863353587978 353547.21890625003 312699.29245923914 124276.97660792152 -534.75115847120094 -9861.7064439003625 3808.2837053845274 68304.782130821084 47143.915912692974 331036.15419034095 50220.413897119812 131239.0353236607 367969.27559523814 272336.16873739922 311375.79490403394 -3172.3012836610237 61899.839118773874 14598.416135639392 189245.58963080513 95011.533299731193 239152.73624999999 22323.737151812082 43789.750987413194
leaf_weight=5887 485 54 3886 23 20 883 182 27 20 23 43 51 13952 995 51 365 33 146 42 21 31 26 14918 457 180 36 186 30 1539 54
leaf_count=5887 485 54 3886 23 20 883 182 27 20 23 43 51 13952 995 51 365 33 146 42 21 31 26 14918 457 180 36 186 30 1539 54
internal_value=0.189978 71892.1 -3599.73 56540.1 196217 15527.8 86492.7 72709.3 168701 149645 156207 86614.4 -6280.29 -4673.59 64261 77618 171521 19479.6 127713 186164 191714 208225 -6405.09 40376.5 46736.8 73672 63302.5 171486 15053.5 82048.8
internal_weight=44646 2129 42517 1895 234 5226 1048 875 214 194 173 74 37291 31404 817 635 84 847 171 75 58 99 28870 1340 362 182 551 73 2534 96
internal_count=44646 2129 42517 1895 234 5226 1048 875 214 194 173 74 37291 31404 817 635 84 847 171 75 58 99 28870 1340 362 182 551 73 2534 96
cat_boundaries=0 1
cat_threshold=2
is_linear=0
shrinkage=0.05


Tree=6
num_leaves=31
num_cat=0
split_feature=4 3 2 1 3 4 1 4 1 4 1 1 4 1 1 1 1 2 1 2 4 2 4 3 4 1 4 1 1 2
split_gain=4.18476e+15 1.35369e+15 8.75521e+14 6.64437e+14 6.42469e+14 4.02504e+14 2.56792e+14 2.52348e+14 3.23021e+14 2.47163e+14 2.27668e+14 3.98025e+14 3.0172e+14 2.18903e+14 1.96617e+14 1.89393e+14 1.88155e+14 1.8591e+14 1.70677e+14 1.62421e+14 1.55464e+14 1.82329e+14 1.41601e+14 1.23504e+14 1.1848e+14 1.14527e+14 1.0809e+14 9.62439e+13 9.3488e+13 8.93834e+13
threshold=300.53608048777136 9.5000000000000018 7.5000000000000009 0.0020068807339449547 55.500000000000007 174.12123056151918 0.045468391628440373 139.48765205362346 0.0034493262614678903 1002.5000000000001 0.010571961009174314 0.0066836295871559644 4748.0000000000009 0.0043273365825688076 0.011933772935779819 0.032844753440366976 0.0034493262614678903 15.500000000000002 0.0032611811926605509 3.5000000000000004 662.30500000000018 4.5000000000000009 89.000894982142924 5.5000000000000009 480.50000000000006 0.0099448107798165153 69.997429279740189 0.021636682912844037 0.045468391628440373 5.5000000000000009
decision_type=10 2 2 2 2 10 2 10 2 10 2 2 10 2 2 2 2 2 2 2 10 2 8 2 10 2 10 2 2 2
left_child=2 3 7 20 6 22 9 18 -9 17 11 13 14 16 -12 24 -5 27 -1 -20 -2 -22 -4 25 -16 -13 -21 -3 -10 -23
right_child=1 4 5 10 -6 -7 -8 8 28 -11 12 23 -14 -15 15 -17 -18 -19 19 26 21 29 -24 -25 -26 -27 -28 -29 -30 -31
leaf_value=-15627.790996180534 4178.5063504464288 232502.00622888515 5220.083275273756 55520.708819110579 466103.50171875005 68326.92931581079 335869.8515625 -9610.8586367205662 17790.233472725482 297064.32608695654 15711.195610415392 120959.81907452839 210643.03151726976 -913.40738525390634 78417.583884171196 56268.932822712988 256745.03213355655 60753.786266178875 -9117.0072064000669 -4754.6743799233918 23554.826913808851 171063.64955866887 28042.437862521616 303582.70345312502 149882.70097531049 253578.54004629632 3632.0559407824608 111989.36760416668 67331.068557617182 61807.608441840275
leaf_weight=4473 455 37 1549 26 20 410 20 1613 1996 23 153 41 38 56 115 352 21 67 14327 11292 154 39 1211 25 117 27 5823 30 100 36
leaf_count=4473 455 37 1549 26 20 410 20 1613 1996 23 153 41 38 56 115 352 21 67 14327 11292 154 39 1211 25 117 27 5823 30 100 36
internal_value=0.343986 73584.6 -3184.17 58836.3 197486 22100.7 167134 -5207.01 7209.52 145638 85426.1 133569 73250.6 65864.4 66166.6 79385.2 145429 119647 -6489.29 -5189.23 21089.5 54690 15233.8 208554 114458 173617 -1901.27 178541 20153.8 118621
internal_weight=44646 1852 42794 1655 197 3170 177 39624 3709 157 971 196 775 103 737 584 47 134 35915 31442 684 229 2760 93 232 68 17115 67 2096 75
internal_count=44646 1852 42794 1655 197 3170 177 39624 3709 157 971 196 775 103 737 584 47 134 35915 31442 684 229 2760 93 232 68 17115 67 2096 75
is_linear=0
shrinkage=0.05


Tree=7
num_leaves=31
num_cat=1
split_feature=4 1 1 1 3 3 4 4 4 2 4 3 1 4 1 4 2 1 0 4 3 1 3 1 1 4 1 1 1 1
split_gain=3.7824e+15 1.38977e+15 1.14339e+15 1.52491e+15 6.58348e+14 5.07057e+14 3.01232e+14 2.83181e+14 2.56507e+14 2.17682e+14 1.9083e+14 1.86609e+14 1.67524e+14 3.60856e+14 1.44675e+14 2.10417e+14 1.33936e+14 1.25686e+14 1.02006e+14 1.75708e+14 9.25584e+13 8.80071e+13 8.38637e+13 8.37401e+13 9.01037e+13 8.00197e+13 7.88514e+13 7.52606e+13 1.22789e+14 1.11809e+14
threshold=254.50000000000003 0.0034493262614678903 0.0043273365825688076 0.0040585579128440373 5.5000000000000009 9.5000000000000018 112.06651802303978 420.50000000000006 602.00000000000011 23.500000000000004 450.50000000000006 5.5000000000000009 0.0066836295871559644 96.01690194948624 0.019343104931192664 4748.0000000000009 3.5000000000000004 0.028624928325688078 0 852.50000000000011 10.500000000000002 0.02427071387614679 2.5000000000000004 0.045468391628440373 0.042010106077981661 165.11626789818527 0.039797161697247709 0.028624928325688078 0.045468391628440373 0.0066836295871559644
decision_type=10 2 2 2 2 2 10 10 10 2 10 2 2 10 2 10 2 2 1 10 2 2 2 2 2 10 2 2 2 2
left_child=4 10 3 -3 12 8 -6 20 16 21 -2 14 -1 22 -10 17 -4 -16 19 -12 -7 -9 -14 24 26 -15 -8 29 -29 -18
right_child=1 2 5 -5 6 7 23 9 11 -11 18 -13 13 25 15 -17 27 -19 -20 -21 -22 -23 -24 -25 -26 -27 -28 28 -30 -31
leaf_value=-11850.299429729797 -5196.6264347853357 66482.003030711203 24323.599578297933 593818.96730769228 6390.2228531893916 176267.23316532257 33121.868404088018 326659.52167968755 55712.832191297741 115640.07764727618 44581.182665105793 208886.72024387668 -11514.333338540988 6202.7184419881978 181001.00893297698 254815.68782031254 7717.9082982113487 78771.352985297315 11550.653946044922 162867.83023086941 76895.386372884124 211131.75854779413 -4583.3643156490043 83971.711406250004 -5954.8529281616211 23164.358180373056 96869.655039828445 32064.804205544788 137855.76767578124 100659.13745122787
leaf_weight=8691 545 29 270 26 3886 31 993 32 162 37 161 37 5690 3105 38 25 38 144 190 39 96 34 18734 80 144 896 51 192 32 218
leaf_count=8691 545 29 270 26 3886 31 993 32 162 37 161 37 5690 3105 38 25 38 144 190 39 96 34 18734 80 144 896 51 192 32 218
internal_value=0.326807 61384.3 92187.2 315769 -3450.07 83314.9 13295.1 151115 69825.2 212721 13911.6 101837 -5775.34 -3917.91 91102.9 118800 52496.2 100116 40614.2 64425.8 101152 267145 -6198.06 34456.3 31121.9 10001.2 36236 68343.3 47177.8 86863.2
internal_weight=44646 2376 1441 55 42270 1386 5154 230 1156 103 935 406 37116 28425 369 207 750 182 390 200 127 66 24424 1268 1188 4001 1044 480 224 256
internal_count=44646 2376 1441 55 42270 1386 5154 230 1156 103 935 406 37116 28425 369 207 750 182 390 200 127 66 24424 1268 1188 4001 1044 480 224 256
cat_boundaries=0 1
cat_threshold=2
is_linear=0
shrinkage=0.05


Tree=8
num_leaves=31
num_cat=0
split_feature=4 3 2 1 3 4 1 4 4 1 1 1 4 1 1 1 1 1 1 3 1 4 2 4 1 4 3 1 4 1
split_gain=3.41878e+15 1.09667e+15 7.30072e+14 5.44163e+14 5.38963e+14 3.37697e+14 2.32063e+14 2.19943e+14 2.08169e+14 2.62114e+14 2.05482e+14 3.53549e+14 2.54807e+14 1.86095e+14 1.70664e+14 1.79208e+14 1.60528e+14 1.5152e+14 1.49451e+14 1.45377e+14 1.4526e+14 1.30636e+14 1.74112e+14 1.1921e+14 1.12046e+14 1.3147e+14 1.05226e+14 1.04313e+14 1.00153e+14 8.01032e+13
threshold=300.53608048777136 9.5000000000000018 7.5000000000000009 0.0020068807339449547 55.500000000000007 174.12123056151918 0.045468391628440373 1002.5000000000001 139.48765205362346 0.0034493262614678903 0.010571961009174314 0.0066836295871559644 2661.5000000000005 0.0043273365825688076 0.011933772935779819 0.032844753440366976 0.021636682912844037 0.038722047018348631 0.0034493262614678903 2.5000000000000004 0.015831063646788993 779.50000000000011 4.5000000000000009 89.000894982142924 0.0028848910550458716 69.997429279740189 5.5000000000000009 0.0099448107798165153 480.50000000000006 0.045468391628440373
decision_type=10 2 2 2 2 10 2 10 10 2 2 2 10 2 2 2 2 2 2 2 2 10 2 8 2 10 2 2 10 2
left_child=2 3 8 21 6 23 7 16 19 -10 11 13 14 18 -12 28 20 -14 -5 -1 -3 -2 -23 -4 -21 -26 27 -13 -16 -11
right_child=1 4 5 10 -6 -7 -8 -9 9 29 12 26 17 -15 15 -17 -18 -19 -20 24 -22 22 -24 -25 25 -27 -28 -29 -30 -31
leaf_value=-11344.410828800506 5820.1120344970705 108310.51548247466 4733.6073025885053 52457.000232872604 424060.11121093755 62552.954023891551 310636.39000000001 272640.93892663042 -8599.5493315955082 16024.702532093606 9949.5472315436255 111204.80060737424 79939.624609375009 -2344.6550214494978 70734.104480245835 46734.312254115517 57470.203238075657 241954.82407699095 231794.73177083337 -14105.049126790203 272954.87511160714 22925.247653579714 128629.82375837055 25673.895223275777 -5335.1087938369792 2788.3282135427562 281422.50975000003 237771.7694155093 136440.03250542012 61882.189524108886
leaf_weight=9115 500 37 1549 26 20 410 20 23 1613 1996 149 41 27 56 115 336 76 31 21 2504 21 128 56 1211 17302 6994 25 27 117 100
leaf_count=9115 500 37 1549 26 20 410 20 23 1613 1996 149 41 27 56 115 336 76 31 21 2504 21 128 56 1211 17302 6994 25 27 117 100
internal_value=0.43983 66510.2 -2877.91 53235.6 178030 20211.4 150230 129796 -4725.1 6552.29 77298.8 123036 65731.7 59225.9 57577.6 70071.5 105278 166534 132587 -5889.74 167923 19075.7 55096.2 13921.5 -4034.53 -2996.64 193707 161459 103870 18212.6
internal_weight=44646 1852 42794 1655 197 3170 177 157 39624 3709 971 196 775 103 717 568 134 58 47 35915 58 684 184 2760 26800 24296 93 68 232 2096
internal_count=44646 1852 42794 1655 197 3170 177 157 39624 3709 971 196 775 103 717 568 134 58 47 35915 58 684 184 2760 26800 24296 93 68 232 2096
is_linear=0
shrinkage=0.05


Tree=9
num_leaves=31
num_cat=1
split_feature=4 1 1 1 2 3 4 4 4 2 3 4 1 4 1 4 3 2 1 0 4 3 4 1 1 1 1 1 1 1
split_gain=3.095e+15 1.14841e+15 9.73584e+14 1.34518e+15 5.50887e+14 4.1697e+14 2.34139e+14 2.30677e+14 2.17721e+14 2.01604e+14 1.60126e+14 1.59363e+14 1.40413e+14 3.04152e+14 1.22165e+14 1.75268e+14 1.17379e+14 1.13784e+14 1.05407e+14 9.15602e+13 1.47266e+14 8.19179e+13 8.1541e+13 7.59438e+13 7.32859e+13 9.24041e+13 8.29743e+13 1.2115e+14 7.01808e+13 6.5418e+13
threshold=254.50000000000003 0.0034493262614678903 0.0043273365825688076 0.0040585579128440373 5.5000000000000009 9.5000000000000018 100.09435955727518 420.50000000000006 602.00000000000011 23.500000000000004 5.5000000000000009 450.50000000000006 0.0066836295871559644 96.01690194948624 0.019343104931192664 4748.0000000000009 7.5000000000000009 3.5000000000000004 0.028624928325688078 0 852.50000000000011 10.500000000000002 165.11626789818527 0.02427071387614679 0.045468391628440373 0.042010106077981661 0.003933127866972478 0.0052053469036697254 0.039797161697247709 0.021636682912844037
decision_type=10 2 2 2 2 2 8 10 10 2 2 10 2 10 2 10 2 2 2 1 10 2 10 2 2 2 2 2 2 2
left_child=4 11 3 -3 12 8 -6 21 17 23 14 -2 -1 -14 -10 18 22 -4 -16 20 -13 -7 -15 -9 25 26 -8 -28 -29 -19
right_child=1 2 5 -5 6 7 24 9 10 -11 -12 19 13 16 15 -17 -18 29 -20 -21 -22 -23 -24 -25 -26 -27 27 28 -30 -31
leaf_value=-11022.372530541603 -5088.8277257068876 55704.652619881468 21176.14441333912 550991.30000000005 4444.233128204778 162395.58850176411 -11322.745366935422 300087.06374511722 50136.723726625794 98999.274482685825 191763.61281672298 41149.714779302943 -5825.0022898687821 4755.8730712160541 165128.96038240133 232245.36481249999 117405.27031250001 86562.234515844873 71509.343015882696 9444.9000535583509 149440.44435096157 68909.982823054001 22396.752586979437 192768.79479693246 64896.024667709484 -6074.4404791497573 101641.73591308594 25537.969203156863 77389.939504076086 48017.767313071439
leaf_weight=8657 545 29 270 26 4321 31 123 32 162 37 37 161 23699 2926 38 25 25 171 144 190 39 96 844 34 113 231 59 1203 69 309
leaf_count=8657 545 29 270 26 4321 31 123 32 162 37 37 161 23699 2926 38 25 25 171 144 190 39 96 844 34 113 231 59 1203 69 309
internal_value=0.417824 55527.2 83527.9 289840 -3120.75 75340.9 10753.4 136824 63108.1 192426 92600.5 12373.1 -5469.11 -3720.56 82657.3 108108 9421.26 47142.9 91056.3 36775 59301.3 91729.3 8705.18 244802 25915.6 23301.5 27968.5 31599.5 28350.7 61749.2
internal_weight=44646 2376 1441 55 42270 1386 6119 230 1156 103 406 935 36151 27494 369 207 3795 750 182 390 200 127 3770 66 1798 1685 1454 1331 1272 480
internal_count=44646 2376 1441 55 42270 1386 6119 230 1156 103 406 935 36151 27494 369 207 3795 750 182 390 200 127 3770 66 1798 1685 1454 1331 1272 480
cat_boundaries=0 1
cat_threshold=2
is_linear=0
shrinkage=0.05


Tree=10
num_leaves=31
num_cat=1
split_feature=4 1 1 3 3 4 1 1 3 4 1 1 4 1 4 1 1 1 1 2 4 4 1 1 3 4 2 3 0 4
split_gain=2.79454e+15 9.90007e+14 1.5513e+15 5.52372e+14 3.7486e+14 2.78771e+14 1.97131e+14 2.15069e+14 1.85449e+14 2.00583e+14 1.66091e+14 1.35735e+14 1.32153e+14 2.47661e+14 1.12167e+14 1.11864e+14 1.78929e+14 2.45897e+14 4.39852e+14 9.83933e+13 1.01017e+14 9.82216e+13 1.83677e+14 8.48089e+13 8.43923e+13 8.35507e+13 1.18825e+14 8.246e+13 8.20609e+13 1.30665e+14
threshold=277.41100847622596 0.0037987385321100924 0.0043273365825688076 5.5000000000000009 9.5000000000000018 130.70358890247974 0.045468391628440373 0.021636682912844037 2.5000000000000004 1089.0000000000002 0.019343104931192664 0.028624928325688078 85.243282403939887 0.0066836295871559644 480.50000000000006 0.0066836295871559644 0.010571961009174314 0.019343104931192664 0.021636682912844037 2.5000000000000004 1760.5000000000002 480.50000000000006 0.0099448107798165153 0.0034493262614678903 2.5000000000000004 480.50000000000006 20.500000000000004 3.2500000000000004 0 852.50000000000011
decision_type=10 2 2 2 2 10 2 2 2 10 2 2 10 2 10 2 2 2 2 2 10 10 2 2 2 10 2 2 1 10
left_child=3 14 -3 12 8 -5 7 10 19 11 -6 15 24 -14 -2 -10 21 -18 -19 20 -4 22 -17 -7 -1 -9 -27 -20 29 -16
right_child=1 2 4 5 6 23 -8 25 9 -11 -12 -13 13 -15 28 16 17 18 27 -21 -22 -23 -24 -25 -26 26 -28 -29 -30 -31
leaf_value=-11394.642995135935 -1130.0999396014067 417248.40496323531 34049.66459221203 7083.652007824835 135566.23852678572 -25274.514276960785 287486.049375 46615.386986940299 2875.2422905815974 135966.96740478516 313432.5836309524 38391.361755969927 -8488.3408187923033 7417.1090890758605 39166.0691167025 43250.229791666672 14729.303627831045 298925.27430555556 123772.6027162064 -21801.413705842395 133408.46096443964 241311.38455528847 238867.41046874999 41065.525578123074 -5072.1827511616584 206082.23873197116 51799.9404296875 32061.88152926261 9312.1227871192896 141968.42000701124
leaf_weight=7130 489 34 217 4305 35 51 20 67 36 120 21 265 4565 5276 149 30 99 27 43 69 29 26 20 870 20320 26 24 57 187 39
leaf_count=7130 489 34 217 4305 35 51 20 67 36 120 21 265 4565 5276 149 30 99 27 43 69 29 26 20 870 20320 26 24 57 187 39
internal_value=0.502757 55902.5 84080.7 -2798.74 74878.7 12425 138866 121685 62981.2 76931 202266 65182.6 -4932.21 38.9586 14646.3 86187.6 96118.8 73800.6 119848 30962.9 45762.7 162486 121497 37392 -6714.41 83116 132027 71497.5 35218.7 57436.9
internal_weight=44646 2129 1265 42517 1231 5226 193 173 1038 723 56 603 37291 9841 864 338 302 226 127 315 246 76 50 921 27450 117 50 100 375 188
internal_count=44646 2129 1265 42517 1231 5226 193 173 1038 723 56 603 37291 9841 864 338 302 226 127 315 246 76 50 921 27450 117 50 100 375 188
cat_boundaries=0 1
cat_threshold=2
is_linear=0
shrinkage=0.05


Tree=11
num_leaves=31
num_cat=0
split_feature=4 3 3 4 4 4 1 1 1 4 2 4 1 1 1 1 4 4 4 1 1 1 4 1 1 1 1 1 4 1
split_gain=2.5451e+15 7.38786e+14 6.79589e+14 4.76822e+14 4.47324e+14 2.88809e+14 2.58021e+14 2.05891e+14 3.20349e+14 1.56685e+14 1.38232e+14 1.34963e+14 1.24017e+14 1.05784e+14 1.59907e+14 1.01507e+14 1.25155e+14 1.00414e+14 9.54847e+13 9.13186e+13 2.70905e+14 1.21515e+14 1.20684e+14 7.22496e+13 1.02819e+14 1.33609e+14 7.14772e+13 9.65826e+13 6.88019e+13 6.46052e+13
threshold=433.50000000000006 9.5000000000000018 7.5000000000000009 467.50000000000006 174.12123056151918 195.12899947682561 0.0034493262614678903 0.0066836295871559644 0.0093982941513761475 2661.5000000000005 4.5000000000000009 1089.0000000000002 0.038722047018348631 0.015831063646788993 0.021636682912844037 0.0066836295871559644 84.015000000000015 89.000894982142924 730.50000000000011 0.021636682912844037 0.019343104931192664 0.045468391628440373 300.53608048777136 0.026241757454128444 0.042010106077981661 0.039797161697247709 0.045468391628440373 0.032844753440366976 198.13000000000002 0.026241757454128444
decision_type=10 2 2 10 10 10 2 2 2 10 2 10 2 2 2 2 10 10 10 2 2 2 10 2 2 2 2 2 10 2
left_child=2 7 5 -3 17 10 -7 -2 -9 13 15 18 -11 -10 -15 -1 -17 -4 -5 20 22 23 -6 -21 25 28 27 29 -25 -8
right_child=1 3 4 11 19 6 26 8 9 12 -12 -13 -14 14 -16 16 -18 -19 -20 21 -22 -23 -24 24 -26 -27 -28 -29 -30 -31
leaf_value=-10901.305577154171 33928.400070517404 392665.86236413044 3429.2349773523638 144026.87530257428 36893.828375554491 -5408.3199980186573 31990.301795168794 221512.63365709462 22078.366924411152 71125.992456896565 2072.6505217432441 248696.23145380436 214974.8949344758 162333.245234375 61077.318522790367 -5926.5080506294025 3803.7883266041226 23936.621060886628 22520.356782670457 -3714.1228410050676 196846.19547872341 157961.79721467392 154074.63861400465 120720.7765625 -11004.499000108508 162121.66245404413 86490.305372936331 6786.6791309603113 25832.89062047888 76295.376318489245
leaf_weight=7793 448 23 1308 61 118 929 660 37 134 29 6475 23 31 45 292 20282 3948 1098 22 74 47 23 27 25 45 34 53 387 81 94
leaf_count=7793 448 23 1308 61 118 929 660 37 134 29 6475 23 31 45 292 20282 3948 1098 22 74 47 23 27 25 45 34 53 387 81 94
internal_value=0.581938 73583.6 -1936.21 186298 21534.3 -3600.26 14353 59272.5 79262.2 69350.2 -4590.3 141520 145448 59656.2 74598.1 -5937.54 -4341.07 12788 111820 65930.3 92527.4 47821.6 58713.7 38040.8 54742.8 75875.9 29728.5 27091.9 48212.1 37513.7
internal_weight=44646 1145 43501 129 2880 40621 2123 1016 568 531 38498 106 60 471 337 32023 24230 2406 83 474 192 282 145 259 185 140 1194 1141 106 754
internal_count=44646 1145 43501 129 2880 40621 2123 1016 568 531 38498 106 60 471 337 32023 24230 2406 83 474 192 282 145 259 185 140 1194 1141 106 754
is_linear=0
shrinkage=0.05


Tree=12
num_leaves=31
num_cat=0
split_feature=4 3 1 2 3 4 1 1 1 4 2 1 4 1 1 1 1 4 3 3 1 1 4 4 1 4 1 1 1 1
split_gain=2.29836e+15 7.66203e+14 6.05597e+14 5.08807e+14 2.88912e+14 2.38144e+14 1.99472e+14 2.41587e+14 2.55035e+14 1.88181e+14 1.837e+14 1.47818e+14 1.46966e+14 1.80605e+14 1.32594e+14 2.0278e+14 4.2581e+14 1.15085e+14 1.13978e+14 8.88352e+13 1.0072e+14 8.44475e+13 9.86144e+13 8.29226e+13 8.13149e+13 7.36554e+13 6.94737e+13 6.76747e+13 6.54072e+13 1.70916e+14
threshold=300.53608048777136 55.500000000000007 0.0034493262614678903 7.5000000000000009 9.5000000000000018 125.01757610453264 0.010571961009174314 0.0066836295871559644 0.0043273365825688076 4748.0000000000009 10.500000000000002 0.017631880733944959 138.08117276010253 0.0034493262614678903 0.015831063646788993 0.021636682912844037 0.019343104931192664 433.50000000000006 2.5000000000000004 5.5000000000000009 0.0099448107798165153 0.0028848910550458716 69.997429279740189 501.00000000000006 0.042010106077981661 258.12721786829519 0.045468391628440373 0.045468391628440373 0.021636682912844037 0.019343104931192664
decision_type=10 2 2 2 2 10 2 2 2 10 2 2 10 2 2 2 2 10 2 2 2 2 10 10 2 10 2 2 2 2
left_child=3 2 23 12 6 -5 7 8 -4 14 17 -12 18 -14 -8 16 -16 -6 -1 20 -9 -20 -23 -2 -13 26 28 -24 29 -7
right_child=1 -3 4 5 10 25 9 19 -10 -11 11 24 13 -15 15 -17 -18 -19 21 -21 -22 22 27 -25 -26 -27 -28 -29 -30 -31
leaf_value=-9724.2874410188087 533.5219300343806 362333.91703125002 196164.5982328869 8734.0948865179635 127074.26547639265 31229.686858138419 9379.5877531724163 88297.739453125003 -8155.7252441406254 161771.56871916121 216983.60853794642 40268.088045634926 -6945.0869075065975 15118.127852148438 43423.765704345707 47496.716812390718 286086.87481142243 274689.34067540325 -12028.083422970474 247904.03303906252 212665.80511429399 -4370.0394391722411 1339.910513690804 34459.01011167754 153877.59375 79896.676356551674 114615.31753305288 20871.40081157524 18271.596234688466 128727.6349715909
leaf_weight=9096 401 20 21 2337 23 246 173 41 56 38 21 63 1646 2125 48 487 29 31 2483 25 27 17302 6496 327 21 101 26 476 405 55
leaf_count=9096 401 20 21 2337 23 246 173 41 56 38 21 63 1646 2125 48 487 29 31 2483 25 27 17302 6496 327 21 101 26 476 405 55
internal_value=0.552871 54533.5 51173.2 -2359.47 74517.5 16916 64025.7 113074 47568 53266.8 136875 98333.1 -3901.55 5487.78 47672.2 59418 134816 211816 -4889.11 167310 137679 -3245.41 -2347.02 15772 68670.5 39870.4 34347.7 2673.39 31391.7 49044.9
internal_weight=44646 1852 1832 42794 1104 3170 945 170 77 775 159 105 39624 3771 737 564 77 54 35853 93 68 26757 24274 728 84 833 732 6972 706 301
internal_count=44646 1852 1832 42794 1104 3170 945 170 77 775 159 105 39624 3771 737 564 77 54 35853 93 68 26757 24274 728 84 833 732 6972 706 301
is_linear=0
shrinkage=0.05


Tree=13
num_leaves=31
num_cat=0
split_feature=4 3 3 4 4 4 1 4 3 1 1 4 2 2 4 1 1 4 1 4 4 1 1 1 2 1 1 1 4 1
split_gain=2.10039e+15 6.03433e+14 5.56409e+14 4.10317e+14 3.67355e+14 2.34807e+14 2.10389e+14 1.86967e+14 1.58835e+14 1.59317e+14 2.82099e+14 1.20679e+14 1.16642e+14 1.13286e+14 9.4435e+13 8.76389e+13 2.88938e+14 8.63507e+13 8.62093e+13 1.04712e+14 8.56075e+13 7.75481e+13 8.86403e+13 2.70088e+14 6.76003e+13 6.40467e+13 9.27769e+13 1.19709e+14 6.43938e+13 5.12542e+13
threshold=433.50000000000006 9.5000000000000018 7.5000000000000009 467.50000000000006 174.12123056151918 195.12899947682561 0.0034493262614678903 10026.000000000002 2.5000000000000004 0.0066836295871559644 0.0099448107798165153 1089.0000000000002 4.5000000000000009 2.5000000000000004 2661.5000000000005 0.0037987385321100924 0.005339736238532111 89.000894982142924 0.0066836295871559644 84.015000000000015 730.50000000000011 0.045468391628440373 0.021636682912844037 0.019343104931192664 3.5000000000000004 0.026241757454128444 0.042010106077981661 0.039797161697247709 198.13000000000002 0.0040585579128440373
decision_type=10 2 2 10 10 10 2 10 2 2 2 10 2 2 10 2 2 10 2 10 10 2 2 2 2 2 2 2 10 2
left_child=2 7 5 -3 17 12 -7 8 13 -10 -11 20 18 29 -12 -6 -17 -4 -1 -20 -5 22 23 -18 -8 -24 27 28 -27 -2
right_child=1 3 4 11 15 6 24 -9 9 10 14 -13 -14 -15 -16 16 21 -19 19 -21 -22 -23 25 -25 -26 26 -28 -29 -30 -31
leaf_value=-9969.3766089418477 -12508.304163240133 360149.56847826089 2873.4952615323782 129586.9510117828 -20192.821954345705 -4920.9482935113983 10597.265399549568 170977.21113873107 37287.219773314362 226430.39328613284 63898.261101877913 228521.84662873644 1963.2032737847408 -31641.781332360693 162961.28485576925 246501.30089460101 33701.559179687501 21890.658835581591 -5373.8359797124222 3526.4050288786889 14536.420951704546 145733.89895550272 -5291.4750131967912 181030.08733169883 35539.046816481758 113783.77790625 -12707.243771701389 151457.81911764707 21985.930608603398 52919.149568490102
leaf_weight=7793 38 23 1308 61 32 929 418 33 341 32 322 23 6475 83 26 21 92 1098 20282 3948 22 23 74 47 776 25 45 34 81 141
leaf_count=7793 38 23 1308 61 32 929 418 33 341 32 322 23 6475 83 26 21 92 1098 20282 3948 22 23 74 47 776 25 45 34 81 141
internal_value=0.525171 66846.5 -1758.94 168714 19478.2 -3264.64 12923.4 53912.6 49982.7 62098.4 84363.2 127176 -4157.35 16641.3 71299.5 59710.6 65495.5 11552.2 -5394.91 -3923.64 99091.6 56466.7 51308 83517.7 26807.3 34021.7 49747 69821.6 43636.4 39029.5
internal_weight=44646 1145 43501 129 2880 40621 2123 1016 983 721 380 106 38498 262 348 474 442 2406 32023 24230 83 421 398 139 1194 259 185 140 106 179
internal_count=44646 1145 43501 129 2880 40621 2123 1016 983 721 380 106 38498 262 348 474 442 2406 32023 24230 83 421 398 139 1194 259 185 140 106 179
is_linear=0
shrinkage=0.05


Tree=14
num_leaves=31
num_cat=0
split_feature=4 3 3 4 4 4 1 4 3 1 1 4 2 2 4 1 1 4 4 1 4 3 1 1 1 1 1 1 1 1
split_gain=1.8956e+15 5.44598e+14 5.02159e+14 3.70311e+14 3.31538e+14 2.11914e+14 1.89876e+14 1.68738e+14 1.43349e+14 1.43783e+14 2.54595e+14 1.08913e+14 1.0527e+14 1.02241e+14 8.93913e+13 7.90941e+13 2.60767e+14 7.872e+13 7.79315e+13 7.78039e+13 9.46296e+13 7.2089e+13 6.4481e+13 3.14774e+14 7.9335e+13 6.24392e+13 1.18547e+14 6.17821e+13 6.06456e+13 5.12535e+13
threshold=433.50000000000006 9.5000000000000018 7.5000000000000009 467.50000000000006 174.12123056151918 195.12899947682561 0.0034493262614678903 10026.000000000002 2.5000000000000004 0.0066836295871559644 0.0099448107798165153 1089.0000000000002 4.5000000000000009 2.5000000000000004 1089.0000000000002 0.0037987385321100924 0.005339736238532111 558.50000000000011 89.000894982142924 0.0066836295871559644 85.243282403939887 10.500000000000002 0.010571961009174314 0.0099448107798165153 0.045468391628440373 0.019343104931192664 0.032844753440366976 0.0043273365825688076 0.003933127866972478 0.046077623279816522
decision_type=10 2 2 10 10 10 2 10 2 2 2 10 2 2 10 2 2 10 10 2 10 2 2 2 2 2 2 2 2 2
left_child=2 7 5 -3 18 12 -7 8 13 -10 -11 17 19 -2 25 -6 -17 -5 -4 -1 -21 -18 23 27 -24 -12 -27 28 -8 -26
right_child=1 3 4 11 15 6 22 -9 9 10 14 -13 -14 -15 -16 16 21 -19 -20 20 -22 -23 24 -25 29 26 -28 -29 -30 -31
leaf_value=-9470.9077907652809 37078.046763704609 342142.07554347831 2729.8204174356724 168305.20493750001 -19183.181402587892 -4674.900994741648 23779.030859375001 162428.34419981061 35422.858895739781 215108.87467041018 12111.455789227553 217095.75661727242 1865.0430647377989 -30059.692026234821 107923.81022332702 234176.23203125002 78174.147046875005 62168.012685210131 20796.126099947462 -5073.8106233628914 3524.5113696016388 36192.53581562818 16047.103138078963 216458.57778125 139699.91231398811 117660.86810629402 34330.181477940641 14303.446331604369 130767.97807241588 39172.367150878905
leaf_weight=7793 179 23 1308 25 32 929 27 33 341 32 71 23 6475 83 99 21 175 58 1098 20436 3794 246 896 25 21 71 107 167 26 32
leaf_count=7793 179 23 1308 25 32 929 27 33 341 32 71 23 6475 83 99 21 175 58 1098 20436 3794 246 896 25 21 71 107 167 26 32
internal_value=0.498929 63504.2 -1671 160278 18504.3 -3101.41 12277.2 51217 47483.5 58993.5 80145 120817 -3949.48 15809.2 67734.5 56725.1 62220.7 94137 10974.5 -5125.17 -3727.46 53643.3 25467 48335.3 19563.1 51755.7 67568.8 29230.3 76264.2 79004
internal_weight=44646 1145 43501 129 2880 40621 2123 1016 983 721 380 106 38498 262 348 474 442 83 2406 32023 24230 421 1194 245 949 249 178 220 53 53
internal_count=44646 1145 43501 129 2880 40621 2123 1016 983 721 380 106 38498 262 348 474 442 83 2406 32023 24230 421 1194 245 949 249 178 220 53 53
is_linear=0
shrinkage=0.05


Tree=15
num_leaves=31
num_cat=0
split_feature=4 1 1 3 3 4 1 1 1 1 1 1 4 1 4 3 4 2 4 1 1 4 2 3 2 4 2 1 1 1
split_gain=1.71508e+15 6.69193e+14 1.67034e+15 3.14556e+14 2.4061e+14 2.90111e+14 1.85012e+14 7.87376e+14 2.36754e+14 2.1936e+14 3.2535e+14 1.59916e+14 1.44529e+14 1.5801e+14 1.43912e+14 9.96993e+13 9.38115e+13 1.21238e+14 8.97568e+13 8.58579e+13 8.43839e+13 1.62732e+14 8.35972e+13 7.71619e+13 7.11357e+13 8.14987e+13 6.87361e+13 6.70455e+13 7.86411e+13 6.91385e+13
threshold=254.50000000000003 0.0040585579128440373 0.0043273365825688076 5.5000000000000009 2.5000000000000004 2661.5000000000005 0.021636682912844037 0.019343104931192664 0.045468391628440373 0.010571961009174314 0.0066836295871559644 0.020973695527522939 480.50000000000006 0.0099448107798165153 100.09435955727518 9.5000000000000018 779.50000000000011 4.5000000000000009 1002.5000000000001 0.038722047018348631 0.0032611811926605509 120.00864124433922 5.5000000000000009 3.2500000000000004 2.5000000000000004 1760.5000000000002 3.5000000000000004 0.045468391628440373 0.042010106077981661 0.0040585579128440373
decision_type=10 2 2 2 2 10 2 2 2 2 2 2 10 2 8 2 10 2 10 2 2 10 2 2 2 10 2 2 2 2
left_child=3 16 -3 20 24 6 7 9 23 10 -6 -9 13 -12 -5 -10 -2 -18 -11 -7 -1 26 -19 -8 25 -4 -22 28 29 -16
right_child=1 2 4 14 5 19 8 11 15 18 12 -13 -14 -15 27 -17 17 22 -20 -21 21 -23 -24 -25 -26 -27 -28 -29 -30 -31
leaf_value=-9465.4393143929738 1164.6234330085824 460315.1711538462 22336.367373114423 3633.1489249075998 -4088.3643222656247 114931.67656250001 61516.120453365264 191527.62705592107 91232.923086939103 -1480.3796092987061 37703.18158783784 358569.39048913046 221326.2686682413 206913.36267755681 -12469.470354467976 224351.06173650568 11692.669594653686 154201.2247731855 100419.21047175482 253921.019875 -6473.6960311546245 9501.2745571640316 43559.80319695724 22265.400869561785 -24558.026532584176 110829.71245959052 -1591.5330769177849 60699.983919428851 -9941.4736171064724 27219.440969177664
leaf_weight=5808 761 26 253 3549 50 20 189 38 39 128 37 23 43 22 121 22 134 31 26 25 13952 2438 38 371 71 29 14918 103 203 1178
leaf_count=5808 761 26 253 3549 50 20 189 38 39 128 37 23 43 22 121 22 134 31 26 25 13952 2438 38 371 71 29 14918 103 203 1178
internal_value=0.47393 41335.1 63260.3 -2322.95 55811.9 67990.1 62335.1 90480.3 45701.8 57781.5 100393 254511 151609 100799 9251.79 139243 9220.55 39420.3 15723.4 192148 -3930.24 -2903.39 93268.3 35512.5 20174.3 31436.7 -3950.94 21675.8 18999.7 23522.5
internal_weight=44646 2376 1412 42270 1386 1033 988 367 621 306 152 61 102 59 5154 61 964 203 154 45 37116 31308 69 560 353 282 28870 1605 1502 1299
internal_count=44646 2376 1412 42270 1386 1033 988 367 621 306 152 61 102 59 5154 61 964 203 154 45 37116 31308 69 560 353 282 28870 1605 1502 1299
is_linear=0
shrinkage=0.05


Tree=16
num_leaves=31
num_cat=0
split_feature=4 3 2 4 4 4 1 4 3 1 1 1 4 2 3 1 4 1 1 1 1 1 4 4 4 1 1 1 3 4
split_gain=1.56383e+15 4.5657e+14 4.13366e+14 3.02365e+14 2.44717e+14 1.77301e+14 1.6157e+14 1.4696e+14 1.19822e+14 1.14198e+14 2.08431e+14 9.61041e+13 9.59254e+13 8.61958e+13 8.35834e+13 9.46575e+13 1.19326e+14 7.396e+13 2.00788e+14 9.79735e+13 7.54796e+13 2.12905e+14 7.38604e+13 7.13973e+13 6.71335e+13 6.6209e+13 5.31129e+13 1.03893e+14 5.29838e+13 5.11727e+13
threshold=433.50000000000006 9.5000000000000018 7.5000000000000009 467.50000000000006 174.12123056151918 195.12899947682561 0.0040585579128440373 10026.000000000002 2.5000000000000004 0.0066836295871559644 0.0099448107798165153 0.0052053469036697254 1089.0000000000002 2.5000000000000004 2.5000000000000004 0.0028848910550458716 80.096255221591591 0.021636682912844037 0.019343104931192664 0.045468391628440373 0.0034493262614678903 0.0052053469036697254 730.50000000000011 1089.0000000000002 82.016453340092866 0.045468391628440373 0.019343104931192664 0.028624928325688078 2.5000000000000004 322.90000000000003
decision_type=10 2 2 10 10 10 2 10 2 2 2 2 10 2 2 2 10 2 2 2 2 2 10 10 8 2 2 2 2 10
left_child=2 7 5 -3 24 14 -7 8 13 -10 -11 -8 22 -2 -1 -16 -17 18 20 -19 -6 -22 -5 26 -4 -18 -12 -28 -13 -30
right_child=1 3 4 12 17 6 11 -9 9 10 23 28 -14 -15 15 16 25 19 -20 -21 21 -23 -24 -25 -26 -27 27 -29 29 -31
leaf_value=-7748.4326932330214 33515.282446971018 310622.77146739134 1892.3407679149871 113917.51432024846 -30222.812452855604 -3754.4919467819072 121084.27191406251 150216.29800544507 32462.18858474329 194434.76106872561 10245.268699108716 4659.2125966518743 200986.61387567935 -28129.741810993979 -10203.930828424947 -3077.676266602853 3849.5209642860864 23094.190836529786 157386.35893750002 132718.96754261365 178794.72019127157 26058.651255841123 7051.7376420454548 97006.664157690189 17488.469092156167 26367.368826599995 113003.15606398811 33120.342835427989 22518.427423208868 54438.465702596288
leaf_weight=9502 179 23 1384 61 29 963 25 33 341 32 71 316 23 83 3373 19865 5050 277 50 22 29 107 22 99 1376 349 63 115 627 157
leaf_count=9502 179 23 1384 61 29 963 25 33 341 32 71 316 23 83 3373 19865 5050 277 50 22 29 107 22 99 1376 349 63 115 627 157
internal_value=0.450231 57679.8 -1517.74 146288 15567 -2908.23 11278.6 46429.4 42945.2 53468.3 72318.5 24146.9 110630 13986.5 -3684.92 -2336.61 -1286.25 47243.4 69610.1 31160.2 43011.3 58627.4 85591.6 61089.4 9667.8 5305.11 46809 61393.5 21943.8 28910.6
internal_weight=44646 1145 43501 129 3274 40227 2088 1016 983 721 380 1125 106 262 38139 28637 25264 514 215 299 165 136 83 348 2760 5399 249 178 1100 784
internal_count=44646 1145 43501 129 3274 40227 2088 1016 983 721 380 1125 106 262 38139 28637 25264 514 215 299 165 136 83 348 2760 5399 249 178 1100 784
is_linear=0
shrinkage=0.05


Tree=17
num_leaves=31
num_cat=1
split_feature=4 3 1 2 4 1 1 1 3 4 4 3 4 1 1 4 3 4 1 0 4 1 3 1 3 2 4 1 1 3
split_gain=1.41176e+15 5.4041e+14 3.8631e+14 3.1274e+14 1.88106e+14 1.99492e+14 2.44293e+14 1.9743e+14 1.65244e+14 1.76524e+14 1.53207e+14 2.07337e+14 1.48838e+14 1.39708e+14 9.32412e+14 1.66158e+14 9.89161e+13 9.6792e+13 1.44e+14 8.89959e+13 1.64254e+14 7.8585e+13 7.85464e+13 7.84016e+13 7.7169e+13 7.47879e+13 9.42325e+13 7.21606e+13 6.75716e+13 6.62032e+13
threshold=300.53608048777136 55.500000000000007 0.0020068807339449547 7.5000000000000009 10026.000000000002 0.010571961009174314 0.0099448107798165153 0.045468391628440373 5.5000000000000009 602.00000000000011 1760.5000000000002 2.5000000000000004 113.04006736044904 0.019343104931192664 0.021636682912844037 433.50000000000006 9.5000000000000018 117.0071527653672 0.0066836295871559644 0 779.50000000000011 0.042010106077981661 2.5000000000000004 0.0043273365825688076 8.2500000000000018 5.5000000000000009 899.00000000000011 0.045468391628440373 0.042010106077981661 14.500000000000002
decision_type=10 2 2 2 10 2 2 2 2 10 10 2 10 2 2 10 2 8 2 1 10 2 2 2 2 2 10 2 2 2
left_child=3 2 19 17 5 6 8 10 23 -10 13 -12 -5 -7 15 -15 -9 22 -19 20 -2 29 -1 -4 27 26 -22 -20 -13 -16
right_child=1 -3 4 12 -6 7 -8 16 9 -11 11 28 -14 14 21 -17 -18 18 24 -21 25 -23 -24 -25 -26 -27 -28 -29 -30 -31
leaf_value=-8154.0997779457193 11413.89133109477 301239.11781250004 107213.56061383929 5719.2905067043621 209913.58500000002 -1134.8060478818102 226070.64541015626 84969.835668945321 79465.541802300359 261875.61841982888 1064.7236860795454 204974.53037405305 28823.299123995137 171722.908359375 51098.352915166128 373094.44732142863 226717.234375 -5007.841624723319 8261.6106955096911 -10406.586473962645 69472.329199218759 262.3567595583101 -2649.8964166393544 18882.329345154496 100347.70382893881 18550.968421519887 209585.74043898811 42263.691692710789 94712.246940104174 -15059.162890625001
leaf_weight=8708 335 20 35 2135 20 226 32 32 36 21 33 33 1035 20 269 21 20 2776 2600 292 28 179 25350 89 24 22 21 166 24 44
leaf_count=8708 335 20 35 2135 20 226 32 32 36 21 33 33 1035 20 269 21 20 2776 2600 292 28 179 25350 89 24 22 21 166 24 44
internal_value=0.427752 42740 39918 -1849.22 57931.4 55202.8 98720.2 44915.2 76205.2 146669 39122.7 100804 13262.7 31808.7 45777.2 274864 139488 -3058.2 3054.71 10652.6 25428.6 26686.6 -4057.22 43814.5 11076.8 95135.9 129521 10302.2 158548 41798.3
internal_weight=44646 1852 1832 42794 1134 1114 213 901 181 57 849 90 3170 759 533 41 52 39624 5566 698 406 492 34058 124 2790 71 49 2766 57 313
internal_count=44646 1852 1832 42794 1134 1114 213 901 181 57 849 90 3170 759 533 41 52 39624 5566 698 406 492 34058 124 2790 71 49 2766 57 313
cat_boundaries=0 1
cat_threshold=2
is_linear=0
shrinkage=0.05


Tree=18
num_leaves=31
num_cat=0
split_feature=4 3 3 4 4 4 4 1 1 4 1 1 4 1 1 1 3 1 4 4 4 4 2 1 1 1 4 3 4 4
split_gain=1.28254e+15 3.7628e+14 3.41469e+14 2.57885e+14 2.33679e+14 1.46242e+14 2.37221e+14 1.79108e+14 1.72539e+14 1.23636e+14 1.00416e+14 1.1446e+14 8.71753e+13 8.51447e+13 1.20873e+14 1.67341e+14 7.93209e+13 7.59791e+13 8.74465e+13 6.92707e+13 1.78282e+14 6.7531e+13 6.55544e+13 6.32387e+13 2.02798e+14 6.21012e+13 8.11126e+13 5.77563e+13 5.50752e+13 5.03257e+13
threshold=433.50000000000006 9.5000000000000018 7.5000000000000009 467.50000000000006 174.12123056151918 146.05000000000004 147.27202882930419 0.00025981938073394502 0.0034493262614678903 10026.000000000002 0.0040585579128440373 0.010571961009174314 1089.0000000000002 0.015831063646788993 0.022380303899082573 0.019343104931192664 2.5000000000000004 6.2715022935779834e-05 779.50000000000011 582.00000000000011 899.00000000000011 730.50000000000011 3.5000000000000004 0.0037987385321100924 0.005339736238532111 0.0028848910550458716 43.100000000000009 10.500000000000002 89.000894982142924 207.00265366987779
decision_type=10 2 2 10 10 8 8 2 2 10 2 2 10 2 2 2 2 2 10 10 10 10 2 2 2 2 10 2 10 10
left_child=2 9 5 -3 28 16 7 -7 -8 10 17 19 21 -13 15 -15 -1 18 -2 -12 -21 -5 -10 -6 -25 -18 -27 -26 -4 -24
right_child=1 3 4 12 23 6 8 -9 22 -11 11 13 -14 14 -16 -17 25 -19 -20 20 -22 -23 29 24 27 26 -28 -29 -30 -31
leaf_value=-7558.8798197534343 16287.712976747047 284442.78777173912 2009.8100322805051 102960.88988217214 -20524.429754304889 233063.64484374999 -6462.4868988406488 26323.148481889206 2720.8978263297722 137217.07900094698 44877.03310231855 7887.0134596604566 185881.97783627719 53842.875113932292 43148.658105008108 234394.40505952379 -9463.610969365569 -2781.6274608378508 85573.291161421657 248943.69985795455 66273.912545955885 776.56097301136367 13144.086869293755 203907.39940476191 66657.438889848985 -5529.1453818511545 570.94730158903008 29080.258337799321 17197.46713422209 32221.810350268766
leaf_weight=9198 127 23 1308 61 32 20 1735 22 753 33 31 130 23 33 318 21 2654 196 71 22 34 22 845 21 175 8083 16726 246 1098 585
leaf_count=9198 127 23 1308 61 32 20 1735 22 753 33 31 130 23 33 318 21 2654 196 71 22 34 22 845 21 175 8083 16726 246 1098 585
internal_value=0.289805 52235.2 -1374.6 132676 15262.4 -2554.15 6574.07 124771 5307.03 42021.8 38826 51896.3 99745.1 42720.5 54893.5 124057 -3540.15 19286.9 41132.5 104842 138037 75875.9 14661.2 47350.4 52264.4 -2194.18 -1416.52 44700.2 8940.84 20948.6
internal_weight=44646 1145 43501 129 2880 40621 3960 42 3918 1016 983 589 106 502 372 54 36661 394 198 87 56 83 2183 474 442 27463 24809 421 2406 1430
internal_count=44646 1145 43501 129 2880 40621 3960 42 3918 1016 983 589 106 502 372 54 36661 394 198 87 56 83 2183 474 442 27463 24809 421 2406 1430
is_linear=0
shrinkage=0.05


Tree=19
num_leaves=31
num_cat=1
split_feature=4 1 1 2 3 2 4 4 3 1 4 4 4 1 4 1 4 2 2 0 1 1 1 1 1 1 1 1 1 1
split_gain=1.16062e+15 4.78481e+14 1.3486e+15 2.24515e+14 1.70687e+14 1.27981e+14 1.05582e+14 9.83747e+13 9.50793e+13 9.49498e+13 9.47742e+13 8.48359e+13 6.75898e+13 7.21265e+13 1.1632e+14 2.31248e+14 6.20336e+13 9.19135e+13 7.26581e+13 5.98614e+13 5.92761e+13 1.01028e+14 7.00328e+13 2.16887e+14 5.3937e+13 2.04068e+14 5.00909e+13 4.99897e+13 4.90995e+13 4.87298e+13
threshold=258.12721786829519 0.0040585579128440373 0.0043273365825688076 5.5000000000000009 9.5000000000000018 10.500000000000002 62.011410087497055 602.00000000000011 5.5000000000000009 0.011933772935779819 4748.0000000000009 378.60000000000008 144.01726109713979 0.0066836295871559644 147.27202882930419 4.479644495412845e-05 779.50000000000011 4.5000000000000009 5.5000000000000009 0 0.045468391628440373 0.032844753440366976 0.019343104931192664 0.021636682912844037 0.010571961009174314 0.0099448107798165153 0.017631880733944959 0.010571961009174314 0.021636682912844037 0.003933127866972478
decision_type=10 2 2 2 2 2 8 10 2 2 10 10 10 2 10 2 10 2 2 1 2 2 2 2 2 2 2 2 2 2
left_child=3 16 -3 12 7 11 -5 20 9 -9 28 -6 19 14 15 -14 -2 -18 -19 -1 21 22 24 -24 25 -4 -7 -15 -11 -8
right_child=1 2 4 6 5 26 29 8 -10 10 -12 -13 13 27 -16 -17 17 18 -20 -21 -22 -23 23 -25 -26 -27 -28 -29 -30 -31
leaf_value=-3376.3433866883543 432.51936477275098 409792.53371394234 14403.730769399581 -2036.1820683307906 81763.920204741386 133737.72492559525 -11356.102772013348 18065.68258492606 134577.99049798091 124438.16600781251 160214.29072124776 196676.14739583334 185423.64923502607 40254.097994747681 -6221.5528008382134 -9995.7824885670743 7442.1939387534985 135276.96277406754 32128.199717310858 -11060.93297966888 89124.668148226352 56.828161129612162 186431.20114583336 37702.158953834645 3489.0014176541526 178688.08512369794 50726.772983217597 9318.5096759954231 49608.055762404547 13061.042207380178
leaf_weight=30657 751 26 89 2131 29 21 216 140 37 25 26 36 24 148 1439 41 134 31 38 2759 37 267 30 134 149 24 135 1110 178 3784
leaf_count=30657 751 26 89 2131 29 21 216 140 37 25 26 36 24 148 1439 41 134 31 38 2759 37 267 30 134 149 24 135 1110 178 3784
internal_value=0.275365 34301.5 53091.9 -1894.41 46257.6 86462 6953.35 38436.1 58165.9 50503.9 70335.2 145408 -3393.81 4123.34 -3266.27 62159.1 7061.36 31584.8 78470.4 -4015.14 27463.2 24171 39284.8 64908.7 23245.4 49296 61901.3 12958 58823.6 11742.5
internal_weight=44646 2337 1383 42309 1357 221 6131 1136 406 369 229 65 36178 2762 1504 65 954 203 69 33416 730 693 426 164 262 113 156 1258 203 4000
internal_count=44646 2337 1383 42309 1357 221 6131 1136 406 369 229 65 36178 2762 1504 65 954 203 69 33416 730 693 426 164 262 113 156 1258 203 4000
cat_boundaries=0 1
cat_threshold=8
is_linear=0
shrinkage=0.05


Tree=20
num_leaves=31
num_cat=0
split_feature=4 3 3 4 4 4 4 1 1 4 3 1 1 3 1 1 1 4 1 2 3 1 1 1 4 4 1 2 4 1
split_gain=1.05667e+15 3.09879e+14 2.80832e+14 2.11127e+14 1.9468e+14 1.18791e+14 2.04774e+14 1.53712e+14 1.41301e+14 1.09667e+14 9.27614e+13 9.05628e+13 2.0256e+14 1.09858e+14 9.24898e+13 7.95804e+13 1.72798e+14 7.84858e+13 7.71455e+13 7.63026e+13 6.95481e+13 6.51372e+13 9.25648e+13 1.28278e+14 6.26699e+13 6.23868e+13 5.92764e+13 5.72475e+13 5.65037e+13 5.23903e+13
threshold=433.50000000000006 9.5000000000000018 7.5000000000000009 467.50000000000006 118.00043154601362 146.05000000000004 147.27202882930419 0.00025981938073394502 0.0034493262614678903 10026.000000000002 2.5000000000000004 0.021636682912844037 0.019343104931192664 29.500000000000004 0.045468391628440373 0.0066836295871559644 0.0099448107798165153 1089.0000000000002 0.0099448107798165153 2.5000000000000004 2.5000000000000004 0.026241757454128444 0.042010106077981661 0.039797161697247709 558.50000000000011 292.10000000000008 0.032844753440366976 3.5000000000000004 1089.0000000000002 0.0030730361238532115
decision_type=10 2 2 10 10 8 8 2 2 10 2 2 2 2 2 2 2 10 2 2 2 2 2 2 10 10 2 2 10 2
left_child=2 9 5 -3 -4 20 7 -7 -8 10 19 12 13 25 21 -12 -17 24 -15 -2 -1 -13 23 26 -5 -6 -23 -10 -18 -22
right_child=1 3 4 17 11 6 8 -9 27 -11 15 14 -14 18 -16 16 28 -19 -20 -21 29 22 -24 -25 -26 -27 -28 -29 -30 -31
leaf_value=-6969.2535209766711 28028.735502956966 257732.45760869567 4395.0741019923362 134143.80058203125 12294.145100597249 216047.66695312501 -5918.6969631342936 24524.104909446025 2039.1968263420924 127800.45497676966 26857.843208738086 -16986.790651374318 114047.24654463099 170824.10784801136 83820.237371093754 171318.42014160159 37201.102192761522 172346.80855978263 35141.680876464845 -29970.845453689763 -8444.0579994062045 52334.201269531251 -19772.076923442641 105083.36999860493 39442.827333647634 95003.680796875007 1023.5991502222522 19072.928699682274 81857.212414674097 -1211.9688861126374
leaf_weight=9198 179 23 1885 25 259 20 1735 22 753 33 341 137 94 22 50 32 249 23 20 83 2787 92 95 56 58 25 145 1430 99 24676
leaf_count=9198 179 23 1885 25 259 20 1735 22 753 33 341 137 94 22 50 32 249 23 20 83 2787 92 95 56 58 25 145 1430 99 24676
internal_value=0.099892 47412.9 -1247.86 120412 13839.8 -2317.57 5909.43 115726 4732.23 38144.3 35134.5 31732.7 49382.6 30736.9 18840.5 44393.4 60129.3 90615.6 106213 9654.82 -3206.22 12652 23117.2 37023.3 67967.2 19574.9 20941.6 13197.3 49905 -1945.9
internal_weight=44646 1145 43501 129 2880 40621 3960 42 3918 1016 983 995 420 326 575 721 380 106 42 262 36661 525 388 293 83 284 237 2183 348 27463
internal_count=44646 1145 43501 129 2880 40621 3960 42 3918 1016 983 995 420 326 575 721 380 106 42 262 36661 525 388 293 83 284 237 2183 348 27463
is_linear=0
shrinkage=0.05


Tree=21
num_leaves=31
num_cat=1
split_feature=4 3 1 3 1 1 4 1 1 3 4 4 1 1 4 1 3 1 4 1 0 4 3 2 4 3 1 1 1 3
split_gain=9.57662e+14 4.01202e+14 2.7126e+14 2.2038e+14 1.76413e+14 1.29472e+14 1.441e+14 1.89322e+14 2.80962e+14 1.85208e+14 1.38457e+14 1.25058e+14 1.06212e+14 7.57398e+14 1.31808e+14 9.06645e+13 8.00093e+13 7.29083e+13 6.8854e+13 1.03975e+14 6.66167e+13 1.19345e+14 6.48767e+13 6.47992e+13 8.37571e+13 6.42859e+13 5.96624e+13 6.73328e+13 7.95828e+13 4.86506e+13
threshold=300.53608048777136 55.500000000000007 0.0034493262614678903 5.5000000000000009 0.0043273365825688076 0.045468391628440373 1308.5000000000002 0.010571961009174314 0.0099448107798165153 3.2500000000000004 602.00000000000011 174.12123056151918 0.019343104931192664 0.021636682912844037 433.50000000000006 0.016395498853211014 9.5000000000000018 0.042010106077981661 85.243282403939887 0.0066836295871559644 0 779.50000000000011 2.5000000000000004 5.5000000000000009 899.00000000000011 14.500000000000002 0.045468391628440373 0.042010106077981661 0.039797161697247709 9.5000000000000018
decision_type=10 2 2 2 2 2 10 2 2 2 10 10 2 2 10 2 2 2 8 2 1 10 2 2 10 2 2 2 2 2
left_child=3 2 20 18 -4 6 7 8 10 15 -6 -5 -9 14 -14 -8 -7 25 -1 -20 21 -2 -17 24 -23 29 27 28 -21 -15
right_child=1 -3 4 11 5 16 9 12 -10 -11 -12 -13 13 17 -16 22 -18 -19 19 26 -22 23 -24 -25 -26 -27 -28 -29 -30 -31
leaf_value=-4168.1922231516028 10295.542174910361 257931.26390625001 170083.4746746195 5476.60737885663 16639.718875200324 73042.850656127936 4408.3806401090796 -6724.2497517135916 228677.12410714288 176365.47501905489 148008.64926938657 31187.957783528647 149641.66390625 34446.871528048476 328994.42380952381 37286.896744791673 200525.7696875 -8834.9251071907365 -4768.3026818820499 5535.8356166439225 -7949.0023090408504 57054.229882812506 136231.07950802366 10372.963973721591 189150.42218191965 -23880.307654918324 25261.552204653639 -7945.2595015918505 44720.900329316559 107768.72875000001
leaf_weight=27446 335 20 29 4769 78 32 53 212 28 41 27 525 20 238 21 30 20 169 4691 3923 322 28 37 22 21 44 354 952 134 25
leaf_count=27446 335 20 29 4769 78 32 53 212 28 41 27 525 20 238 21 30 20 169 4691 3923 322 28 37 22 21 44 354 952 134 25
internal_value=0.0948705 35201.2 32769.6 -1523.3 48393.2 45110.4 41198.2 33088.2 87948.1 84619.8 50420.3 8026.37 23079.4 35300.7 241505 53273.3 122075 17539.4 -2871.46 668.418 9076.68 22228.1 91927.7 81660.3 113667 32058.1 5423.9 4021.92 6830.09 41416.6
internal_weight=44646 1852 1832 42794 1104 1075 1023 862 133 161 105 5294 729 517 41 120 52 476 37500 10054 728 406 67 71 49 307 5363 5009 4057 263
internal_count=44646 1852 1832 42794 1104 1075 1023 862 133 161 105 5294 729 517 41 120 52 476 37500 10054 728 406 67 71 49 307 5363 5009 4057 263
cat_boundaries=0 1
cat_threshold=2
is_linear=0
shrinkage=0.05


Tree=22
num_leaves=31
num_cat=0
split_feature=4 1 1 2 1 4 3 1 1 1 1 1 1 1 1 1 4 1 1 1 4 4 1 1 4 3 1 1 2 4
split_gain=8.68691e+14 3.69151e+14 1.14006e+15 1.71416e+14 1.29586e+14 1.50135e+14 3.93684e+14 1.8052e+14 1.63183e+14 1.28751e+14 1.88768e+14 5.70612e+14 2.09717e+14 2.35271e+14 1.9248e+14 4.05934e+14 1.45038e+14 1.26771e+14 1.21068e+14 1.79073e+14 8.64034e+13 8.55511e+13 7.2404e+13 5.42359e+13 1.13241e+14 8.66784e+13 5.74944e+13 6.27289e+13 5.37967e+13 5.93259e+13
threshold=254.50000000000003 0.0040585579128440373 0.0043273365825688076 5.5000000000000009 0.045468391628440373 1308.5000000000002 5.5000000000000009 0.042010106077981661 0.039797161697247709 0.032844753440366976 0.019343104931192664 0.021636682912844037 0.010571961009174314 0.0066836295871559644 0.026241757454128444 0.028624928325688078 433.50000000000006 0.038722047018348631 0.0086725917431192678 0.0099448107798165153 3535.5000000000005 62.011410087497055 0.046077623279816522 0.0066836295871559644 100.09435955727518 7.5000000000000009 0.010571961009174314 0.0099448107798165153 3.5000000000000004 3535.5000000000005
decision_type=10 2 2 2 2 10 2 2 2 2 2 2 2 2 2 2 10 2 2 2 10 8 2 2 10 2 2 2 2 10
left_child=3 -2 -3 23 5 7 17 8 9 10 12 16 13 -4 -13 -16 -12 28 -15 -20 -19 -5 -6 -1 -25 26 27 -26 -7 -30
right_child=1 2 4 21 22 6 -8 -9 -10 -11 11 14 -14 18 15 -17 -18 20 19 -21 -22 -23 -24 24 25 -27 -28 -29 29 -31
leaf_value=-6414.8637649594084 5565.2466398373681 373730.1680889423 -12851.524520137393 -2002.0506275966436 168523.27103794646 58849.957831488719 288844.59593750001 -9462.062682792468 147212.4465303309 -3530.7570423081343 153960.58314049765 5742.6181188571072 -5192.2390977328432 223481.66592285159 278545.80805027176 29693.714441132128 312544.7053571429 57483.741469439345 26776.372314453125 176842.41761363635 181393.16106770834 10407.43348110375 63690.557226562501 -3020.5010778568094 16143.089944908268 106019.65823863636 4168.6672318487417 74400.999581962722 29125.785283015328 -82435.844957386376
leaf_weight=8657 964 26 58 2131 28 36 20 234 34 170 46 155 255 20 23 57 21 34 50 33 24 3988 40 24395 244 22 2776 57 26 22
leaf_count=8657 964 26 58 2131 28 36 20 234 34 170 46 155 255 20 23 57 21 34 50 33 24 3988 40 24395 244 22 2776 57 26 22
internal_value=0.00114848 29417.4 45701.7 -1653.55 39548.2 36075.6 81154.7 29758.3 39712.2 35596.2 44860.3 74949.8 23016.4 67694.8 38251.9 101239 203666 51902.6 113051 86441.2 108757 6085.71 106857 -2963.52 -1876.8 7126.31 6419.24 27175.3 12646.2 -22006.6
internal_weight=44646 2376 1412 42270 1386 1318 162 1156 922 888 718 302 416 161 235 80 67 142 103 83 58 6119 68 36151 27494 3099 3077 301 84 48
internal_count=44646 2376 1412 42270 1386 1318 162 1156 922 888 718 302 416 161 235 80 67 142 103 83 58 6119 68 36151 27494 3099 3077 301 84 48
is_linear=0
shrinkage=0.05


Tree=23
num_leaves=31
num_cat=0
split_feature=4 3 2 4 4 4 4 1 1 1 1 3 2 4 4 1 1 3 1 1 3 3 1 1 4 1 1 1 1 4
split_gain=8.01146e+14 2.30624e+14 2.12243e+14 1.58242e+14 1.27491e+14 9.90553e+13 9.68498e+13 1.05513e+14 7.39094e+13 1.80378e+14 7.95426e+13 7.31328e+13 6.56941e+13 6.41017e+13 5.70369e+13 5.70337e+13 1.43599e+14 5.48267e+13 5.15468e+13 1.53133e+14 5.05168e+13 4.81209e+13 5.69496e+13 1.36307e+14 5.48081e+13 4.27347e+13 6.34305e+13 1.15952e+14 4.6394e+13 4.88859e+13
threshold=433.50000000000006 9.5000000000000018 7.5000000000000009 467.50000000000006 150.0725388406548 10026.000000000002 168.06800217949862 0.0034493262614678903 0.021636682912844037 0.019343104931192664 0.045468391628440373 2.5000000000000004 2.5000000000000004 1089.0000000000002 730.50000000000011 0.0066836295871559644 0.0099448107798165153 2.5000000000000004 0.0034493262614678903 0.0052053469036697254 4.2500000000000009 3.2500000000000004 0.020973695527522939 0.042010106077981661 1002.5000000000001 0.026241757454128444 0.042010106077981661 0.039797161697247709 0.031088732798165142 198.13000000000002
decision_type=10 2 2 10 10 10 8 2 2 2 2 2 2 10 10 2 2 2 2 2 2 2 2 2 10 2 2 2 2 10
left_child=2 5 6 -3 -4 11 20 -8 9 18 25 12 -2 14 -5 -13 -17 -9 -6 -20 -1 22 24 -24 -18 -10 27 28 29 -27
right_child=1 3 4 13 8 -7 7 17 10 -11 -12 15 -14 -15 -16 16 21 -19 19 -21 -22 -23 23 -25 -26 26 -28 -29 -30 -31
leaf_value=-3581.0653101890953 24852.579438687972 223143.91413043477 6108.4345060594742 82887.52795530227 -27623.092779181985 118496.36370738636 -4044.9640354159524 224.05535125035672 -16573.965271348221 126131.74439036887 101083.49519230769 23803.621804406848 -28964.257713667172 152326.86467391305 -11022.203480113638 153330.72376098632 -11416.711172960071 20979.637449104135 128900.02961811268 16454.912978613935 1363.3306747653073 20388.127064780925 123436.6463154832 20254.990883703402 75831.422682291668 96017.601744791667 -18521.397887681935 113218.68674128606 -5869.8612617700001 7828.6029474431825
leaf_weight=31175 179 23 2595 61 34 33 1259 438 104 61 26 341 83 23 22 32 45 1163 38 149 6192 143 73 57 30 30 73 39 92 33
leaf_count=31175 179 23 2595 61 34 33 1259 438 104 61 26 341 83 23 22 32 45 1163 38 149 6192 143 73 57 30 30 73 39 92 33
internal_value=0.0010514 41284 -1086.64 104260 11155.5 33288.1 -2083.01 6784.91 30444.2 50017.1 16541 30427.6 7803.73 78463.9 57995.8 38648.7 51970.2 15301.3 29008.1 39304.7 -2761.74 42649.7 58178.5 78195.5 23482.5 10616.2 21207.2 36156.6 16766.7 49823.4
internal_weight=44646 1145 43501 129 3274 1016 40227 2860 679 282 397 983 262 106 83 721 380 1601 221 187 37367 348 205 130 75 371 267 194 155 63
internal_count=44646 1145 43501 129 3274 1016 40227 2860 679 282 397 983 262 106 83 721 380 1601 221 187 37367 348 205 130 75 371 267 194 155 63
is_linear=0
shrinkage=0.05


Tree=24
num_leaves=31
num_cat=0
split_feature=4 3 4 1 1 4 1 1 1 4 2 3 1 1 1 1 4 1 1 1 4 2 4 1 1 1 4 1 1 4
split_gain=7.23035e+14 2.08139e+14 1.92275e+14 1.95638e+14 6.075e+14 1.42813e+14 1.04915e+14 1.13569e+14 1.78158e+14 8.93974e+13 8.2953e+13 6.60023e+13 6.29849e+13 5.97968e+13 1.17335e+14 2.55622e+14 1.19064e+14 7.91426e+13 1.56575e+14 3.5209e+14 6.01969e+13 5.92889e+13 5.78518e+13 5.60709e+13 5.43823e+13 5.3523e+14 5.14758e+13 5.14729e+13 1.29598e+14 4.47731e+13
threshold=433.50000000000006 9.5000000000000018 130.70358890247974 0.0040585579128440373 0.0043273365825688076 467.50000000000006 0.045468391628440373 0.042010106077981661 0.039797161697247709 10026.000000000002 5.5000000000000009 2.5000000000000004 0.046077623279816522 0.0066836295871559644 0.010571961009174314 0.0099448107798165153 172.02061742158364 0.015831063646788993 0.021636682912844037 0.019343104931192664 216.31362416084079 2.5000000000000004 1089.0000000000002 0.017631880733944959 0.026241757454128444 0.028624928325688078 730.50000000000011 0.0066836295871559644 0.0099448107798165153 62.011410087497055
decision_type=10 2 8 2 2 10 2 2 2 10 2 2 2 2 2 2 10 2 2 2 10 2 10 2 2 2 10 2 2 10
left_child=2 9 10 -4 -5 -3 7 8 13 11 -1 21 -8 -6 15 -15 -17 -16 19 23 -21 -2 26 -19 -20 -26 -7 -13 -29 -12
right_child=1 5 3 4 6 22 12 -9 -10 -11 29 27 -14 14 17 16 -18 18 24 20 -22 -23 -24 -25 25 -27 -28 28 -30 -31
leaf_value=-3248.3909296489533 23609.950810710547 211986.71467391305 -3647.4606555874179 228746.53617424244 -8612.5450992136994 78743.153504418558 87819.071627420781 -10755.671755270596 82498.131844161195 112571.54427083333 -1986.03293327285 22613.440507440202 24517.260198627821 18678.476819294898 -11685.948815423602 55654.62319483902 183956.76451171876 29378.958105261852 -6482.0390342523242 74207.000797358254 136107.33411458333 -27516.044872752729 144710.52418478261 -18402.588095664978 144660.21010199652 1360.0421394993195 -10471.094034090909 145664.18859863281 40517.234364941483 7468.832342364446
leaf_weight=32677 179 23 2305 33 290 61 71 498 95 33 2131 341 88 232 321 33 40 118 484 97 66 83 23 128 72 686 22 32 348 3036
leaf_count=32677 179 23 2305 33 290 61 71 498 95 33 2131 341 88 232 321 33 40 118 484 97 66 83 23 128 72 686 22 32 348 3036
internal_value=0.00104058 39219.8 -1032.31 7565.48 15276.1 99046.5 13153.6 11159.5 15259.3 31623.7 -2317.53 28906.2 52784.1 12770.9 15494.4 44355 125957 11030.6 15447.3 42279.6 99270.9 7413.55 74540.7 4517.02 6611.29 14971.7 55096 36716.3 49371.7 3569.41
internal_weight=44646 1145 43501 5657 3352 129 3319 3160 2662 1016 37844 983 159 2567 2277 305 73 1972 1651 409 163 262 106 246 1242 758 83 721 380 5167
internal_count=44646 1145 43501 5657 3352 129 3319 3160 2662 1016 37844 983 159 2567 2277 305 73 1972 1651 409 163 262 106 246 1242 758 83 721 380 5167
is_linear=0
shrinkage=0.05


Tree=25
num_leaves=31
num_cat=1
split_feature=4 3 1 3 1 3 4 1 4 1 3 3 1 1 1 4 2 4 3 4 4 0 4 2 4 4 3 4 4 1
split_gain=6.54774e+14 2.97655e+14 1.91918e+14 1.49996e+14 1.35402e+14 2.03239e+14 1.78165e+14 1.65985e+14 1.16396e+14 1.10063e+14 8.93878e+13 8.62032e+13 8.59522e+13 8.50316e+13 5.63939e+14 1.10279e+14 7.67327e+13 9.79444e+13 6.12127e+13 5.91556e+13 7.66018e+13 5.79874e+13 1.02287e+14 5.9285e+13 7.55791e+13 5.61048e+13 5.51911e+13 5.36428e+13 5.16451e+13 7.66479e+13
threshold=300.53608048777136 55.500000000000007 0.0037987385321100924 5.5000000000000009 0.010571961009174314 5.5000000000000009 1760.5000000000002 0.045468391628440373 413.00000000000006 0.0099448107798165153 3.2500000000000004 29.500000000000004 0.011933772935779819 0.019343104931192664 0.021636682912844037 433.50000000000006 3.5000000000000004 3535.5000000000005 7.5000000000000009 899.00000000000011 518.74715415709215 0 779.50000000000011 5.5000000000000009 899.00000000000011 254.50000000000003 9.5000000000000018 130.00158106963403 85.243282403939887 0.0066836295871559644
decision_type=10 2 2 2 2 2 10 2 10 2 2 2 2 2 2 10 2 10 2 10 10 1 10 2 10 10 2 8 8 2
left_child=3 2 21 28 5 9 7 13 -7 19 16 27 -13 18 15 -15 17 -8 -6 20 -4 22 -2 24 -24 -14 -9 -5 -1 -30
right_child=1 -3 4 11 6 8 10 26 -10 -11 -12 12 25 14 -16 -17 -18 -19 -20 -21 -22 -23 23 -25 -26 -27 -28 -29 29 -31
leaf_value=-3494.9388487764481 8697.8019404442639 220953.29249999998 11790.477947059044 3148.5125817024582 1194.6067378071907 86312.002734375012 34092.434818892048 70192.780418346782 239009.51349909857 136512.58495370371 163704.09587402345 118925.03942220053 10988.514523067992 123819.30294921876 14838.25533931081 287871.82380952378 2195.0234765625 186975.04593750002 -90426.657324218759 -42124.028876201926 121376.34974524456 -8082.9619672908348 51602.402901785717 6579.0424715909094 177084.04023437502 100110.73327055432 176728.17703125 16668.257778574567 -3974.0240842331705 4776.8783746568924
leaf_weight=27446 335 20 52 4245 206 24 22 31 26 27 32 30 111 20 492 21 30 20 20 26 23 334 28 22 21 21 20 887 4691 5363
leaf_count=27446 335 20 52 4245 206 24 22 31 26 27 32 30 111 20 492 21 30 20 20 26 23 334 28 22 21 21 20 887 4691 5363
internal_value=0.000966981 29106.9 27012.5 -1259.66 40334.5 80231 32564.7 24654.6 165715 46838.9 94172.3 6618.81 42529.6 18787.4 29685 207846 63269.2 106894 -6913.47 22866.7 45396.8 7353.51 19764.7 74765.8 105380 25167 111971 5485.23 -2371.89 693.878
internal_weight=44646 1852 1832 42794 1092 178 914 810 50 128 104 5294 162 759 533 41 72 42 226 101 75 740 406 71 49 132 51 5132 37500 10054
internal_count=44646 1852 1832 42794 1092 178 914 810 50 128 104 5294 162 759 533 41 72 42 226 101 75 740 406 71 49 132 51 5132 37500 10054
cat_boundaries=0 1
cat_threshold=2
is_linear=0
shrinkage=0.05


Tree=26
num_leaves=31
num_cat=0
split_feature=4 3 4 1 4 2 1 1 4 1 1 1 2 1 3 2 1 1 1 1 1 1 4 1 1 1 3 1 1 4
split_gain=5.91247e+14 1.69932e+14 1.61801e+14 1.52219e+14 1.19741e+14 9.04495e+13 7.8747e+13 3.59087e+14 7.8568e+13 6.78942e+13 8.03817e+13 1.52464e+14 5.85484e+13 1.24408e+14 5.63912e+13 5.09659e+13 4.89822e+13 9.91764e+13 2.90064e+14 7.44316e+13 3.11099e+14 7.64306e+13 4.84801e+13 4.51755e+13 4.21312e+13 1.0813e+14 4.55328e+13 5.25292e+13 1.22338e+14 4.91753e+13
threshold=433.50000000000006 9.5000000000000018 172.02061742158364 0.0034493262614678903 467.50000000000006 5.5000000000000009 0.0043273365825688076 0.0040585579128440373 10026.000000000002 0.045468391628440373 0.042010106077981661 0.039797161697247709 23.500000000000004 0.016395498853211014 2.5000000000000004 2.5000000000000004 0.0066836295871559644 0.010571961009174314 0.0099448107798165153 0.019343104931192664 0.021636682912844037 0.020973695527522939 62.011410087497055 0.046077623279816522 0.0066836295871559644 0.0099448107798165153 3.2500000000000004 0.020973695527522939 0.042010106077981661 1002.5000000000001
decision_type=10 2 8 2 10 2 2 2 10 2 2 2 2 2 2 2 2 2 2 2 2 2 10 2 2 2 2 2 2 10
left_child=2 8 5 -4 -3 -1 7 -5 14 10 11 16 13 -6 15 -2 -8 18 -18 -19 21 -21 -7 -11 -16 -26 27 29 -29 -27
right_child=1 4 3 6 12 22 9 -9 -10 23 -12 -13 -14 -15 24 -17 17 19 -20 20 -22 -23 -24 -25 25 26 -28 28 -30 -31
leaf_value=-2759.4020619072608 21204.886502433223 192938.95163043481 -4030.4262641857358 7601.6787889356747 7954.6929086538476 -1893.5802944679208 -11351.31985176488 225701.00768749998 104488.80776515152 99806.090306332248 -9499.389038739173 100315.42387073864 16338.590498310812 146501.70508720932 20514.552351142236 -26196.912780026356 19180.341387067525 -6795.7106939494442 171852.16265625 81095.76756013569 9777.3094057513299 186923.26869673296 7658.8079311143656 28084.58977989784 132679.29919433594 -14638.825107421875 14980.626412088888 113825.40613227741 16073.872603433176 68004.41588541666
leaf_weight=34589 179 23 1236 77 26 2131 152 25 33 38 306 55 37 43 341 83 140 331 40 76 705 22 3526 52 32 45 143 73 57 30
leaf_count=34589 179 23 1236 77 26 2131 152 25 33 38 306 55 37 43 341 83 140 331 40 76 705 22 3526 52 32 45 143 73 57 30
internal_value=-0.0895958 35465.7 -933.594 9788.93 89523.4 -1800.81 18248.9 61057.4 28602.1 15971.2 13882.7 18586.8 67084.2 94295.6 26054.5 6188.29 15520.6 18629 53107.4 13156.3 21380.6 104853 4060.41 58367 33273.6 44723.2 36635.3 51740.7 70965.1 18418.5
internal_weight=44646 1145 43501 3255 129 40246 2019 102 1016 1917 1827 1521 106 69 983 262 1466 1314 180 1134 803 98 5657 90 721 380 348 205 130 75
internal_count=44646 1145 43501 3255 129 40246 2019 102 1016 1917 1827 1521 106 69 983 262 1466 1314 180 1134 803 98 5657 90 721 380 348 205 130 75
is_linear=0
shrinkage=0.05


Tree=27
num_leaves=31
num_cat=1
split_feature=4 3 1 2 4 1 1 1 2 4 3 1 1 4 0 4 4 1 3 3 3 1 2 4 1 1 1 1 4 1
split_gain=5.36751e+14 2.56785e+14 1.6082e+14 1.23061e+14 1.10791e+14 1.14914e+14 1.51866e+14 1.11573e+14 1.0945e+14 8.05945e+13 1.30474e+14 7.12681e+13 4.93183e+14 9.99903e+13 6.63411e+13 9.03994e+13 6.59187e+13 5.73162e+13 5.69698e+13 5.65298e+13 5.34392e+13 6.21818e+13 5.33405e+13 6.82064e+13 5.17629e+13 9.66633e+13 5.28515e+13 2.0163e+14 1.24433e+14 6.50048e+13
threshold=300.53608048777136 55.500000000000007 0.0020068807339449547 5.5000000000000009 10026.000000000002 0.010571961009174314 0.0099448107798165153 0.045468391628440373 6.5000000000000009 1760.5000000000002 2.5000000000000004 0.019343104931192664 0.021636682912844037 433.50000000000006 0 779.50000000000011 63.027918602480881 0.042010106077981661 7.5000000000000009 9.5000000000000018 14.500000000000002 0.042010106077981661 5.5000000000000009 899.00000000000011 0.003933127866972478 0.0045692373853211017 0.021636682912844037 0.019343104931192664 113.04006736044904 0.045468391628440373
decision_type=10 2 2 2 10 2 2 2 2 10 2 2 2 10 1 10 8 2 2 2 2 2 2 10 2 2 2 2 10 2
left_child=3 2 14 -1 5 6 8 9 -4 11 -11 18 13 -13 15 -2 -5 -12 -7 -9 21 -14 23 -17 -18 -26 27 -27 -29 -28
right_child=1 -3 4 16 -6 7 -8 19 -10 10 17 12 20 -15 -16 22 24 -19 -20 -21 -22 -23 -24 -25 25 26 29 28 -30 -31
leaf_value=-2251.6074538375437 7934.6523186071609 204542.6915625 29839.43208748653 -1704.7247413842213 152669.199375 761.97642828191374 167374.14003906251 56009.066766357428 127244.61170789931 -12609.775970643939 155076.09425899622 113044.41105468752 33071.957678086525 269257.07142857142 -12497.998219966257 47996.554966517862 -13414.643334859633 53525.273697916666 -87626.933750000011 163166.03695312503 -37555.730126953124 -5219.1541753627234 5367.0875000000005 167200.82659970238 78180.669575383115 7169.8323646598765 2204.7814418596536 28617.835406451039 96146.067539854324 26044.538957404511
leaf_weight=36523 335 20 145 2175 20 206 32 32 36 33 33 20 269 21 292 28 241 24 20 20 48 175 22 21 52 1001 2185 177 111 329
leaf_count=36523 335 20 145 2175 20 206 32 32 36 33 33 20 269 21 292 28 241 24 20 20 48 175 22 21 52 1001 2185 177 111 329
internal_value=-0.0851512 26353.3 24408 -1140.58 36030.5 33936.4 66964.8 26128.4 49212.8 21773.9 66511.1 16469.1 26445.8 193056 5525.66 18344.5 5330.15 112318 -7060.05 97223.3 12561.6 17979.7 70045 99084.1 9065.71 10471.1 9545.27 17777 54644.3 5324.62
internal_weight=44646 1852 1832 42794 1134 1114 213 901 181 849 90 759 533 41 698 406 6271 57 226 52 492 444 71 49 4096 3855 3803 1289 288 2514
internal_count=44646 1852 1832 42794 1134 1114 213 901 181 849 90 759 533 41 698 406 6271 57 226 52 492 444 71 49 4096 3855 3803 1289 288 2514
cat_boundaries=0 1
cat_threshold=2
is_linear=0
shrinkage=0.05


Tree=28
num_leaves=31
num_cat=1
split_feature=4 3 1 1 1 4 2 1 1 1 1 1 1 1 2 1 1 3 4 1 4 0 4 2 4 4 1 4 1 1
split_gain=4.85371e+14 2.30745e+14 1.91048e+14 2.18365e+14 9.86177e+13 9.90488e+13 1.25065e+14 1.1193e+14 1.0705e+14 3.9205e+14 1.53669e+14 1.35466e+14 2.09181e+14 1.20125e+14 1.21783e+14 1.17721e+14 1.04291e+14 9.66172e+13 7.19145e+13 6.10763e+13 5.07491e+13 4.50731e+13 9.187e+13 4.81398e+13 6.15562e+13 4.38727e+13 6.18354e+13 5.14393e+13 4.38217e+13 5.72967e+13
threshold=258.12721786829519 55.500000000000007 0.0040585579128440373 0.0049276089449541297 0.045468391628440373 1308.5000000000002 5.5000000000000009 0.032844753440366976 0.019343104931192664 0.021636682912844037 0.010571961009174314 0.026241757454128444 0.028624928325688078 0.0099448107798165153 6.5000000000000009 0.020973695527522939 0.038722047018348631 5.5000000000000009 3535.5000000000005 0.046077623279816522 100.09435955727518 0 779.50000000000011 5.5000000000000009 899.00000000000011 37.08045336306207 0.0066836295871559644 96.01690194948624 0.045468391628440373 0.042010106077981661
decision_type=10 2 2 2 2 10 2 2 2 2 2 2 2 2 2 2 2 2 10 2 8 1 10 2 10 8 2 10 2 2
left_child=17 2 21 -4 5 7 16 8 10 15 13 -11 -13 14 -5 -10 -7 25 -18 -6 -19 22 -2 24 -24 -1 -27 -28 29 -22
right_child=1 -3 3 4 19 6 -8 -9 9 11 -12 12 -14 -15 -16 -17 18 20 -20 -21 28 -23 23 -25 -26 26 27 -29 -30 -31
leaf_value=-5746.3879566086616 5220.4173247662511 183346.9215909091 188923.05791903409 10578.784588434279 147681.55978009259 8904.4091524920896 177560.74813988095 1618.9015090870746 114105.19354967948 -827.31735823567715 -6509.1846730468751 215374.91227678573 29399.562735098381 141756.60765269885 146083.5877294922 254848.75820312501 48476.287304687503 1833.3995923603111 158942.02806490386 49328.18129047595 14209.611843814035 -8053.6753852174998 45596.72787388393 5098.734019886364 158840.78776041669 -5012.8204330482031 -1063.6831474562609 5191.8234479428056 43752.106315569195 -14160.449280496245
leaf_weight=6801 437 22 22 97 27 79 21 426 39 150 250 21 54 33 20 24 34 3549 26 38 1308 446 28 22 21 8198 18128 4014 105 206
leaf_count=6801 437 22 22 97 27 79 21 426 39 150 250 21 54 33 20 24 34 3549 26 38 1308 446 28 22 21 8198 18128 4014 105 206
internal_value=-0.220851 22181.9 20650.3 32676 30108.8 27043.9 63830.7 21760.3 34231.6 57475.1 17496.2 26606 81472.7 57505.2 33742 167722 46648.5 -1225.48 96344.8 90182.7 5179.92 3494.11 13524.8 66542.8 94129.9 -2116.76 -1303.15 70.3428 12515.8 10349.5
internal_weight=44646 2337 2315 1361 1339 1274 160 1114 688 288 400 225 75 150 117 63 139 42309 60 65 5168 954 508 71 49 37141 30340 22142 1619 1514
internal_count=44646 2337 2315 1361 1339 1274 160 1114 688 288 400 225 75 150 117 63 139 42309 60 65 5168 954 508 71 49 37141 30340 22142 1619 1514
cat_boundaries=0 1
cat_threshold=2
is_linear=0
shrinkage=0.05


Tree=29
num_leaves=31
num_cat=0
split_feature=4 3 1 4 4 1 1 1 1 4 1 1 3 1 1 1 4 1 1 1 1 1 1 1 1 1 3 4 1 1
split_gain=4.45996e+14 1.36535e+14 2.9435e+14 1.28169e+14 1.64114e+14 1.58573e+14 1.39423e+14 4.34559e+14 9.7342e+13 9.3567e+13 1.14102e+14 9.34133e+13 6.61359e+13 6.18607e+13 8.09689e+13 1.24658e+14 5.04655e+13 8.01857e+13 5.20362e+13 1.18234e+14 5.59536e+13 4.77656e+13 8.76097e+13 2.03165e+14 5.90553e+13 3.17882e+14 4.32362e+13 1.25097e+14 4.24123e+13 1.63646e+14
threshold=433.50000000000006 17.500000000000004 0.021636682912844037 146.05000000000004 147.27202882930419 0.00025981938073394502 0.0040585579128440373 0.0043273365825688076 0.015831063646788993 4748.0000000000009 0.032844753440366976 0.044590381307339458 2.5000000000000004 0.045468391628440373 0.042010106077981661 0.039797161697247709 69.997429279740189 0.045468391628440373 0.042010106077981661 0.039797161697247709 0.0024369266055045877 0.0066836295871559644 0.010571961009174314 0.0099448107798165153 0.019343104931192664 0.021636682912844037 5.5000000000000009 1089.0000000000002 0.021636682912844037 0.019343104931192664
decision_type=10 2 2 8 8 2 2 2 2 10 2 2 2 2 2 2 10 2 2 2 2 2 2 2 2 2 2 10 2 2
left_child=3 8 -3 12 5 -5 -6 -8 26 10 -10 -12 -1 14 15 21 -14 18 19 20 -18 -9 23 -23 -24 -26 -2 -28 29 -22
right_child=1 2 -4 4 6 -7 7 13 9 -11 11 -13 16 -15 -16 -17 17 -19 -20 -21 28 22 24 -25 25 -27 27 -29 -30 -31
leaf_value=-5452.6670851030412 8803.8373525868283 236023.72012499999 22042.844756944447 206865.75632812502 -4390.272907681524 19598.568652343751 202584.85291666666 -9595.5941661442248 75165.456187018804 130392.19451822917 6633.1271852846512 98170.462939453137 -2137.1006839651386 44738.754687500004 -10249.950200318517 77273.350874287382 -6630.7555013108476 19364.948236591812 -9328.8051917617759 32115.103290298797 3252.3151817261228 17231.362516837286 -6050.5413898067391 123340.47076373923 88150.048568564976 5751.7299792618051 16027.016171013329 149798.68948863636 -562.63988967828527 37635.129873707701
leaf_weight=9198 552 25 45 20 1873 26 30 243 138 30 216 32 19071 131 431 74 1799 637 1074 321 2898 203 438 58 133 976 85 22 3474 393
leaf_count=9198 552 25 45 20 1873 26 30 243 138 30 216 32 19071 131 431 74 1799 637 1074 321 2898 203 438 58 133 976 85 22 3474 393
internal_value=-0.299993 30802.5 98464.6 -811.069 7047.07 101019 6105.3 13340.6 26396.6 45333.7 38722.9 18444.4 -1748.42 11227.7 9510.17 13518 -599.956 2166.64 1066.6 2323.18 1206.5 11217.7 14015.1 40811.2 9494.19 15633.6 14442.5 43531.5 3290.64 7358.19
internal_weight=44646 1145 70 43501 4636 46 4590 2717 1075 416 386 248 38865 2687 2556 2125 29667 10596 9959 8885 8564 2051 1808 261 1547 1109 659 107 6765 3291
internal_count=44646 1145 70 43501 4636 46 4590 2717 1075 416 386 248 38865 2687 2556 2125 29667 10596 9959 8885 8564 2051 1808 261 1547 1109 659 107 6765 3291
is_linear=0
shrinkage=0.05


Tree=30
num_leaves=31
num_cat=0
split_feature=4 1 1 1 4 3 1 1 1 1 1 1 1 1 1 1 1 4 3 3 1 2 4 3 1 4 1 3 1 4
split_gain=4.0375e+14 1.93268e+14 8.08577e+14 1.11085e+14 1.01136e+14 2.85392e+14 1.14388e+14 1.47281e+14 1.04506e+14 8.55062e+13 1.2844e+14 3.75151e+14 1.77823e+14 3.94944e+14 1.28704e+14 1.11978e+14 1.61642e+14 1.02933e+14 7.55789e+13 5.72098e+13 5.5305e+13 5.30318e+13 5.07827e+13 5.03011e+13 1.16945e+14 4.90808e+13 4.18721e+13 4.08329e+13 3.63266e+13 5.18782e+13
threshold=207.00265366987779 0.0040585579128440373 0.0043273365825688076 0.045468391628440373 1308.5000000000002 5.5000000000000009 0.042010106077981661 0.039797161697247709 0.038722047018348631 0.032844753440366976 0.019343104931192664 0.021636682912844037 0.026241757454128444 0.028624928325688078 0.020973695527522939 0.010571961009174314 0.0099448107798165153 602.00000000000011 4.2500000000000009 4.2500000000000009 0.046077623279816522 3.5000000000000004 3535.5000000000005 29.500000000000004 0.011933772935779819 3535.5000000000005 0.036742044151376156 9.5000000000000018 0.0066836295871559644 76.026746492412926
decision_type=10 2 2 2 10 2 2 2 2 2 2 2 2 2 2 2 2 10 2 2 2 2 10 2 2 10 2 2 2 10
left_child=18 -2 -3 4 6 8 7 9 21 10 15 14 -13 -14 19 16 17 -4 28 -12 -5 -6 -10 -20 -25 -23 -11 -17 -1 -30
right_child=1 2 3 20 5 -7 -8 -9 22 26 11 12 13 -15 -16 27 -18 -19 23 -21 -22 25 -24 24 -26 -27 -28 -29 29 -31
leaf_value=-5357.0320628364025 2055.1004582750861 289173.74062500003 3825.3784697066908 121653.86751953127 43504.964822048612 235012.18640625002 -10476.166664641943 111070.62937330164 45586.201752068017 -24831.660583319182 36147.316375000002 -3235.5967795292886 213538.7285714286 16779.723476069026 219369.85975302421 -1748.1703626656683 124976.82118459302 108834.66064814816 2308.6707455379897 134604.8319302029 41265.637007472833 9733.4497746394245 140580.35273437502 133801.15089721681 9582.4339854600694 -91739.045774147729 17297.478155339806 -61002.550646972661 -2727.3152223847646 2792.6512606310771
leaf_weight=8053 1277 29 172 40 36 20 312 46 34 138 25 229 35 94 31 318 43 27 8893 36 46 26 24 24 90 22 103 32 18897 5494
leaf_count=8053 1277 29 172 40 36 20 312 46 34 138 25 229 35 94 31 318 43 27 8893 36 46 26 24 24 90 22 103 32 18897 5494
internal_value=-0.285003 17126.1 27160.4 23138 20489.9 58179.6 16769.2 23165.3 33273.6 20013.6 26221.3 46355.8 23212.8 70163.9 136412 10916.4 37068.2 18072.9 -1320.37 94253.4 78655.5 -2369.17 84894.1 2731.73 35733.7 -36774.8 -6826.26 -7165.71 -2445.3 -1483.96
internal_weight=44646 3195 1918 1889 1803 162 1641 1329 142 1283 1042 450 358 129 92 592 242 199 41451 61 86 84 58 9007 114 48 241 350 32444 24391
internal_count=44646 3195 1918 1889 1803 162 1641 1329 142 1283 1042 450 358 129 92 592 242 199 41451 61 86 84 58 9007 114 48 241 350 32444 24391
is_linear=0
shrinkage=0.05


Tree=31
num_leaves=31
num_cat=0
split_feature=4 3 1 4 1 1 4 1 1 1 1 1 1 4 1 1 1 1 3 1 1 3 1 1 3 1 1 3 1 1
split_gain=3.73528e+14 1.12648e+14 2.49355e+14 1.08417e+14 1.17973e+14 4.12877e+14 8.40588e+13 7.90548e+13 9.00001e+13 1.48457e+14 5.80768e+13 1.14633e+14 1.90459e+14 7.15852e+13 5.74755e+13 1.35035e+14 2.55975e+14 6.39553e+13 4.9772e+13 4.91859e+13 1.34348e+14 5.81683e+13 5.51097e+13 5.74568e+13 4.91835e+13 4.38702e+13 4.58113e+14 6.77233e+13 5.21771e+13 8.95125e+13
threshold=433.50000000000006 17.500000000000004 0.021636682912844037 109.27568514104892 0.0040585579128440373 0.0043273365825688076 10026.000000000002 0.045468391628440373 0.042010106077981661 0.039797161697247709 0.0066836295871559644 0.010571961009174314 0.0099448107798165153 168.06800217949862 0.015831063646788993 0.021636682912844037 0.019343104931192664 0.017631880733944959 11.500000000000002 0.015831063646788993 0.032844753440366976 8.2500000000000018 0.037996344610091749 0.042010106077981661 2.5000000000000004 0.026241757454128444 0.028624928325688078 6.2500000000000009 0.036742044151376156 0.038722047018348631
decision_type=10 2 2 8 2 2 10 2 2 2 2 2 2 10 2 2 2 2 2 2 2 2 2 2 2 2 2 2 2 2
left_child=3 6 -3 24 -5 -6 19 8 9 10 -7 12 18 -14 -13 16 17 -16 -12 -2 21 -21 -22 -24 -1 -17 27 -27 -28 -30
right_child=1 2 -4 4 5 7 -8 -9 -10 -11 11 14 13 -15 15 25 -18 -19 -20 20 22 -23 23 -25 -26 26 28 -29 29 -31
leaf_value=-5258.5145260545141 12854.541402213181 216257.55099999998 19309.496076388892 -3387.3458746515821 169043.02024414064 -8290.245164381613 99300.035416666666 33371.432577439693 -9118.7409184261305 59881.114620099754 10042.516471567624 -10701.539228388949 58737.021415070565 143280.0416434152 25250.169695655335 -7422.7794283461299 70034.019338389131 -15319.94030224245 89623.926081194193 60976.142903258318 -29327.450105233031 152764.90382812501 81366.30534539475 13170.895356297347 -894.33029526362645 89003.952805113178 -7879.6218998406111 188333.92666903409 43257.689650303546 -8203.0448573044741
leaf_weight=8506 632 25 45 3038 40 508 36 285 794 140 305 424 62 42 188 696 239 201 21 126 58 20 38 165 26785 78 787 22 157 183
leaf_count=8506 632 25 45 3038 40 508 36 285 794 140 305 424 62 42 188 696 239 201 21 126 58 20 38 165 26785 78 787 22 157 183
internal_value=-0.270715 28189.2 89648.1 -742.253 4432.99 9026.6 24187.2 7779.4 6274.6 9290.22 7480.17 9833 33964 92879.4 6345.16 9178.48 29308.7 4287.21 15168.9 21584.7 35141.1 73549.9 13655.7 25936.5 -1946.21 2604.49 8292.33 110857 -808.307 15559.7
internal_weight=44646 1145 70 43501 8210 5172 1075 5132 4847 4053 3913 3405 430 104 2975 2551 628 389 326 1039 407 146 261 203 35291 1923 1227 100 1127 340
internal_count=44646 1145 70 43501 8210 5172 1075 5132 4847 4053 3913 3405 430 104 2975 2551 628 389 326 1039 407 146 261 203 35291 1923 1227 100 1127 340
is_linear=0
shrinkage=0.05


Tree=32
num_leaves=31
num_cat=1
split_feature=4 1 1 2 1 4 3 1 1 1 1 1 1 4 1 4 4 3 0 4 2 2 4 4 4 1 1 1 1 1
split_gain=3.38148e+14 1.22083e+14 4.90241e+14 8.50793e+13 7.25138e+13 6.7118e+13 2.55486e+14 9.39303e+13 8.70692e+13 9.63329e+13 2.68679e+14 1.14734e+14 1.13726e+14 1.20086e+14 9.5204e+13 7.26835e+13 5.19733e+13 4.99441e+13 4.97588e+13 6.50525e+13 4.83371e+13 4.61274e+13 5.52707e+13 4.57493e+13 4.53411e+13 7.38605e+13 6.03785e+13 9.41861e+13 4.98324e+13 5.71519e+13
threshold=322.90000000000003 0.0037987385321100924 0.0043273365825688076 7.5000000000000009 0.045468391628440373 1308.5000000000002 5.5000000000000009 0.038722047018348631 0.032844753440366976 0.019343104931192664 0.021636682912844037 0.010571961009174314 0.026241757454128444 450.50000000000006 0.0066836295871559644 602.00000000000011 100.09435955727518 6.2500000000000009 0 779.50000000000011 3.5000000000000004 5.5000000000000009 852.50000000000011 3535.5000000000005 43.100000000000009 0.045468391628440373 0.042010106077981661 0.039797161697247709 0.0066836295871559644 0.010571961009174314
decision_type=10 2 2 2 2 10 2 2 2 2 2 2 2 10 2 10 8 2 1 10 2 2 10 10 8 2 2 2 2 2
left_child=3 18 -3 24 5 8 7 20 9 11 -11 14 -12 -14 -4 -16 -5 -13 19 -2 -7 22 -21 -22 -1 26 27 28 -26 -30
right_child=1 2 4 16 -6 6 -8 -9 -10 10 12 17 13 -15 15 -17 -18 -19 -20 21 23 -23 -24 -25 25 -27 -28 -29 29 -31
leaf_value=-4275.9416891432875 7969.4890489900272 256178.97486979165 -20117.380822753908 1665.4506116716141 88090.218481964766 40184.878271484376 221055.62453124998 79118.396965500418 -3951.0787227085661 179735.40582770272 222.49066336495537 -1278.191373890844 25902.456879714442 182900.05855654762 47109.465270543988 145246.10414870689 14634.225138894582 -84708.419140625003 -9274.399757490819 36034.203531250001 8442.9763146033656 913.99982244318187 142262.46429036459 -89525.189453125 -4025.8736851184767 8604.9918692849569 -7598.6638626726917 15367.045780836424 10735.84827654225 -161.09800001895351
leaf_weight=10720 308 24 32 1883 47 36 20 58 280 37 105 174 29 21 54 29 1310 20 308 25 26 22 24 22 8292 2081 3218 922 1324 13195
leaf_count=10720 308 24 32 1883 47 36 20 58 280 37 105 174 29 21 54 29 1310 20 308 25 26 22 24 22 8292 2081 3218 922 1324 13195
internal_value=-0.257181 21864.1 32889.7 -866.277 27476.7 24455.6 53744.4 30179.5 18380.4 30861 58675.2 13578.4 29777 91841.4 53150.4 81398.2 6986.18 -9879.25 5590.4 17454.7 -3611.68 61060 88064.4 -36459.1 -1497.01 -470.896 -1171.68 -300.238 -933.496 832.604
internal_weight=44646 1701 1014 42945 990 943 162 142 781 501 192 309 155 50 115 83 3193 194 687 379 84 71 49 48 39752 29032 26951 23733 22811 14519
internal_count=44646 1701 1014 42945 990 943 162 142 781 501 192 309 155 50 115 83 3193 194 687 379 84 71 49 48 39752 29032 26951 23733 22811 14519
cat_boundaries=0 1
cat_threshold=2
is_linear=0
shrinkage=0.05


Tree=33
num_leaves=31
num_cat=0
split_feature=4 1 1 1 4 3 1 1 1 1 1 1 1 1 1 1 1 4 3 3 1 4 2 4 3 1 3 1 3 2
split_gain=3.09241e+14 1.51484e+14 6.48154e+14 9.17531e+13 7.84453e+13 2.30576e+14 9.07391e+13 1.26897e+14 8.47721e+13 6.81615e+13 1.04735e+14 3.01438e+14 1.50089e+14 3.36686e+14 1.13571e+14 8.87158e+13 1.27893e+14 8.14448e+13 5.88359e+13 5.10415e+13 5.04694e+13 4.39555e+13 4.36242e+13 4.12888e+13 4.04082e+13 1.00324e+14 3.73078e+13 3.44137e+13 3.42981e+13 3.30362e+13
threshold=207.00265366987779 0.0040585579128440373 0.0043273365825688076 0.045468391628440373 1308.5000000000002 5.5000000000000009 0.042010106077981661 0.039797161697247709 0.038722047018348631 0.032844753440366976 0.019343104931192664 0.021636682912844037 0.026241757454128444 0.028624928325688078 0.020973695527522939 0.010571961009174314 0.0099448107798165153 602.00000000000011 4.2500000000000009 4.2500000000000009 0.046077623279816522 3535.5000000000005 3.5000000000000004 3535.5000000000005 29.500000000000004 0.011933772935779819 9.5000000000000018 0.036742044151376156 9.5000000000000018 5.5000000000000009
decision_type=10 2 2 2 10 2 2 2 2 2 2 2 2 2 2 2 2 8 2 2 2 10 2 10 2 2 2 2 2 2
left_child=18 -2 -3 4 6 8 7 9 22 10 15 14 29 -14 19 16 17 -4 -1 -12 -5 -10 -6 -24 -20 -26 -17 -11 -8 -13
right_child=1 2 3 20 5 -7 28 -9 21 27 11 12 13 -15 -16 26 -18 -19 24 -21 -22 -23 23 -25 25 -27 -28 -29 -30 -31
leaf_value=-2148.1856071585339 1645.3884056933709 258457.54612068969 2787.6674046716025 111802.0448046875 38175.634804958769 210002.84367187499 -3786.2948996643727 101879.32406377379 38592.139461741732 -22928.632285740066 27320.83725 13058.27058393824 195850.49051339287 14181.980027641135 199735.78405997984 -1836.3245020260601 110552.39856922238 96195.255497685182 2040.3751378672041 120319.21252712673 35008.544667119568 126970.45657552083 8020.82666015625 -85048.929367897741 122830.19189866383 7777.0382430860736 -58475.294555664062 15264.560929915051 -56316.389369419652 -25152.051441387102
leaf_weight=32444 1277 29 172 40 36 20 277 46 34 138 25 127 35 94 31 318 43 27 8893 36 46 24 26 22 24 90 32 103 35 102
leaf_count=32444 1277 29 172 40 36 20 277 46 34 138 25 127 35 94 31 318 43 27 8893 36 46 24 26 22 24 90 32 103 35 102
internal_value=-0.348226 14988.2 23871.8 20270.4 17863.8 51057.2 14586.9 20283.7 28670.5 17358.2 22900.6 41082.4 20337.3 63471.9 121808 9079.97 32357.5 15461.1 -1155.65 82205.1 70726.5 75162.5 -3431.1 -34636.1 2419.55 31998.8 -7014.74 -6605.4 -9679.09 -3961.17
internal_weight=44646 3195 1918 1889 1803 162 1641 1329 142 1283 1042 450 358 129 92 592 242 199 41451 61 86 58 84 48 9007 114 350 241 312 229
internal_count=44646 3195 1918 1889 1803 162 1641 1329 142 1283 1042 450 358 129 92 592 242 199 41451 61 86 58 84 48 9007 114 350 241 312 229
is_linear=0
shrinkage=0.05


Tree=34
num_leaves=31
num_cat=0
split_feature=4 4 1 3 1 4 1 1 1 3 1 4 4 1 4 1 1 3 1 1 2 3 4 3 3 4 1 1 1 1
split_gain=2.82717e+14 9.06746e+13 1.03497e+14 8.41633e+13 2.01191e+14 7.6937e+13 6.93407e+13 8.75756e+13 1.41682e+14 5.87549e+13 7.5977e+13 4.84339e+13 4.05112e+13 3.88744e+13 4.04494e+13 3.84045e+13 1.18216e+14 4.68136e+13 4.47981e+13 5.26111e+13 4.17891e+13 6.35435e+13 1.2102e+14 3.21756e+13 3.10459e+13 3.09065e+13 2.73542e+13 5.94425e+13 6.70496e+13 4.97814e+13
threshold=433.50000000000006 85.243282403939887 0.045468391628440373 17.500000000000004 0.021636682912844037 10026.000000000002 0.0032611811926605509 0.042010106077981661 0.039797161697247709 29.500000000000004 0.010571961009174314 162.11870723763312 178.66910270702917 0.046077623279816522 224.25690573516661 0.015831063646788993 0.032844753440366976 8.2500000000000018 0.037996344610091749 0.042010106077981661 9.5000000000000018 5.5000000000000009 810.50000000000011 5.5000000000000009 2.5000000000000004 852.50000000000011 0.032844753440366976 0.036742044151376156 0.038722047018348631 0.026241757454128444
decision_type=10 8 2 2 2 10 2 2 2 2 2 10 10 2 10 2 2 2 2 2 2 2 10 2 2 10 2 2 2 2
left_child=1 24 6 5 -5 15 -3 8 9 11 -11 -8 -10 14 -4 20 17 23 25 -20 21 -2 -23 -17 -1 -18 29 -28 -29 -13
right_child=3 2 13 4 -6 -7 7 -9 12 10 -12 26 -14 -15 -16 16 18 -19 19 -21 -22 22 -24 -25 -26 -27 27 28 -30 -31
leaf_value=-5038.3060150329466 7343.0280717303222 -3783.8428385908164 32474.420905231458 191373.86031250001 14466.031944444445 92925.487065972236 2182.2685100951471 -7819.5171273904161 32589.735202432268 103907.84191820549 16078.420782156089 11127.258604756462 81317.80545428241 12293.655122789656 103566.61548295454 66278.421866708435 5708.9257434475803 137647.29851562501 74513.13388157895 9256.7435606060608 -49999.991521990742 16660.615520368305 155061.75546874999 -2865.0008642578127 -1265.1605804021449 -67463.30677083334 -22925.419560906827 67378.436529182 -7996.4256780133937 39539.324523925781
leaf_weight=7130 527 3785 221 25 45 36 5507 1276 203 33 97 1243 54 315 22 106 31 20 38 165 27 56 22 20 23162 27 156 51 70 176
leaf_count=7130 527 3785 221 25 45 36 5507 1276 203 33 97 1243 54 315 22 106 31 20 38 165 27 56 22 20 23162 27 156 51 70 176
internal_value=-0.330808 -645.848 2811.09 24524.2 77647.4 21065.1 1881.59 4300.22 6337.75 5058.86 38373.6 4457.59 42828.3 23885 38910.8 18575.2 30554 66583.3 10399.7 21472.2 10861 13577.1 55696.8 55303.3 -2153.27 -28354 11845.7 -2526.41 23773.1 14651.2
